2500 50 
1 -18.569275 -22.716928 -4.322541 11.567144 -7.974988 16.65993 -15.188581 -4.9062204 -2.350728 -4.6129546 4.9189157 -5.704501 -1.4394999 8.231167 2.1352386 -1.9568819 -3.7854228 1.0939919 1.7035275 2.9044023 2.2973504 -4.038081 -3.5846965 5.80591 1.8044611 -3.7354224 3.3949637 0.7259614 -4.7233725 4.6424403 1.6603906 6.408785 -3.7913692 -6.5331283 1.2281781 0.06367375 1.4090163 -3.2758353 1.7364933 -0.06351247 1.3298129 -4.302376 -1.4829193 1.7983116 3.2010934 -2.3540754 1.6062925 4.110859 3.4481096 -3.2948174 
3 -16.850248 6.7556505 -2.1191738 -4.9366355 19.676317 -10.416352 10.520572 5.1078734 3.6306922 2.0877945 13.368557 2.4720695 -9.645837 3.8438377 -1.3691082 3.7379034 10.397498 5.107007 -10.756036 6.4013004 0.2968142 -10.159419 -4.424397 -17.564766 -3.647712 12.122018 5.076845 -8.439935 1.9469917 6.239496 -1.6615981 14.339449 -3.0401847 -7.889469 7.262857 1.9344375 3.0549095 -5.6043134 5.0891275 -12.726542 -1.825203 -4.480643 -1.8280439 -8.763076 -8.269412 1.5322711 0.30865103 -3.4510674 -2.9367588 4.9149704 
3 -44.118454 -2.6276438 -35.394756 -35.85058 13.388645 0.9667148 2.5954072 -13.921437 -21.109222 -1.1559654 7.8307486 14.66688 -7.499464 3.532197 11.132503 -3.366741 -4.4997954 -5.6580963 -6.3941507 -4.8002977 4.2373767 5.742034 -3.722095 2.2028823 4.856295 -3.5364726 -4.2426033 -1.1504058 2.1209478 -7.64801 0.8675902 2.5619333 2.6085505 -3.1451209 -0.6138322 -2.9072793 1.3176022 1.8138295 0.878295 0.6721848 1.5977888 3.6986022 3.869694 7.8290434 0.5248521 -9.503035 -0.5798931 -0.8495374 2.353456 -0.5911413 
2 54.45955 -4.565021 -26.29491 -4.375057 4.6807575 -4.183771 -1.5178937 -7.0432444 -9.931738 17.931366 5.653138 -11.017676 10.529956 2.236486 -3.931633 6.22501 7.0502114 0.026425868 -1.2945547 4.3892603 11.130353 2.5035791 3.4624748 -0.71890324 -9.43157 -3.6223783 8.975269 6.4062223 9.396196 3.8270864 6.0847416 -1.7410207 4.9529266 5.430772 -1.5492448 1.1647831 1.2212608 -5.617714 -8.9824095 4.234325 3.9585605 10.767982 -5.471996 -5.256935 11.665113 0.6147013 4.34051 12.77272 -5.5598106 2.1013293 
3 1.8959358 -7.763916 4.4436297 -7.948383 8.186877 -10.195867 -0.5566207 22.690416 9.304383 -4.088975 -9.487863 -8.860744 0.5564039 8.459824 2.6083333 -6.7649646 -12.64582 6.9360905 -1.6892838 -4.833422 7.1769934 -0.16432847 -3.4152145 2.8184931 3.2764232 3.0740821 5.293385 2.3877516 1.3901477 -2.6661994 -0.5810378 -1.8849313 0.42928648 0.56677705 3.6661296 3.317032 -4.640395 -3.253824 3.6784308 0.9219056 -2.1771033 2.0685794 7.798923 3.2478628 4.152287 -2.9417448 0.3799151 -3.3064914 -2.7187023 -8.971368 
1 -41.92588 -5.6586337 -30.266684 4.6349974 -36.224316 6.243566 -8.357702 -6.669543 -1.8346957 10.524756 11.833825 5.601262 4.6504 -0.99318504 3.3116136 -3.1831703 2.155633 1.6242814 -10.049657 3.27524 -13.982605 4.1810503 -7.0223346 0.61959887 7.555454 -6.320209 0.422824 -4.9879484 -9.601327 9.340973 -2.7368522 -7.5052047 7.8600183 -6.7674475 -2.399004 2.1551042 2.7237325 -4.606097 -0.4898005 -1.187185 -3.0726447 5.7122555 4.797979 3.2151964 0.8701811 -2.368183 -5.0372953 2.7207212 -7.443008 0.13926421 
0 13.1800375 -0.19320492 36.786522 -20.239449 3.1796405 3.0813308 -11.463445 -15.862417 -1.4211671 7.5148 -10.425377 -1.8566554 -3.1553962 10.264239 9.845785 0.72682685 3.2309592 -5.485237 -5.365627 6.667541 -4.4113426 5.7123513 -1.0994434 4.5718412 10.430052 7.6843634 0.4741391 -2.3367465 5.131243 7.285837 1.8786372 -0.06892046 -0.11191891 -5.1490602 -0.59380496 1.7864764 5.2841635 -10.107542 -1.8713651 -2.8188553 -5.240418 8.787869 2.867206 4.041884 -1.9228154 10.935052 -1.838331 -5.5181975 1.7103857 6.2202744 
0 16.06894 11.488926 29.354315 -3.4889448 -10.01682 -8.051455 0.9113945 2.8041158 -3.2780814 -5.6685123 15.034454 -7.4583187 11.661166 -1.2212064 13.498902 -4.9202166 -3.6844678 5.7190185 -7.704635 -5.277979 -8.664756 -0.27687395 -11.358307 0.8634084 -4.819143 5.7385173 -1.5166104 -3.0894222 -11.76032 0.5921651 -0.54034877 -2.1062143 1.7486953 -0.34201467 -4.68422 -2.6075535 -5.1435475 6.444495 -7.03236 4.6551256 2.6669347 -6.3380833 -2.361924 -0.98582107 3.1483421 -3.6847026 4.3989105 5.13801 -6.0604234 -0.15293911 
1 -17.221588 -2.352254 -0.6746963 7.7256093 -11.358992 -8.5847435 -9.628352 12.453042 -22.217562 0.3565503 4.247741 4.7247663 10.461009 -1.6410458 -3.3676682 6.502909 8.613577 8.065467 -12.00018 1.1333363 -19.934408 -2.2145715 5.645016 -0.99843866 0.7061175 2.2683275 2.6660426 -5.49152 3.0941994 -9.476065 -0.5399607 2.310774 -4.2069883 -4.946933 5.580029 -5.9409037 4.0305824 -3.3284397 -6.584366 -3.2684157 -2.237219 0.4462067 7.007221 -1.220277 -2.3211486 -4.07892 0.80456537 -2.529085 -4.1864324 1.5490243 
2 29.917217 -0.12236534 -2.379928 -10.400985 0.288378 -14.979694 -13.194243 -6.852066 -1.765993 0.62076193 3.9358015 -8.960491 -5.557995 -10.7987795 -4.2720823 0.43397328 0.2428013 3.4017413 -5.9717183 -4.807995 1.0135001 1.1152692 1.8855978 1.7454593 5.4030194 4.685483 6.021299 -6.174655 -0.5500276 -0.6820598 4.257311 0.80011445 0.25039035 -3.347825 -6.1738534 -4.227972 -0.6765483 1.6682869 -3.5943532 2.497912 -1.6444646 -3.6659806 -8.77577 -0.7736296 0.8177674 4.094586 -5.8521166 -2.7590983 -4.6921806 -0.6380385 
4 -21.743235 22.895967 -4.887159 -2.1469705 -8.081893 2.7272933 3.6305826 -14.930995 -5.6442113 6.703852 5.161818 -4.6785436 -3.8577812 0.43956697 -9.226507 -2.329455 -1.6871883 -3.0894296 -1.2700897 3.8725097 -12.743923 4.227946 -2.2435653 3.6758566 11.830142 -7.0530863 -0.057189047 -0.82404125 9.103617 -4.351024 1.5485785 -1.0435371 9.502346 2.316877 -7.6441765 -3.491032 -7.023204 2.8631232 -4.5963073 -1.2824754 7.565259 -3.3137853 3.36849 2.1406713 4.431704 -0.11915436 1.3439173 4.984725 -3.3560672 -2.6330392 
1 0.32007587 -1.0867392 17.591301 5.121189 -3.7011724 -13.273059 2.5878851 11.494169 -3.2107193 -4.6106033 -0.28759062 -8.341092 -6.437599 9.14715 -9.235894 -4.4481006 4.9749384 -1.0775315 -0.923162 3.045863 2.5091794 3.7937973 -3.4818504 -5.522362 1.8570325 -3.7951252 -0.8835329 2.4863136 2.4765325 0.5816092 12.446848 -0.9054976 -4.7307663 3.892041 -9.552021 1.4380655 6.5246954 0.50116074 8.650832 4.7479396 -1.6777769 -0.21445742 -3.8423374 3.3882332 -5.245575 -8.592029 7.1257854 -4.459828 -5.9672384 -7.589502 
0 7.361925 -5.797928 16.260643 -4.3512583 -2.3650203 9.238612 3.1547987 -3.5253148 5.5425406 -3.4591699 -9.19931 0.1243411 1.1607896 -7.380982 -0.94750416 3.5168662 -2.4821522 0.65810126 -7.98062 11.081575 4.3967447 4.0741916 -0.39268512 -2.4512687 5.8631277 -9.461824 4.779515 -4.9325314 4.561085 -1.6132361 2.3498056 3.621953 0.20094316 -3.2145984 -4.595893 0.9028731 -1.44843 0.082798615 -3.2299633 -1.9817024 0.17300543 -3.2091072 2.1319482 -0.7956431 2.8185527 2.3898299 1.7718036 0.9065894 4.602116 -2.4365578 
4 -15.633786 53.74528 -2.783628 27.665335 12.915629 3.0083685 11.101198 -6.4190474 6.4238806 -6.3462644 10.067188 -22.410904 1.8223361 -10.710474 7.8766437 4.9076633 -8.40849 9.953709 6.4380417 1.5487361 -4.3155217 -7.464854 4.0480485 -15.911305 8.881708 4.416304 -5.3881135 -3.3197937 1.0502843 10.505103 2.5893793 4.485444 -4.1152587 -5.6573577 0.46361187 -1.3268062 14.110849 -0.5907423 1.3552136 -1.0413138 -0.11476757 9.310765 -4.398529 5.1748075 3.1925025 4.9777546 3.623512 -5.01041 -2.2446928 -8.160258 
1 -13.048876 -21.161709 2.5347667 19.756493 -0.2311629 -1.6092194 -14.999678 0.35612258 -8.135643 4.372752 10.251033 12.599112 4.0814743 0.52443576 -1.7614979 -0.37465438 5.371453 12.772622 -7.3420277 5.069469 -3.0304496 -8.315686 7.0546765 -0.427832 -8.374729 1.7330894 2.0705106 -5.893127 10.951244 -12.462398 -6.5123463 1.8522336 4.8629823 5.311369 8.389037 0.9772144 3.4940991 -7.705764 -2.3143892 -0.21402721 1.3782115 -6.988867 8.847008 5.0374675 -4.7269616 1.8638227 -2.8972158 -0.5088215 -3.1191823 -1.3548515 
0 0.51703346 -4.9815974 24.797155 12.8145485 10.858858 0.8081815 17.87408 -4.2717586 -2.1474955 8.191357 2.6616976 -7.8734217 -12.21103 -1.4937052 7.086908 -8.488493 -2.4185562 -5.0538783 2.790365 1.1532434 9.37602 3.6910346 10.528048 -2.1642447 11.831196 12.11385 -2.5734506 12.702712 -0.456775 2.2010338 3.7879968 -5.9666295 10.523261 6.7296476 3.6401243 4.6274114 -6.2660565 5.4474425 2.9055614 -3.791746 -6.4357576 5.2615633 9.013671 3.687145 -2.1905882 -3.291024 -12.657546 0.6240825 1.1670657 4.8431377 
0 4.043763 -17.041948 18.219866 -7.9068737 18.947687 21.710707 1.2104166 -0.23045598 1.4864447 9.613794 -2.8931823 -15.947395 -0.52167624 -3.4724064 -3.5141363 -5.628808 5.1506133 6.3188615 -1.989612 -3.1313496 -2.061965 8.061317 5.627159 5.0268574 5.076823 -1.6147317 5.050181 -0.29744935 1.0536678 3.8619483 3.950216 -5.782568 -0.38610208 6.3374944 -0.36008456 2.8909762 -3.9773858 -3.5636525 -1.8200519 0.5903798 4.5225234 -1.0123295 0.30946836 -0.1433481 -5.169557 -9.424421 2.7399132 -1.8470284 6.0297203 8.092676 
2 3.8760414 4.575674 15.173815 -8.007879 4.3541713 10.04047 -10.373961 16.961254 16.344986 2.4038148 6.948024 7.253163 4.4706087 -3.7127259 -0.989982 -0.25196844 5.3079658 16.679598 -1.719303 1.6262822 -3.251428 -6.10913 -13.168639 -3.4514244 -12.75235 -4.6928873 2.5688078 0.16064408 -0.10029405 -4.5363383 4.3843884 3.1588023 -6.495247 7.8805885 9.715229 1.8492396 -0.3164745 9.835642 4.68755 -9.585548 2.2608187 1.5626242 5.104471 4.2810907 2.904502 -1.6968734 -3.19871 -2.6024928 -2.1267684 -0.38277107 
0 17.642254 -5.741556 15.571951 -9.343817 2.0672636 12.549238 -6.5132165 1.156434 -1.4715797 -6.2498693 22.60704 -2.9534636 5.2784863 -2.139897 -10.225569 7.2096624 6.847926 2.2078502 -8.466863 0.86852026 2.5303967 12.794466 -8.60962 -7.539368 2.0772426 -2.0083592 -0.4287845 8.862743 -8.805718 4.4673734 8.4657755 -11.022816 -5.8106866 -2.0009167 5.0377655 -4.919158 3.8756378 0.40801054 -3.1857476 1.4394988 6.705948 -4.06854 -1.1466345 0.7934736 -2.1339295 1.748634 6.971508 7.1953564 -1.05306 0.5005512 
3 -5.9396386 -14.529981 2.4805624 -13.68089 4.441764 2.1476495 21.41159 1.6071749 8.531055 3.492808 8.315113 6.8909016 -1.6111687 -4.839593 5.1848855 0.5089035 4.062878 4.641097 10.726405 4.0833106 2.7100606 -3.040378 8.111695 0.013108477 -6.2857366 -0.52557826 1.652475 -0.4844213 -2.2541943 -5.371076 6.8253546 -2.9029777 2.7585316 -0.15485384 0.76278794 2.2300465 6.075402 -3.9781215 2.467616 -0.58111143 4.753653 -4.37068 0.3641997 -4.92133 4.0969443 1.8746376 1.7831827 -5.8000803 0.42455533 3.1616595 
2 48.529522 -9.586176 -21.989056 12.713574 6.5666733 -1.9366667 2.413276 3.447504 -4.8715076 13.013717 -6.2894173 -7.1144214 -16.796232 2.0490232 2.9740984 11.79039 -0.9056035 1.9850943 -3.0368013 7.0177536 0.14084744 0.85505396 -2.6866863 5.905871 -1.7577276 -7.800126 -5.406897 2.9082222 0.73244655 -1.6322814 0.7629778 -3.0945845 0.9566914 -2.0348532 -1.3207288 4.081113 -0.9607156 -0.06805213 -2.7403696 4.330917 -2.1819847 1.0929096 4.155619 -2.4707942 4.91776 1.0819883 -5.6113586 3.7277024 -4.6795835 0.2581834 
3 -16.699623 1.3885288 -9.915369 -10.737152 2.6103573 15.276373 -14.033583 11.283404 -19.076382 -13.630579 17.174501 9.423871 -27.415876 3.84622 4.3829293 1.74367 -11.919983 -22.320688 16.413458 2.3850133 2.1075747 0.23781629 3.98218 -3.521626 7.484051 -8.41821 6.921082 8.190758 2.2693698 18.115498 6.272716 -0.59243095 6.996171 1.1649954 -4.2632875 -13.549833 0.93815154 2.7226708 -4.5674596 2.103994 10.834431 5.1578894 3.9824028 8.40857 -5.4460297 -4.154594 6.126634 1.2352418 6.1935387 3.3968446 
2 22.434 6.0567775 0.5917937 13.57045 -13.891151 5.5183487 14.854116 -0.43188834 -5.4638143 -6.2811446 0.76021457 8.611735 0.21552202 -1.2336448 9.095994 7.082823 10.911299 4.5842886 -6.281338 1.6759561 4.279721 -4.9590297 2.99649 9.588017 1.4941072 3.5727997 -4.4743223 -7.6242647 2.2648916 0.04436028 7.651155 1.4399827 -2.8521497 2.2021167 7.2165704 -4.2283072 -1.4396517 -0.784817 2.2930198 1.6244645 2.093361 -4.660574 -2.6823318 0.30457866 -4.590745 5.6800838 5.169219 -1.44013 2.375884 4.1326847 
4 -5.8945804 11.045784 12.33699 10.388003 -7.3701763 10.907125 2.7674406 7.155593 -3.8793054 13.1382475 -21.562265 6.4739347 9.149447 -12.710312 -3.2877061 -10.2964 8.143974 2.6773615 -6.3337393 11.598749 10.49072 -4.747348 12.790239 -3.722841 -7.3436127 -5.759531 -0.5238392 -1.8509151 -4.781226 2.712473 -2.7002945 3.6893048 0.16376382 -1.199499 -1.294581 -5.07671 3.5465848 -4.106296 -3.7858186 -5.061002 6.260535 -1.3721766 1.10863 -0.7222545 3.1473196 0.24931106 1.0816556 -1.9881855 9.998996 2.9974113 
4 3.036789 22.660564 19.439665 2.0765939 4.2538495 -2.8282783 -1.2438782 10.182933 8.482686 -0.038514346 7.902417 -9.785065 -0.04286023 -1.8787428 8.50367 -12.357296 -7.779982 3.7515914 -0.33504108 -13.764974 -6.396736 2.6871345 -13.733193 -7.713292 -3.162438 3.2889423 1.991423 12.664514 -4.3593664 -1.9531416 7.8376765 10.194176 -3.6569662 -7.4748898 -0.6056473 -0.57085174 -0.4536075 -4.424345 -7.7265267 -3.9261725 2.9483328 -4.7905035 -1.889693 -2.9018815 4.797134 4.126183 8.087449 -6.523619 -6.9710574 10.063927 
2 47.656197 -4.36911 -18.249115 0.5461199 1.7099962 -2.3198469 -0.9471183 -3.4427662 -2.8785436 18.306316 -5.031829 -4.642788 -5.250731 -7.247227 -4.375384 3.42168 -2.7566783 -2.1989095 -6.657572 7.3609977 1.687891 -5.8006997 -0.98525745 4.131176 3.0080662 -2.7369194 -4.6816945 1.869535 -0.38473162 0.5888775 -4.185125 3.5059614 -3.4648895 -4.604536 -0.22647208 1.403075 -5.811171 2.5351074 -6.6734104 8.096103 2.6152973 0.21993683 1.8871033 0.18420953 1.6410422 0.05998401 7.81204 -6.661139 -6.2483892 0.030175371 
1 -1.054842 -16.509663 6.9564977 18.723589 1.5957005 13.50098 -22.799398 3.4572682 9.209931 -12.003403 13.570356 19.70263 -3.454126 2.6160526 -0.62704337 7.9859023 -2.2615087 8.548685 -5.783963 9.057988 1.3066798 -11.586822 -0.40333128 -4.1481423 -5.9197106 -2.5941768 18.077213 -2.9713118 6.4258842 1.5908406 -3.8171785 0.074154496 -10.644989 4.653488 6.6275105 -10.112446 -0.32952708 -0.19450259 -2.9997728 -5.825898 6.5061727 -2.5779366 -0.6990216 2.5538332 0.45230308 3.4945316 -2.018394 0.5658389 -0.5650951 4.028885 
4 -19.046093 9.30029 -12.4075775 -13.38031 -13.006846 21.739122 -2.0129833 -2.415173 8.582477 3.096785 -7.4426184 -0.49177632 -2.7719526 6.720391 -4.906483 6.4169116 -4.877894 4.9314775 -4.152112 6.4169407 -6.519989 7.675626 -0.28623107 2.864162 10.9818325 1.4249079 4.1922655 2.9512577 2.6889865 -2.699359 -2.694631 1.7779596 2.8077483 -2.597842 -1.0615176 2.6929274 -1.9411075 3.2998126 5.3829103 -1.7636906 -3.593219 -4.3521175 0.43927905 0.48091987 6.2518625 3.082542 -4.0170255 2.3289273 -8.92768 -9.47085 
0 6.9374323 -9.525424 10.162098 -13.097637 4.7443523 1.1049271 12.787109 1.6375341 3.4377568 -0.034819648 -0.39589596 -9.549161 0.55906475 5.085593 0.8334218 -7.9737163 5.7512164 -1.4712465 -4.856929 7.1568933 -1.1329832 6.201145 8.000253 4.805154 -8.912072 -4.6074204 1.6918167 -2.4127073 4.1730657 -5.1507173 0.307523 -4.116287 -0.75790054 2.3439164 0.054575793 0.21227118 7.3988333 -3.9865007 1.907797 3.0245512 4.004035 -2.3854125 2.999448 2.9457066 0.23794726 -0.07550813 0.67427903 0.37566918 -1.3182164 -2.6054962 
3 -25.24424 -8.133045 -9.002239 -16.731707 2.2578259 -3.134927 17.301836 -15.544781 -8.615236 2.089689 -5.131667 -5.914834 -3.8838038 -0.27819607 1.1818225 -9.774233 -4.0872083 4.582692 -10.931923 -0.46711087 4.6150413 2.9375348 -1.1403161 5.044732 2.4102256 -2.8275898 2.7025597 5.1226387 7.703084 -6.2499332 0.39600158 1.6016195 3.5800836 -3.5220304 -1.7981831 1.9745646 -3.946168 1.7445678 4.951949 2.1599984 4.516213 1.315665 6.334232 4.944479 0.110907845 0.18916388 4.011242 -0.8649192 5.615683 0.89516205 
4 -6.1328654 12.157927 -1.5798635 -7.8457637 -10.366058 -5.120963 -7.061142 25.893553 5.538949 12.331477 -0.7438819 11.852119 -8.97352 0.69345635 4.2091227 7.7023473 -9.150414 -14.13132 4.4906993 4.3303447 -0.77603686 13.009196 14.52656 -0.3789941 9.35187 -5.6950593 0.80037487 13.126112 -5.845423 0.49266106 5.2411075 10.845013 -0.10501571 3.2196784 -3.3995585 9.122797 3.0244384 0.2653523 -8.636294 0.70317304 10.994552 1.4861405 -3.331562 -0.36093688 -0.7589334 7.1276827 7.6191506 -8.688352 -3.9875138 5.4303174 
0 -10.71248 -6.7300053 18.211094 7.0260935 -12.649891 -3.4848917 22.841831 -4.1390624 -5.492525 5.2003365 -10.586035 -3.8067038 -1.4488546 -0.8466607 -4.9999366 -16.375326 3.6671073 -6.4905615 -2.0543253 -7.191454 6.7869234 -0.67117673 4.0541363 2.182372 -8.862302 -15.622725 9.283029 4.9719434 -1.9144608 -7.210548 -2.9660618 -0.102151155 -8.735714 2.0636396 5.919601 -6.2618847 -3.4074068 1.4583455 -1.1881653 -5.1545672 4.659261 1.5479897 -2.7286503 1.4006741 -3.2205064 6.9451947 3.187851 -5.7348056 1.2288476 3.433798 
1 -15.604607 -14.277847 -2.2533937 3.9959207 -10.550008 1.1161832 4.7967243 25.30554 -0.9313399 -1.432315 3.1004443 -8.517375 4.8564115 16.513033 -6.7313814 0.8117747 -3.1599936 2.633825 5.5921226 9.770076 -4.0886197 -3.7004867 4.8657346 -6.981662 2.469187 -0.029263575 -0.29065692 4.3833637 -5.222262 1.7311065 14.544301 10.611846 8.370907 -0.34672076 3.987463 7.804594 8.244287 2.4895804 1.6448013 11.820574 -0.282332 2.921813 -2.393639 2.471846 -1.1013712 2.840641 2.8264048 -4.472968 -0.64128286 -4.773974 
0 -0.28814954 9.637017 51.919228 -9.040119 2.1942928 -9.160861 -18.472685 -16.025406 -19.658777 19.14853 -6.6376987 4.1745076 -6.9418526 30.034796 22.25208 0.007934157 14.973377 2.1873107 9.4831915 6.086546 -11.705834 -0.0202156 -3.2269614 14.558674 -3.538461 13.327039 -9.207373 5.38352 10.159629 5.551019 4.6419396 9.608564 6.78675 -5.715892 -1.1019391 1.4755728 7.431084 -8.732533 -0.17623377 6.2121105 -11.496767 10.726174 -1.8139335 7.8574085 -3.2034419 2.779773 -5.9061885 -14.180157 4.2285137 -1.709282 
2 37.127983 -2.5245783 -5.5755835 -0.5884403 1.7819428 -4.4799933 -3.593892 0.12126134 1.4106562 -1.4085354 -6.291647 -7.137589 -12.244693 -3.2731016 2.7482486 0.6100032 0.4818811 4.9335155 -0.036618426 4.315953 -5.3532414 7.7631364 -0.8555799 1.3236083 -5.573449 -5.8175144 -3.323832 0.21918242 -0.29862335 -3.8619711 3.096434 3.3072727 -3.6904602 -6.154929 -3.9378893 1.0304127 -0.87356716 -1.2063509 -0.6859901 -0.8562007 -2.7560163 0.4033195 1.2436295 4.29496 1.8757569 0.8299644 -4.1010194 0.17265128 -3.3472786 2.6550784 
4 -25.90344 31.67589 -12.494736 -4.4223666 8.1668215 -27.594336 -19.451563 -1.2062157 -9.309582 -3.7082682 2.8221605 7.8261023 5.483081 24.001953 -17.227087 10.840833 7.966187 15.793061 -10.635166 -11.639438 -4.43483 -0.5322811 1.393492 1.1587207 8.956221 3.182999 -0.2518405 -1.2563239 -1.7700293 -2.024846 -6.3087 -7.075843 -5.6351485 0.89501625 3.4156246 -3.2977352 -13.433462 -3.4487057 -11.221403 7.9677873 5.4097285 -3.125396 -3.844912 5.5702143 -4.992031 3.6146746 -4.648063 7.3552403 4.5066686 2.7431972 
4 -10.115745 40.776062 1.9214077 11.448957 5.6666293 25.185778 -0.11747097 -9.881246 19.959085 -1.7591892 10.254117 -7.5416923 3.4326491 -0.81394553 -2.0236125 9.143215 -1.9007556 -10.709628 10.522181 -6.2510886 0.8649338 14.565134 -9.745444 3.0555656 -8.845097 0.6521001 0.9520661 -6.070565 8.666952 -2.7786622 -1.8768553 1.6564403 -1.1926359 0.5977627 1.6828637 1.7070638 5.129711 1.1157218 4.0917234 -1.0261077 -7.091872 -4.1305757 -0.6395032 -1.6291591 3.0138192 3.8886695 10.967555 -1.4522024 -4.4158897 -5.0041404 
2 59.25233 -7.845442 -30.82099 20.918465 4.573545 14.10843 13.525729 3.0669107 -4.225153 1.4232384 -13.238303 17.36638 3.637322 22.902552 2.9236796 -1.6609657 13.569665 2.5441375 19.214397 -2.7851655 -10.470919 2.8266654 -7.066129 -4.826502 0.010784119 8.327857 9.051847 5.326698 2.5359883 1.9677813 -10.5540695 2.0916188 8.302854 -3.3073325 -5.3485866 2.703371 -2.9152384 -0.77850956 8.206058 -7.7479258 0.26565674 8.125246 6.3169465 -5.8000097 -4.037148 -4.925851 2.4198594 9.516347 3.6204035 -3.6247773 
2 30.818521 6.3517146 -24.780977 14.4675865 -1.523733 34.091034 14.542189 6.6894073 0.7808779 -7.1638865 -24.543848 11.156902 0.18104146 18.346994 3.6233995 1.9067534 9.585893 -3.366482 -0.55216765 -21.738596 -5.780408 2.2922509 -1.185641 4.480939 -10.883982 -2.6098864 3.556399 -0.5279008 4.9413414 4.8813024 -4.863189 -2.7766037 -9.814033 -3.2318938 -9.085222 2.4547417 0.338678 1.305192 -11.318756 -0.97349304 -3.441997 -1.3824917 -0.18232165 -1.8219558 -3.5660188 2.8357928 3.1825867 0.29832596 -0.31054634 1.8636171 
2 56.988827 -3.674381 -19.497107 -6.081103 -4.2686205 -3.9569268 -4.6852183 -11.578434 -2.8111749 6.5896297 1.7438668 -4.808092 0.05401911 -1.1118035 -1.8990173 -2.5457432 -4.761387 4.2304673 4.3347435 -4.311318 -2.001565 3.9049773 -1.6561452 -4.1025686 -10.111814 -2.7342644 -3.8154702 -0.36243445 4.6239605 4.2486906 1.7373586 1.4686909 -2.111893 -2.8691404 1.8927213 -1.500415 -5.476122 0.98323065 -1.3152988 2.5599837 -2.1387284 3.1634374 -4.5045757 -1.1294582 2.04023 2.5909367 -1.7217661 -1.4388372 -4.6514325 0.66157526 
2 36.43747 0.42627168 -1.5358458 -5.0772886 -0.90656626 -5.0240817 -0.30138236 -0.6372202 -4.843813 5.416869 5.143083 -6.262418 -1.8371469 -2.6580558 -6.8937793 1.6147525 1.1855814 -4.067136 -5.997845 5.0854497 -4.8772745 -5.9359627 5.0969424 3.65216 -7.637757 -2.1544685 -9.757305 -3.3899932 3.4144804 4.918324 1.682697 4.5931754 5.500795 1.0596445 5.41165 2.2612507 2.5570552 0.7761302 9.237677 -1.7695864 7.85571 -6.548574 -1.7201084 2.2411754 -8.861124 2.7084293 4.0450172 4.331151 -0.81522423 -1.7501824 
3 -25.676569 -13.926365 -17.80835 -5.87158 -19.379297 4.170843 -9.611149 8.858781 -4.0395103 3.0573986 6.0861754 1.0404315 -3.4694114 1.9005988 4.041244 -8.393723 -4.11717 -5.4008937 -9.195918 -1.7589773 -2.0297935 1.8087823 -4.2332845 1.8166095 8.993302 -9.968322 2.8622122 0.8262869 -5.0957 1.2150589 -4.54252 3.3985903 -2.2612822 -3.9481344 4.2684474 7.389726 4.8107524 -6.7981496 -1.3767374 1.4727888 -2.6389031 3.6035538 -2.464582 4.1313844 2.9851017 4.1788526 -0.2409265 2.0306492 -2.8861542 3.3918943 
0 13.386694 10.39998 27.06135 -6.868346 8.507467 11.65828 -5.335479 -1.279277 1.1002702 0.9137146 14.736702 -23.679028 3.0789938 1.4684508 5.188715 -4.346326 3.2030962 6.855362 -7.299236 -9.834359 4.671691 6.9518504 -11.18953 -8.250891 -4.266203 -6.973827 -0.25291502 -0.55619514 -13.103851 -2.8183267 -1.7361495 -8.9328785 -2.1029708 0.12391773 5.635239 -2.4546943 2.5261555 -0.08253755 0.27815723 1.1192632 -5.98153 -0.3038509 4.150026 8.924859 -0.120264724 0.32076252 -0.8180918 1.3941824 3.3893893 0.24642411 
3 -20.530735 -4.8564577 5.2638535 -5.669678 -11.937237 -21.455194 21.190523 -0.7664061 -10.145828 -2.7656248 -5.9181175 -3.5448203 -6.3675294 4.6544843 -7.2510285 -1.3275844 7.61775 6.2131367 8.704727 4.989137 6.69931 3.0341477 -1.5538337 0.1371445 -1.9943275 9.048502 -3.3595986 2.0461123 5.467408 -2.5358999 -3.1705253 -7.791087 -7.5883327 -0.9531987 14.290335 -0.30801207 6.3424363 -1.1104156 1.4258466 -2.532612 4.259748 0.32660386 1.6292077 -1.731912 10.92371 2.7840137 5.5092344 0.5935778 -1.5169554 4.189574 
2 39.726345 -1.3216088 -13.36384 7.96196 4.9485426 -9.090821 -7.606757 -0.8370611 4.2236986 10.853773 -7.381539 3.308178 -3.0969846 -6.6884484 3.2846303 7.5117006 -3.6732814 2.870834 5.813152 6.4295807 -7.17373 4.925335 -3.8476691 3.787588 3.7198155 8.753224 6.8531013 5.2531867 -2.5805616 -9.079688 7.7688317 -1.8137572 -5.7752595 -6.905453 2.529976 -2.034523 0.7771453 -3.816507 -1.620584 3.9024746 -1.0040729 5.5489755 0.23155363 1.2612092 -4.6349716 0.080948465 -5.5024486 -3.65517 8.487797 -1.920361 
1 -31.214739 -29.07235 -5.428838 19.449556 -16.762377 -0.22607416 -4.927742 -17.42709 -5.5958643 2.3721657 5.2727733 -3.383414 5.98493 -10.317823 -0.6317113 1.9526243 7.918427 -14.395052 -7.4166794 -5.733214 -11.412961 -1.6007097 2.4415994 -5.6901093 2.748378 -1.6136882 3.13552 1.0891337 -3.183205 -2.695834 -1.7177981 1.6585778 -6.824776 -1.1501865 -1.5278027 9.263314 -0.2247518 3.1222527 1.6814177 -2.3061526 -3.5569801 7.718648 -2.1339948 5.732392 0.7474365 5.2450657 -2.5633914 -1.8990989 1.9181504 -0.8928809 
1 -15.2284355 -2.1330342 5.5167584 8.476885 -15.058589 -1.7478616 -4.0909743 -5.457147 4.016967 9.401761 -10.6725645 -2.0336285 -0.5276654 -5.389274 -0.19621345 -9.772699 6.9975357 5.6132827 -10.505498 -0.15602478 -2.2813559 1.3546679 -3.8465083 8.172008 -1.0875051 -5.9052653 4.465967 -2.7384598 4.3646626 5.3328457 0.72580934 -0.5888468 1.8382738 4.4327884 -6.6739144 -3.7819638 -11.868855 -1.6497576 -1.5898958 -0.12792292 -1.2219738 0.7467748 0.7728736 4.8576975 -3.3011622 -6.0857515 -1.6410012 3.481021 3.9199464 -3.5065753 
4 -17.94459 19.478735 -7.1431823 -3.0771036 -13.449017 15.20849 -3.237818 11.755437 -5.459261 9.268112 2.7093842 -5.0278897 -3.6148062 9.768005 -0.7194595 -10.950899 -4.3855815 -3.1708348 -5.7009993 -3.8552642 -17.566532 7.501293 7.354357 -2.477193 3.2168787 3.752964 9.325481 -4.721598 2.062204 -2.9655657 8.515871 2.586604 -6.049477 1.2003024 -3.4995153 -3.8541625 4.013254 0.1893677 -0.8475503 8.695963 -0.45587337 2.9119916 -2.9325964 -0.48802093 -2.2225623 -0.3171808 1.2435815 4.584826 0.78658646 1.3728709 
4 -13.255724 0.89882326 2.6906056 -10.563589 1.7703781 22.435917 2.5015428 2.730739 -10.641552 -11.759929 -7.8356543 -6.559147 0.18411168 -4.9288254 5.433675 5.500967 1.8912945 -16.473991 -2.5702214 0.21055223 14.335905 6.049573 -5.694253 -2.6557386 -9.342311 -11.1762905 3.810859 10.588448 1.6784025 -5.507704 -6.170551 -6.0387754 4.059589 3.002131 -0.07267476 -3.625224 -3.7065825 -8.404523 5.446093 -1.2605617 -5.0930395 -2.989006 7.0370617 4.096987 7.219189 2.982823 -6.0570426 -5.625681 -7.057675 -0.67390424 
4 -17.781404 48.736824 -13.773754 -3.299259 -2.3428078 32.523483 -6.0015554 7.391073 5.0422792 8.812398 -17.983118 -11.024093 6.5547504 10.280824 -3.3205543 -10.767941 -2.9810712 -7.369289 -1.3191577 -0.5059538 0.80541456 -1.8089107 10.730752 -2.8125894 -8.929807 12.451665 0.19136927 -6.606742 -2.5246625 -3.5829284 -2.558744 -8.624891 -3.1858504 8.177329 -3.464756 -5.8325233 10.475617 -0.9414803 -5.2135987 1.6273127 -3.4901998 6.3891973 -4.764516 -4.3317037 -6.6375604 1.5259537 -4.535649 -4.933569 7.578966 -4.759283 
3 -23.961277 -16.024693 -11.419546 -24.376451 15.763014 -7.379282 19.50585 -6.1760807 9.159671 5.9387608 9.483539 -4.6747355 -10.274314 -3.2834022 7.488554 0.565538 2.716837 -0.7895705 1.6153616 -16.005377 4.350635 1.4515278 5.7611547 -2.1882756 1.2725943 -0.22356915 -3.60077 -1.9783962 -4.8413835 -0.17188498 0.15166909 5.1721435 -1.4767447 0.14875892 -3.566819 -2.365449 -7.7779303 -2.352404 3.9000804 1.7773577 2.0030344 0.69893247 2.1853576 -4.9960485 4.389756 0.74169445 0.3856234 -2.2468948 9.026024 -1.8665951 
0 6.7415504 -4.7416496 21.910019 -15.108685 25.879608 6.945082 -2.025614 7.612294 -16.483145 21.021942 0.4031787 -18.483805 -2.4613407 0.59745127 11.262878 -0.5879416 14.4183235 -2.1776614 10.838262 -9.420835 2.6555839 15.773333 12.934781 4.613475 6.3212323 -8.960998 8.500771 5.15852 9.781885 6.978533 4.8736506 -15.569183 2.8618875 0.986951 -0.13530892 5.161628 1.7390435 -13.672945 -1.4572062 1.922603 2.700394 0.27963996 4.3781247 11.303435 -4.534194 -0.86200833 -6.2733192 -9.277897 2.2863493 11.500311 
4 -13.886727 24.398882 -7.8342023 10.284523 -15.970218 -15.451943 5.4019175 24.946096 16.484375 2.6292405 3.3257449 -9.734784 -8.544252 9.332999 11.111333 11.440525 -16.69525 4.9860406 1.9525721 -14.825499 -2.8142784 6.917394 5.6283584 5.7749014 8.915248 9.24694 6.7738414 -8.687518 2.425766 3.2069905 0.25168383 1.7888534 -7.2877107 -3.9420574 7.21931 -1.944471 2.4943113 -7.2672048 -7.2899723 -14.122885 -0.36127543 4.6686225 -5.5610886 -1.5081362 1.9592533 2.4507952 4.3886724 -1.6931065 -7.433988 -1.4973755 
1 -9.310388 -5.073729 -11.477226 2.812888 -0.3540558 12.768116 -4.7814417 -4.7929497 8.072563 -12.288606 -12.413822 -9.563851 -10.478314 -2.7342372 2.3701618 -4.093024 -4.030617 -0.82884073 -5.109382 12.958084 -1.8368976 5.3110447 -1.176122 2.1863513 5.0966434 5.5675516 -0.9846692 -5.048904 -0.81647265 -0.60378844 4.171542 2.028866 10.914837 -2.760065 -6.1317906 -4.531581 -1.4755858 -1.4939499 0.27875635 1.1168299 -1.7348664 0.20057783 4.644099 0.41025954 6.4646125 2.363054 -1.552348 7.2920856 3.62655 2.7490718 
1 -8.432756 -19.588654 1.8852631 -12.559654 3.3440552 -7.0384665 14.212094 6.8160152 2.746893 -11.751888 -0.15989998 -11.009766 -10.893024 5.1334352 -11.267052 -3.5062187 -2.55729 -6.3376703 0.6759145 16.127403 -2.55919 5.689752 -8.399533 -10.92883 -4.4822164 17.393478 -2.0436275 -1.7735844 5.960474 4.905753 -2.9897966 3.6010077 -4.0510855 12.781924 -14.050387 -7.232291 2.1338885 1.9330194 -4.6835356 -0.5044035 2.872005 9.261291 4.846269 -1.4887625 6.479483 -1.2709715 1.4884164 -6.315705 -3.1710494 7.095292 
3 -30.308958 -6.149308 -18.58917 -2.5925937 -1.0695109 -3.4602647 -0.5016059 -3.0972505 9.03165 9.740598 14.067577 15.73131 6.5375295 -4.4845276 -0.54507905 1.311485 5.217276 7.4489675 1.1664177 2.1631558 -8.320309 6.798283 4.149063 -8.787764 -3.8880396 0.76920223 -9.893103 -3.132844 -0.8341124 -2.5054722 1.5662217 -4.0594716 0.0899345 1.5051389 6.881494 1.0314454 -0.605497 7.239238 3.1206238 5.8273044 -0.61332715 3.0760462 3.2462313 -3.3110993 -3.6551523 -1.5586816 -1.9826295 1.0853031 -6.4885755 -4.007212 
1 -15.254029 -32.80088 3.6461153 16.146587 -10.345446 -1.9285861 -19.836649 11.864478 -6.8740487 1.4884326 2.2190661 -2.6397028 -1.3697237 7.096883 0.11194087 -1.7955468 -2.1858654 2.0359898 2.9510937 8.238835 -1.4753507 -5.3751926 -4.2342668 0.1594558 2.3007402 -1.8755196 3.170686 0.8558126 8.143363 4.271263 -0.24764673 4.1751847 -2.1960979 1.2095585 2.6115215 3.1777823 1.911027 -4.277443 -6.201398 -3.7349167 -0.52813506 -5.6172953 0.9689849 2.2321222 -2.6417375 1.7979553 4.7872114 3.3986735 -3.4301865 -0.37112334 
1 -16.324335 -22.270187 5.02133 12.286578 -17.360846 -1.5397252 14.854659 1.2813667 4.829669 6.5424247 1.8974842 -6.491787 9.648113 -2.5580137 -9.865746 -10.223139 6.2956123 1.9115685 6.51158 5.725525 2.7753115 9.749192 -1.2435265 -2.408587 -1.4827602 -1.3720391 -4.9091973 8.951853 6.0747175 -4.076208 1.2947671 -5.3570457 -1.4310787 -1.4376626 1.0815432 2.301794 -3.2043185 0.48369294 -1.3578207 1.4411175 4.199858 -0.06540348 2.9720812 5.2749143 -6.6826706 4.218482 -6.6773586 -4.478915 -5.025992 -0.15665911 
3 -15.146258 -13.182732 0.95613974 -8.295946 -1.937223 -8.914421 6.08867 12.205897 -8.4786005 8.921769 13.911902 -3.0163152 -9.136806 7.2236404 -19.304565 -1.232162 0.27519798 9.343898 7.77335 -3.6436281 -3.0788941 -2.2178545 -10.271165 0.08777456 -1.635407 3.8434622 -1.7806547 -0.9985779 -4.654854 5.019529 -5.3724084 3.3357887 -0.7321414 3.4694555 9.752492 -0.2936466 3.2594452 -1.2962118 -2.7341979 -2.5875745 -3.4974313 -5.121117 4.08701 -4.2402153 0.27772266 -3.3076787 -6.394554 -2.8913896 7.057623 0.06573769 
2 35.23679 -6.263754 -8.311405 -4.3312936 -4.392901 -4.376591 -3.7571454 1.5834363 -4.9347124 -4.265893 6.128886 -11.984435 3.4460173 -3.4230301 -3.8024936 2.6907604 9.170189 4.8705487 -6.484023 4.3128557 3.4854753 -3.5953798 -1.3593796 -3.1169643 -2.6979632 -0.8072478 0.12862998 -3.1332028 4.265181 3.1511376 -3.0634365 1.6545594 7.42205 4.171288 10.314913 -3.4659884 6.872741 5.80613 5.091322 5.128117 5.6292667 -8.9118185 -6.9481 -0.34628648 -4.263361 7.7729874 -7.884821 1.3498214 3.9013815 1.2751193 
2 49.95099 2.8475273 -18.79621 2.1512735 4.753534 -3.590242 -4.68463 -2.424869 -1.3870814 19.60704 -1.4609047 -11.578704 0.41984195 -6.404842 1.9423132 3.2077925 2.9122124 -3.5409198 -2.8532872 8.610065 4.3006744 -7.678309 -2.9959528 -1.3953427 -0.13435183 -4.9020743 2.0569808 -0.4640755 -2.3447666 -1.399895 -4.7142735 5.8248425 -9.487019 -9.138699 4.302509 -2.792458 7.9288087 6.603158 0.072684884 1.6573725 2.3761945 -4.764408 2.4459217 1.987144 -5.259854 2.7932928 6.8027844 -2.8449898 -4.1305923 0.19755957 
0 -19.11941 2.475014 14.499423 16.347227 -20.095552 -13.9128275 11.753227 9.641738 -9.630383 10.501954 -5.5255513 -0.06657985 -0.7323428 -0.20913588 6.0906043 22.037144 -0.40153098 2.3024104 9.166526 -4.9801173 2.7995849 -8.692256 18.961416 -6.980959 -2.1145136 -5.3830132 5.676834 -5.9783564 -1.4636828 0.15485334 5.822479 3.7476897 -3.4612036 1.8884811 3.6785345 -2.6876502 -0.7258491 -3.69264 -0.92673475 -1.4108105 -1.3138198 2.6139936 -4.4884863 0.4991468 3.2187135 -7.141569 2.6015031 -2.3620608 1.807174 -1.7932401 
0 4.541408 13.354134 24.074873 9.652685 0.44902948 -11.082121 -15.916939 -1.1032805 5.2229676 -1.9124498 13.296512 9.173234 0.6334976 1.4805971 14.237665 4.6280036 -14.217512 -9.435127 -1.0982056 -3.6815264 0.39077604 -5.880825 -7.864242 -9.816344 -0.8984473 0.33266544 1.4728167 1.4754725 -3.8611665 -7.0303955 1.5019338 -2.3686733 1.7271283 -3.5564868 -0.2851349 -4.1734705 2.907068 3.2150853 2.5396552 6.3220696 -3.6111467 -0.20045802 7.5460844 2.6937478 0.65933424 -4.855137 -1.812353 1.0148997 1.5335245 -0.080651075 
0 -2.7928493 -11.578044 19.842014 14.544035 -0.2939424 13.218486 12.456531 -9.744903 -7.8274345 -6.7801003 -22.972954 4.880981 -12.805657 -11.300693 1.6204729 7.875287 6.329208 2.5147333 -1.4224868 -6.018736 9.336098 14.00324 -2.662155 -7.151755 -8.224676 -4.574554 13.166997 0.039339595 -0.21753885 9.003023 9.3118 6.6845584 -3.3659692 2.8099823 2.7316408 4.4166284 -1.8340805 4.59265 -1.5026292 -4.963604 1.4423945 -3.5194833 6.4480915 6.1262026 -0.776944 1.5393965 -3.8328722 1.4400873 -0.26654503 -9.645807 
1 -16.178133 -36.714676 -6.7588325 23.500072 1.1789999 14.197209 -21.72217 -8.21953 0.6695078 -9.889795 -1.9977717 2.308678 8.105659 -3.95135 0.052772105 5.0187063 -5.194359 2.723127 -0.17442605 1.7273681 -5.546865 3.0179062 4.1954865 4.16649 3.2588272 6.1329327 1.0966253 1.2931483 -2.0457273 0.7863184 -7.0754647 5.749342 -1.6657408 6.7104044 -5.663327 -2.6849687 2.1047304 -2.6714792 -2.2039719 -3.9144068 3.3383503 -5.6166377 -0.78832054 4.7172484 0.7214613 0.3061456 3.7430682 3.0295987 -7.1925545 3.3184826 
1 -14.243712 -6.671634 -5.180409 -6.569643 2.9734054 -7.9452524 1.7895732 16.560877 -16.11471 -8.871136 -12.637852 -15.718158 6.97166 -2.669988 0.7783008 7.3996453 -1.8520921 -1.2510843 3.5775638 3.2880335 -4.6930337 -6.275291 10.399764 -5.0466995 10.583753 -2.2266586 -5.112583 3.4872532 0.93785477 -4.111002 4.997845 -0.14290127 -2.2172976 -10.208832 0.8423489 1.773014 -3.809253 4.954275 3.1320076 -4.171728 -3.7356093 -0.22381602 0.76011413 0.23335044 2.2296083 4.7367606 1.6204058 6.9850397 4.872885 1.5226431 
4 -10.028146 29.334738 -2.5951486 16.907427 12.533117 -25.687628 -1.3797824 10.190859 -17.902649 1.1764008 3.6146412 -17.089224 0.93119085 1.1457994 2.2223673 2.3332613 2.917645 0.15365732 6.3928375 -5.486153 2.5199287 1.5644671 -3.9868171 4.2117863 1.7325208 1.8299305 -11.356484 2.865466 6.476041 -5.409569 1.8194997 -11.446527 -1.351994 7.24125 6.2924185 -2.414638 -3.8191237 -7.818179 1.2014786 -4.729647 0.89692795 1.2694678 6.61992 -2.9078438 0.67113143 -3.4379706 -7.2369514 3.0631614 -5.2184744 1.6626731 
3 -10.778741 -10.904299 -1.6673486 -13.210688 18.563143 13.341029 -15.302733 0.8053424 -9.542617 6.477593 -11.885111 7.6521864 5.802043 -6.5125 3.2108154 -2.3307662 -10.307754 2.535472 10.605397 2.378101 -1.7261199 6.1159983 -0.96668154 0.5293423 9.062618 -3.9331942 -6.6449037 2.388557 2.3959947 -3.4212093 1.203617 -2.525973 -7.3499804 2.1846697 4.429627 -6.547535 1.421623 2.7420459 4.009289 -1.1687852 -0.9736346 -5.0469584 -8.3390875 -3.5296779 2.0409296 -5.275505 -1.8181026 4.523766 -6.3617287 -5.071188 
2 34.438637 -3.008522 0.89545405 4.2136955 2.633738 -2.1119788 -0.08188082 3.5273383 -3.8789678 2.2403414 8.226788 2.8211043 -1.5054069 -3.9043338 3.6507654 4.4590445 -3.7059243 1.9690434 2.5572197 8.6932745 4.6329913 2.0659273 2.4205089 4.9665337 -0.7005274 2.6682372 -6.882863 0.40810618 1.2758429 -1.5549525 2.7333093 -9.848816 0.07096875 -7.1491036 -8.798494 3.228794 -4.382749 0.8362577 -5.5301547 0.15691175 4.41856 9.890613 -3.524325 -2.746411 7.4061365 2.015472 -1.2024398 6.522093 4.2920837 -4.243313 
1 -16.745277 -38.222225 0.8888983 26.788836 7.793334 16.623981 -19.392412 1.3010685 -5.7967396 -7.1327863 -6.810511 -12.1112795 1.5233504 4.334784 1.5045866 2.327618 0.19500819 0.70646846 10.231296 -3.7013981 3.9899023 -2.1726837 5.2518744 8.441781 -0.5256649 9.084298 -5.0501037 -1.0405247 -2.988058 3.509321 2.50838 5.646295 -5.224472 4.202677 -2.9661987 4.8541465 -2.8969934 1.051791 0.3217241 -0.7637028 2.983296 -3.9006686 -6.794907 -4.7529397 0.90107834 -5.2931905 4.102281 4.4375787 -1.6209244 -1.1174662 
3 -33.991234 -4.7899427 -20.86005 -7.6991124 -6.43417 0.6545696 -4.8754573 -3.6489418 -10.423475 10.406205 -2.422816 10.565323 2.5566733 -3.804242 -1.5759147 -2.7955458 3.2488346 6.281438 -6.558557 1.7364072 -3.6278458 11.581057 3.6130228 -5.402197 6.7537436 -2.6714993 -3.3889744 -4.4911094 -10.359363 -0.9158306 1.5757879 -3.7227824 0.6824287 -4.093304 2.6612632 -6.7438426 6.393881 2.4162185 -2.761388 -0.5187452 -1.758706 -0.7725799 2.435976 2.5907042 -1.9668777 -7.3290763 2.4923 2.1093826 -3.687441 -8.00271 
1 -27.331358 -22.164248 -0.7394507 15.791259 -19.465605 -11.353042 -8.5389385 1.0248322 -10.353391 6.987019 -3.551727 -1.7654045 5.0271688 -3.2166557 0.98971236 -12.068904 8.977005 1.5038478 -2.308652 -6.0763836 -6.7377 -7.6273613 -0.60782963 2.6084385 7.264328 -10.639128 -0.19417357 6.178477 4.0518546 -10.254367 1.1277435 -2.3351865 2.0595355 -3.2255695 10.185049 2.2101505 2.48874 9.953577 -2.7105856 -2.2848785 -7.6768184 2.4477754 -2.9693942 0.1306088 -2.8260758 1.7830548 -3.335534 2.487779 -0.1273226 1.3114337 
1 -7.285667 -5.393873 13.295521 11.085155 -15.116203 -4.9687448 0.37312722 -10.752723 1.7387266 3.7971456 8.044358 12.776904 2.78682 -1.2276843 1.3132066 -1.8750534 -1.0514218 2.8583536 4.1607413 4.43052 -1.8663418 -12.9837265 -0.17024055 0.61449224 -12.700057 -6.437896 1.5443943 1.1100669 5.2998443 -1.681238 6.721424 -3.1865761 1.5925586 10.542698 -2.0168593 0.929835 3.763168 6.037799 6.4002495 -3.4003086 0.8339966 -1.2940226 5.1572146 -0.90678775 -3.8796353 0.80485046 -1.8491896 -2.0380564 -0.4053509 0.4868169 
3 -19.375362 9.946207 -0.67366767 14.030292 11.8670845 -11.135604 1.4131334 4.174403 -6.0703025 -5.963187 4.05622 6.2644734 -1.5092106 7.387919 0.7503814 6.5551023 -1.635909 7.703468 -16.91567 2.5996885 -3.376833 -5.1766815 7.2788196 -4.156025 -4.4776134 -1.563885 4.4967985 5.2305093 1.1295336 9.060643 8.150587 17.06922 -3.8051722 -2.9218788 -5.2669506 -3.1215582 -8.2701025 0.12761706 0.5077789 -0.84683484 -7.612581 3.027907 -2.1497135 -1.4700261 -7.3218355 -0.23775522 0.31524473 0.92289174 3.4967906 -5.9720144 
1 -18.893257 -18.664656 -6.023155 -2.4044576 0.8953297 2.6541772 7.2516975 4.6307955 19.412987 -0.6461469 -7.837671 -7.3920345 8.6396885 -7.086269 -0.3806911 0.0054811537 6.184639 -1.2783674 2.8870335 -4.295295 -3.5194037 -2.9926598 1.4552691 1.6821344 -2.44206 4.6292415 -4.5493393 5.223624 -3.2403665 -3.9592373 5.6024756 -1.2436993 -1.5898772 0.90183693 -3.5328112 -3.765235 -5.5562463 -3.6165798 -1.0487769 6.210674 -4.8665133 -3.3006186 -4.474239 -6.5011597 -1.6955127 6.3185873 1.0619005 1.7423632 1.3096501 4.3946376 
3 -16.094461 2.043437 -4.4283767 -16.04731 4.3057966 1.1105012 3.6947868 5.2809415 11.635412 11.257216 8.512127 7.98897 -2.451943 -11.1217575 -3.0800154 3.3023608 8.317647 -5.9368324 -9.372843 -8.18917 -5.325699 6.2024317 12.046631 -7.7666526 8.775479 0.31222156 -2.886172 3.588649 2.8810916 5.393185 -6.3617086 5.0508857 1.7987723 7.415475 -1.8779299 -4.5404477 -8.305854 11.86265 -3.805156 4.7998734 1.022852 -0.2413617 9.935827 10.416114 3.2448697 -4.4270873 -2.2211192 3.723818 -7.520798 -7.9872165 
2 41.127605 -3.4555075 -11.751477 2.8620918 0.68691385 -5.9288287 4.1266627 -2.2815616 -6.5362544 17.30715 6.5013947 -1.4209696 0.9612318 -4.939631 3.300535 6.7675195 -2.2093976 1.2430842 -7.1562667 9.494106 6.033888 -5.3965235 0.74527144 2.9510298 3.1129782 2.1538162 -1.709705 0.38469025 0.7450036 -2.2476301 1.5667313 -6.358736 -5.504179 -0.91974247 -4.2444415 2.5382717 -6.8081093 -2.6961565 -1.7492845 2.4538412 -1.072441 -1.0165454 -2.4416378 2.6231215 5.2207904 0.9125337 2.838989 2.090188 -2.4990668 -1.8024733 
2 47.42644 0.15528199 -15.464324 13.801883 3.7546399 -15.1270685 -2.7640882 2.8542175 0.17183836 18.996515 6.247901 2.4970164 -19.34693 -6.099977 5.839665 13.399617 -6.9272566 -11.00253 -4.6801147 14.234373 7.8623295 3.352231 -0.9111278 8.026332 2.9847069 4.3355083 -5.731684 2.3210623 -9.346879 -5.0356674 6.1885366 -2.3435392 -10.337141 -5.026254 -2.8471055 5.668136 -2.1524723 -9.424756 6.042748 0.21929964 -3.353575 -0.7866884 3.5870185 0.20182404 -0.38722652 -7.184554 -4.2839475 8.44667 -0.05353356 0.07780964 
1 -19.202063 -11.368302 -1.4694473 -10.4232435 -8.216477 -1.9864287 -13.034025 11.367879 5.5674167 3.1950583 -19.213806 -0.86190706 7.130822 0.26256144 2.6675239 2.6113222 -2.510415 3.6443515 -3.4561982 0.80948555 2.3740165 -8.946039 -1.284338 -3.6772647 -1.5028323 1.279989 -0.570946 0.65607375 0.88954407 0.91103935 0.04932776 -6.6476526 0.3038987 -1.6998878 -9.718854 4.152831 -4.1558585 -3.6312826 -3.982817 8.697675 -4.9692955 -0.12802179 -10.935765 0.5251429 -4.096801 2.7480354 3.6444633 6.712961 7.0257173 -0.9599065 
3 -20.224747 2.5820317 -2.6766737 16.50022 -6.798018 -10.730877 -7.1593747 -8.017957 0.16631174 2.7151885 4.486416 1.6720555 -0.45244318 -1.1459786 -3.8998628 0.4443786 7.175893 -7.0113053 2.1169262 -0.007431818 -5.5773034 -4.02485 -2.3163142 -6.0471163 6.364259 -0.6877667 -5.5196576 -4.7431273 2.3635783 -5.8631434 6.914637 -9.787093 -0.44171923 4.449149 6.946483 8.619183 -4.281866 -1.9154981 6.1929865 1.1723815 -2.589191 0.12015046 -7.053198 -6.575359 -0.9660992 -0.7961935 -0.8930842 1.8561888 -2.3530161 -5.245837 
2 49.22832 -6.0975995 -12.276543 1.6711502 1.6397008 -5.5995784 -0.2366235 -2.0336785 0.7000546 9.355626 4.4154363 -0.40864986 10.995996 6.706318 -0.45458508 2.853009 0.46321332 -3.0895329 -5.4424014 4.0780406 -1.2218893 -5.742472 -3.4749324 -3.2817771 -4.5513945 -2.1174946 1.1197885 9.452734 -2.2224305 -8.7076435 -0.057352364 -1.0606495 1.9162697 -0.48165053 -3.3755183 -3.4411569 2.0653014 1.8970832 0.7107551 -4.1036034 2.2200432 1.9929281 -5.4374886 6.4119263 4.956037 -3.2205546 -2.1429448 3.3852427 3.4818656 -3.9700167 
1 0.81701994 -3.9501336 2.6906376 12.76313 10.040451 -18.179008 3.4496758 26.520845 1.1131437 -6.413894 -9.525014 -3.5794497 0.5693341 -4.8669505 6.6936164 7.879137 -6.845502 -9.19128 -1.3236315 1.5692554 -10.373905 6.3844843 10.534934 2.3475852 -1.4517913 7.8520007 2.386728 6.071405 9.15305 3.33301 8.583953 1.2981316 6.108698 -3.0118303 9.138734 1.784354 6.29684 -2.8856695 6.5828924 2.4960616 -0.5970641 -4.464599 -1.3571182 -3.998471 2.9333727 -1.2752264 7.466999 -0.88565224 6.436813 11.027866 
2 38.207645 1.4725524 -14.30186 -7.6244373 -7.0756655 -12.466233 -15.004564 -6.151687 3.795643 -11.076078 3.732359 -5.4315624 4.4434943 -0.40729696 -13.658379 -4.405875 -2.8346043 -1.13538 0.6413009 -10.72532 -2.0662196 2.5293117 7.156799 -2.546802 2.0013235 1.2625413 5.842417 -4.1008587 7.573867 2.65969 5.1589646 -2.5227792 -2.3314369 -6.9967265 2.991081 0.10016948 5.241631 -3.3347623 1.3169001 -1.7026246 4.840472 -5.5070662 0.30349144 2.978284 1.6712264 1.5198767 -8.043201 0.12373674 1.6671901 4.0336857 
4 -9.504733 1.8837454 -2.4888206 -3.648249 -5.1972847 24.631807 9.747357 4.7867017 -0.949039 -9.40936 3.894474 -12.33081 -6.499787 15.06892 -4.0630155 -5.119327 2.8328228 -14.117045 4.6262736 -0.9275636 2.7612526 -4.1002645 4.85644 -0.31091973 -17.868095 -0.816779 12.036315 0.14794302 -1.209748 -7.6820874 -0.64863265 -8.593099 -4.3031616 -0.5458064 -7.733873 -0.93213165 3.4293585 -8.077181 -2.0545626 7.488674 -4.722124 -7.8409085 -2.813223 -4.0307198 3.5915656 -0.18071213 -0.29637343 0.17846185 -3.0603383 -0.9491947 
4 -12.614533 -0.17707916 4.3085957 -13.471202 -9.210017 -4.6226935 -14.608725 25.623295 13.500266 9.259664 1.1303859 2.4840357 -5.2264776 8.823339 -5.2041783 -5.42224 -7.129378 7.4186063 7.324879 3.4063754 4.4709067 -0.45054707 -13.528486 -2.4915433 3.9873662 -5.3296804 2.4540417 -2.3036864 0.35725355 3.6385288 -3.0459604 1.4705672 -3.1074479 0.6118692 -4.0351686 2.780664 -6.30179 -4.2484717 -4.789768 6.4316936 -0.5659417 -0.452248 -10.082089 -1.4138427 -6.5489244 3.737793 -6.6574736 1.6090902 6.3837385 -1.6187363 
3 -11.650812 -13.980789 -6.220394 -11.532462 11.771713 -7.01019 5.727141 11.401648 12.267743 0.34980363 -3.4589214 -4.100161 3.8653915 7.3699145 3.1416912 0.33416525 -3.5005455 7.732955 3.33349 2.772994 -1.7084688 1.081466 8.121923 0.2001268 0.83832616 2.7981675 -0.8409298 -7.0968003 3.8481994 -1.284593 3.3577266 0.2272233 -5.7516775 2.074787 -1.854649 -1.9352149 -0.3995979 1.3487799 -0.100264445 3.822246 -1.3900398 3.2176287 -0.66676325 -3.6285436 2.834608 1.3581954 -2.328801 0.6763644 -1.3918595 -9.246131 
3 1.7838675 0.6134975 6.451887 -9.088649 -5.1177993 -2.6863875 -3.4253132 19.523733 7.3520937 -2.681119 -4.2865634 3.872352 2.7482371 -6.8799653 -7.4544 5.066457 -4.839802 -2.4726753 0.11726242 -0.5563327 -1.8282039 -9.563151 -12.701966 5.326929 -0.43596235 -5.5776987 5.6282783 -6.6548104 -4.339666 10.851852 -3.994752 -7.285335 1.3516885 -1.7612307 -9.6496725 5.0843444 -2.6459038 2.3535783 -1.4792584 -1.2161692 -0.3414726 -0.58859956 -5.815761 -7.390375 2.966334 1.4223365 -4.179668 -0.30627146 5.0676374 -6.3990636 
2 41.359867 4.404259 -5.6587863 -5.6349344 -11.632768 -7.0941973 -7.7069154 -6.4500422 -0.09701967 2.0353055 5.9831033 3.6122985 7.177889 -13.441424 1.9667679 -4.3223176 -6.913355 5.4502525 4.1630616 -4.534898 1.8057743 2.1266603 -1.5208076 0.7599074 -0.036774635 4.552578 2.7270017 -1.9589833 2.3145113 -0.9648578 7.612617 2.662725 -6.322848 -3.9645903 3.866047 -4.2774115 -12.205849 -1.8035558 -2.0204146 2.4111161 2.0630422 -1.6787316 -7.3186383 3.952073 6.0743346 3.549143 0.9792296 -9.5622635 1.7085302 5.0081596 
1 -30.341827 -9.533271 -5.8677645 -8.1861 -17.149427 0.9357976 -3.8353496 -11.32032 -14.857907 4.096877 -5.021437 2.5480795 -1.3373989 -8.004176 0.63986796 -3.0937657 10.170989 -1.8806232 0.82772535 -0.44008586 -1.5563589 2.2790663 -5.727939 -2.3608694 8.822018 -6.079381 1.1062108 8.4713545 3.9384134 -4.556652 -0.91935784 -1.7956084 -1.8394587 -2.4627964 1.6434613 -1.2256432 1.7758871 0.6014606 4.2211976 0.4055981 -3.3408225 -4.119603 -2.7076004 5.6570373 -1.7968172 -5.160968 -0.49515867 0.11021903 0.61302024 -0.8155231 
2 39.09854 -3.5135417 -8.666495 -0.88859737 2.0180943 3.6094666 -0.08796543 -0.59711885 -9.619763 8.063084 2.365932 -17.072708 -9.954977 -4.8348737 3.2994404 3.2535892 2.2715254 4.422061 -3.1531405 -0.76817745 -2.7072525 7.2887588 3.3984597 0.33290216 -2.9423327 -6.400025 -4.011888 -3.402304 2.7924185 1.5837313 -0.12747192 -2.7929134 7.5095367 3.097348 3.8581836 -0.7818906 2.5624862 -1.7208303 -0.052998595 6.956078 -0.8641795 -0.0022840127 2.8363423 0.23020211 -3.325744 6.790855 0.87568885 3.411675 -0.9568893 5.0340667 
3 -5.420765 4.7373724 7.8149247 -1.1850501 7.3642874 -9.294585 -12.835459 22.337648 -15.137023 6.639255 10.87018 -2.4626465 -3.5917134 2.1626153 6.90371 -3.035652 -2.8344703 0.41417336 12.727518 0.94615614 -13.395596 -0.18181321 8.034919 -3.8469386 3.5622585 -6.394566 -1.4882925 0.22539103 5.8350625 4.588867 11.291051 1.2545421 4.004361 11.034245 -9.499575 -12.800399 1.0704373 4.8527203 -6.4970417 -6.021669 -6.7529254 -4.253725 5.536105 -4.053641 -2.6743028 -1.7013384 6.8173833 4.6178346 -4.7079077 1.3292893 
1 -4.0784354 -12.91841 4.749766 0.7619651 6.0605006 -3.4543645 -5.043084 21.337013 -5.2564173 -9.392321 -12.491509 -9.133766 0.5540813 0.88155895 -10.476997 2.3340826 -0.40293616 -7.0250235 1.520044 2.4093828 2.4884446 -15.65328 2.0847878 5.554798 3.7674358 2.5946002 -0.81516826 -4.0636797 12.117818 3.3576767 2.1026504 -0.6669084 0.9683495 3.0034049 9.9028015 2.6421146 -3.8081987 8.859392 2.2969513 -1.652743 1.0191104 -0.097277775 1.7515059 -0.39162666 -1.3419433 -2.0447888 -0.02900076 2.817164 -0.85781556 1.2892052 
1 -14.503922 -21.804148 -5.3293204 5.846438 13.247852 7.4470572 -8.096743 3.2065053 -1.0435114 -3.448167 -0.8570703 2.8026574 8.896768 -11.117573 1.5622319 6.1278214 -6.711032 0.8031899 1.9834627 -4.6428 -5.9540405 2.0721416 0.21571034 4.0453467 1.6302218 -1.0255064 -0.6305165 -0.7657672 -4.9172096 -0.3871698 2.6342616 9.702326 -1.8438509 3.3756752 -3.4651268 -1.892282 -1.4124181 3.0483842 -0.22763276 -1.2673328 -1.8938626 -0.82546806 -3.959577 -1.1494306 1.4313493 -1.7376302 -4.283485 0.5168085 -3.9295826 -2.9221797 
1 -13.688059 11.469119 -7.6224847 0.9919101 5.2327013 5.9915376 -12.442767 -5.062919 -17.797688 -5.4837503 12.070973 16.825933 -14.101284 -4.201801 -5.908173 0.3639573 5.3394194 0.74423534 -3.3295221 7.168371 -10.098702 -0.12548564 -1.8778335 1.3543044 4.128633 0.9913311 9.986419 0.1440974 1.5994527 -0.5936402 9.671348 2.1388972 0.0787925 -2.1855106 -0.44909292 -9.167243 2.521737 -3.2119322 -4.228373 1.1163533 2.1870224 -8.673425 4.589678 -6.50885 2.5733018 1.9912174 5.95775 -2.3174245 -5.048062 -0.23373546 
0 8.156412 -5.3492994 33.13867 -14.437792 4.113112 15.796847 16.744926 -17.528837 -9.2189865 4.4163523 -2.878196 -4.875368 3.0175178 -0.9295347 6.0755796 1.4445643 -1.0466421 -5.7648225 0.33132887 9.341141 -2.9667084 -0.39477354 1.2711202 1.8446738 2.5220406 -2.1259952 5.7433915 -1.7805258 -0.40275317 14.758458 -5.6442275 -1.7648244 -12.185776 -2.685281 9.500611 3.604753 2.9564478 1.8589317 -7.592785 0.9319985 -0.61474735 -1.2321959 4.9946814 0.7308034 -0.31359428 -1.3349434 -6.5525994 3.7266402 0.15337421 1.0412756 
4 -32.726654 23.805176 -3.0207398 0.940168 -38.53584 0.339466 2.5208766 -6.2749043 -12.885317 3.7007957 -8.008592 -0.03265217 -2.7985456 10.091137 1.9376634 2.6031225 1.8841425 4.32678 8.945219 3.4527588 3.2688775 3.371844 0.4153366 5.7209682 13.310008 -2.8496184 1.340098 10.995727 3.8209648 -6.7793 0.6638542 8.035918 -2.7774062 -4.1049333 -0.030869149 -0.42988804 -0.06288821 6.0891733 8.957911 -1.5010481 -3.0353847 6.3902755 -5.938176 -2.3399677 -2.7138243 -7.354289 1.2476765 2.0934417 -4.447226 0.30263203 
0 -4.654815 -3.5078127 4.566315 30.23033 16.365015 -21.22865 6.604839 7.5530353 5.462292 -0.6594844 5.8052306 6.1750326 -1.5769044 12.066449 -16.739876 -4.6098256 -7.1338267 -8.084368 -2.3905451 1.5513874 7.8844743 3.5262604 -3.2115948 5.654527 5.6580772 1.3073264 -2.7425947 4.990239 -1.7423761 4.609176 -4.9871626 -1.5211844 1.9835206 6.0170794 1.3419044 0.068089314 2.181912 3.7234554 7.9621015 3.2839668 -7.296097 -6.0005283 -10.183009 -3.5822575 -6.5135684 -3.502644 -5.644687 0.8029673 3.9775124 -6.4814525 
0 19.049898 -7.529978 9.4179945 -8.492522 1.6310936 4.4700737 -1.2006849 -5.139461 15.528294 -9.381055 -13.542733 9.709146 -9.767177 -1.6908827 -8.892856 -5.3707175 -2.1766646 -4.3979874 -2.8068805 19.310131 -7.442791 4.642978 2.066172 -0.96124446 6.111504 3.1991885 -2.366711 -0.8753966 0.77068186 2.9192429 -3.0249357 2.8546689 5.3127894 -6.836845 -1.2404832 0.18255816 -3.3565683 -0.0661968 -1.3358274 -6.4288216 -0.804263 6.5648394 5.928097 -1.6140449 -2.186404 -4.624637 2.9414372 -2.681524 -1.1439513 -0.2566591 
2 21.276796 -4.941133 10.921258 -4.1441927 -0.86308163 -3.3414102 -12.377015 2.6083388 -2.4114168 -7.7792573 -3.8432503 3.1979303 -5.45164 1.726985 -3.0722854 7.5580826 9.110767 1.9156448 -9.776955 7.100433 -5.8377414 -2.9584918 10.611087 -0.95100385 2.5434165 -1.5807625 4.2003365 -4.9268756 3.0676692 -1.0785141 -1.6847565 4.49702 4.226441 1.7430903 1.9977305 -2.6538014 4.391213 1.9941295 7.0987735 3.823815 2.8328228 -9.651909 -0.25140092 4.095599 -3.1274238 6.532854 -4.980648 0.594177 2.3651505 -0.21079923 
1 -20.308731 -20.289696 0.64125836 8.88219 -20.36332 -8.080213 -6.3716345 -2.2632234 11.212704 -4.179195 -7.984424 -3.3725028 -3.8070803 3.1716287 -7.6069107 -10.154637 14.804573 -9.598426 2.559691 -1.849594 -0.7351161 -4.6757054 -0.8527387 0.8883132 9.933868 -2.8835282 -3.236357 6.2948055 -3.1638248 -9.637076 -2.583368 1.3966454 2.037443 -2.5077407 2.42407 0.7185013 1.242259 -0.02877611 -4.00114 6.7800426 -1.9627478 0.5330646 -2.0361176 -0.38880748 4.3417177 -0.36741197 -1.7085629 1.9607669 -2.1911273 -1.3962021 
0 4.1684146 -12.423235 30.600481 -1.4274312 24.514893 19.483065 -11.217413 -14.0429535 1.5487115 19.869894 -12.581571 1.6958209 4.3312445 9.069351 -3.492481 0.722647 -11.441594 0.9295478 0.36996555 -6.5040607 -3.0240753 8.707592 0.11190225 -4.0828395 9.950309 -0.44513482 4.970783 -3.1451705 -0.58447826 10.127131 1.1234425 -12.317068 -13.095496 6.14008 7.504238 2.961716 0.564353 -5.6736746 3.7494535 -4.5872736 -0.10759017 -1.5247906 -0.061451778 -1.1933556 1.3438226 -1.664525 2.6664171 -1.7944676 2.8860931 4.5788064 
1 -22.087055 -18.830614 -1.3280259 2.527848 -2.4988585 1.6801264 -3.6219213 -11.995639 -5.6029 -5.838985 -18.033934 -3.1220663 0.586031 -6.309731 -1.5475329 -1.7616364 13.7093935 3.6154199 -1.3240144 9.66015 9.0989275 -2.5573032 -7.9241614 -2.8822286 1.5427798 1.2183307 -0.6878173 -0.80745745 0.17209718 0.40165484 -0.21427816 0.7609458 -2.5060966 -3.8467689 -4.338392 -0.96717274 2.3670058 -1.641095 0.16112071 -2.5951548 -4.8970056 -2.7434645 -1.5049113 -2.5016139 0.15308292 3.4305325 0.85367537 -1.126129 7.9854736 -1.9928728 
2 42.038868 -3.4473999 -7.1744323 -9.984337 -2.4645967 5.2632923 -6.0756145 -7.430167 -1.4035882 0.20301422 1.6836021 -1.8254036 8.990518 0.79017484 -5.709806 -11.051809 -6.7707853 -0.6113608 3.5343258 -8.397942 0.4859004 1.9725302 3.6341074 -8.293545 5.658284 -1.8499099 2.8306832 -6.504377 -0.6939233 1.7667894 -4.8587317 -3.3879013 3.1305573 -0.3435427 -1.1542327 -1.1192602 -2.759674 -2.5743914 0.9755583 -1.6013666 2.0721147 3.2472615 2.6395528 -6.5768538 0.7739601 2.6482084 5.2570467 -0.92704713 2.9677536 1.7085177 
0 19.188017 6.581376 11.600536 -15.630574 -8.990532 1.691003 -3.6980724 7.4893427 -6.527227 -12.818434 3.1214132 1.8791113 19.607847 -9.950517 1.9864378 -6.119649 4.621947 -2.0173311 0.27735645 2.2270808 5.17522 0.45307624 -3.6543882 4.0415063 -0.38555354 4.2174864 5.4911284 5.6669645 1.1154782 6.8911524 -6.8801813 -1.0118132 3.2543893 -4.1829743 -4.4318504 -0.32591558 -2.8682709 -8.00708 2.3633978 4.3916545 4.399985 -1.8056002 1.3366327 3.6114268 1.620432 2.5516543 8.726006 2.395955 1.0548525 -0.8074728 
1 -7.0558534 -22.782578 -0.88304615 -0.5900225 13.054953 16.549463 -17.290796 -7.67289 2.837911 -6.186009 -4.991997 0.7740765 -5.2663317 -1.205874 -0.48459247 2.5204597 -7.536985 8.479971 4.070212 -0.4500823 -1.1549646 -7.2057242 5.2541075 4.370064 4.0523763 -0.6613008 5.6314697 -3.6833034 -3.1429152 -0.18967621 -2.7766156 -0.35280398 -2.9823136 12.572692 1.7083862 -2.3987415 -2.4995677 -4.40028 4.9419436 -1.2378906 4.2231846 -3.7461174 -0.45020986 1.7600123 5.435288 -2.3065772 3.9368918 1.0206318 -2.2758336 -0.5612557 
2 26.547466 2.945746 2.1861532 3.8873138 5.2208867 2.2981045 -0.46835595 6.9525437 -3.1746645 5.522757 6.495507 -13.677909 -9.682096 -7.029528 -2.6804962 -4.0653515 -0.6778722 -1.9131308 -5.8517294 0.7233291 -6.341709 2.4749234 -3.2104435 1.6008612 1.1278222 0.99731356 1.7285068 -11.511604 -3.1187983 -0.5876961 -0.11765683 -0.43878102 0.7423425 0.9276993 0.8970835 -5.1632085 2.420119 2.3035731 -0.06281816 -6.7273364 -1.4900142 0.8423867 -0.35395646 3.9222074 -3.9141726 2.0098138 7.995915 -4.143285 0.39031664 5.8497553 
4 -5.9575133 29.90059 3.657269 16.882359 27.342949 -3.7532558 -9.144936 5.4088087 2.4756453 2.943219 17.345919 -4.658373 2.7718346 6.315426 -4.2060413 -4.985695 14.445294 -2.142158 16.289072 6.504354 -6.8865137 4.804676 7.332637 0.58356816 6.557704 -5.4396353 7.438675 -8.7391205 -2.932257 0.12987885 1.523769 3.8917313 -0.25709748 -8.558518 1.0746987 -1.2750826 -0.13038753 4.4769964 9.391441 -0.30547127 -4.8036804 -6.872134 -3.276366 0.8251998 -2.0002625 14.752777 -0.5161245 -3.817503 -3.1118932 1.8411765 
4 -2.4241452 29.72925 -7.1143003 18.497627 -1.3716115 -15.863273 -11.178919 16.881607 3.7242365 9.618445 37.377728 17.57816 -14.008059 8.127184 -1.0507159 10.127318 -6.09357 -5.7013307 5.6931424 2.0370474 12.382106 4.2960653 0.047199607 11.340086 0.4235576 -8.084438 -4.1557574 9.4305935 9.210975 25.794687 0.9275626 10.358884 -10.89706 5.0959764 -1.4973285 7.2337666 2.5774698 2.0779378 -1.3052013 1.3013769 -8.79231 -12.110057 12.339762 -10.127588 0.60817665 -11.504961 12.341593 10.92177 16.066957 9.498775 
0 -12.509918 -28.3673 22.208496 7.0878453 12.552612 12.731881 -15.188123 -9.205238 -2.9815335 14.735736 -0.2497088 -6.8563457 -7.4163356 3.9586427 0.11080466 -3.643024 9.035292 8.02561 8.062907 -13.064231 4.2261887 7.782531 -0.24868819 4.8447647 0.22802866 0.2596928 3.2942116 6.5985627 0.5422724 -1.0156496 8.933653 0.045990463 -4.604926 2.955624 8.38864 10.172019 0.9288886 7.2198143 1.167592 -3.2759333 5.493421 -1.1052904 -0.90010464 -2.6953928 -1.3478587 -1.1849028 1.380965 -0.15470436 3.4914253 -4.1592646 
0 10.125865 -1.8698078 28.697708 -15.677157 -1.4792702 1.3922648 -2.1413436 -12.130063 1.1765268 3.9941645 -4.629642 0.4250257 -7.250518 0.61582434 -1.262185 4.767268 4.0392056 -10.040463 -10.211272 1.7987324 -3.3099904 2.5653238 -3.7348542 1.2466015 7.1426926 3.2942853 0.73682475 -4.299357 -0.80372155 2.8916125 4.2621527 2.9734225 2.118502 -1.1634582 -5.7225957 5.4306803 -1.1752161 -3.6914997 -0.6227577 -3.0966003 1.8865219 3.0762815 -3.4883087 1.9250739 -1.355473 1.9197125 1.0005921 -4.5718703 0.27721602 1.9087353 
1 -11.947645 -33.94117 -1.0780466 17.557184 5.8382406 7.0311747 -21.841309 -2.5189734 2.645706 -14.4157915 -5.635496 -3.2019043 3.7672956 10.398265 0.36752623 8.423241 -4.293113 2.634821 3.5111225 0.653421 2.4059062 -9.106375 6.1975975 13.59106 3.320233 4.5543413 5.0711937 -2.764342 -2.2665873 -0.20574066 -7.244201 1.861128 -1.6340296 7.541008 2.4044564 -3.3103096 0.78398293 0.10963128 3.739013 -0.8712608 12.133201 4.7749057 1.0510843 -1.4105479 7.5374904 -0.65425617 4.291423 -0.021514788 -5.2581725 -3.8788412 
4 2.9215245 8.053813 10.532791 -4.703006 20.729755 14.170304 0.90668285 15.848127 -2.2279754 5.443821 8.8786955 2.019294 -4.05493 -9.209339 0.6344367 -4.496464 -1.4084166 -0.08499713 4.751831 -2.9335303 -1.1960545 -10.3794 6.3530903 -5.7528872 10.814219 -4.3733335 1.6846828 4.276985 4.1580462 -3.1473167 -1.2878879 4.6165767 1.8942734 -5.8931165 -6.2101817 -3.5824773 -1.5928668 -3.58801 -6.7653856 7.318305 12.928907 3.453289 -1.6312294 -2.2984383 0.9381768 8.907788 2.2517936 2.5454068 -4.9364915 3.2412686 
3 -17.843384 -4.6919537 -0.26103553 -19.31726 8.366407 2.062564 11.901151 -7.6042953 6.2818723 5.7865453 0.6772527 -12.054203 -2.3776433 -2.355885 7.1040063 2.5928354 3.7797344 3.387183 2.0639758 -2.0239003 -2.2443967 -1.1973045 6.631689 -2.5749116 1.9489528 -2.8200974 -1.1297905 -1.371615 1.7657735 2.833503 9.840688 3.172031 1.5533146 -6.150487 -8.404532 1.7052873 -6.19226 4.8448057 -2.147812 -1.5427825 -0.6593237 -1.6638718 6.0038557 -3.3500671 1.4433622 -1.2391647 2.69282 3.724188 7.273048 -4.189548 
2 47.21431 -3.078133 -14.58076 1.7481294 -1.8563079 -2.9492073 -11.200667 -6.3882823 1.3662784 5.1769137 -2.94623 0.45988163 -11.496621 -8.666529 -3.2415078 1.4260334 -8.19735 0.8896742 -5.711485 -0.38015148 -0.6767577 3.2517598 0.34032628 -2.499623 1.1189531 0.13650432 -2.9674833 -5.9636993 -4.3981605 2.655196 6.673726 -0.13324311 -2.347834 -4.1735797 4.461116 -1.0518134 -7.5300717 1.7453053 -0.40731433 2.9793067 -1.7050653 0.86383426 -2.9398293 -4.1059856 1.0364451 3.853228 -4.820803 -3.684771 -3.0612922 3.0251238 
2 43.40058 -4.447851 -4.8551035 -5.5068846 2.8927457 3.2080522 3.0845091 0.6201879 -12.236502 8.918947 9.783966 -2.4889238 -8.287842 -2.4857917 2.0691543 2.7576127 -1.4903917 4.944919 3.245393 6.2362146 4.5872145 -3.2322083 6.10781 2.886981 -6.7517834 -9.184403 -6.9716134 4.5857596 2.0878577 1.9698765 -2.4953258 -8.158967 -1.6388124 1.0673416 -6.593336 0.7469739 -1.7940359 -1.2507336 0.29738516 2.3787184 -6.1717544 12.297766 -6.25353 -3.2961962 4.250622 4.9014764 6.523189 9.31644 -6.0542192 -0.74406 
0 16.872185 8.075289 31.589071 -13.892498 -14.185157 3.2938442 4.6582675 -8.275296 -6.036198 -7.8093095 13.208792 -14.460467 14.655927 -6.6800046 19.066904 0.1498542 -1.7979 5.9709916 -14.239315 -0.35611844 3.764785 9.236212 -16.043756 1.1704892 4.9900446 3.5268657 -4.9723797 -0.5435817 -11.414731 7.531872 -4.0816274 5.1966877 -4.358665 7.972807 6.248873 -1.4838387 -1.9477025 8.496596 -6.0480003 10.693297 -1.5229902 -4.444892 4.9042344 -8.783263 -0.4024163 3.0271928 4.552681 5.6535997 -11.650389 4.321117 
4 -16.013494 36.028084 -18.977121 15.349259 24.327976 2.5838675 -3.0713396 -4.262841 -0.9401686 0.33455583 6.370536 4.991779 -0.13548903 2.6163292 -14.9839945 -7.681725 4.613537 5.60653 -21.695044 5.1305113 3.7570667 10.215714 -2.4263558 10.310681 -0.4371086 -2.4914162 -3.7673237 3.007554 0.048273206 4.1170907 5.316756 4.75128 -6.405422 6.118597 3.522468 13.492558 0.5403068 8.63421 -2.608812 3.1253285 -8.976114 1.7044938 4.425746 -9.358524 5.9175396 6.893306 1.412319 0.8270616 7.265788 5.932639 
0 18.110792 -12.800509 7.9392405 34.959583 11.899745 5.2946405 37.027214 13.402275 2.8128633 2.6918623 16.292587 5.771413 -1.2028857 -2.0606112 -6.7992325 10.983092 -1.5249245 1.0373282 -9.564613 8.013517 8.121052 14.549608 9.945239 2.0767207 -2.9140246 14.412425 -13.658156 -1.5456845 -8.503811 -7.155448 6.7056465 -6.7726326 6.3242345 -5.967903 9.37604 2.6283727 -2.1572607 -1.8013208 -7.9878826 -0.819311 -2.876594 11.3465605 -7.0572534 2.0878992 -4.179228 -10.492045 -12.777969 1.5629629 -0.3299118 1.7960716 
1 -12.908853 -12.579503 7.6445265 14.194351 -13.697272 -7.7887645 -2.6343331 11.7055235 -4.92959 3.3555586 1.7153571 -0.46260592 -3.170576 -3.4114685 5.867249 5.4263425 -2.9685507 -10.389284 12.506337 -3.0144641 -3.1390946 6.505969 3.6251698 1.6035438 8.774903 -10.582135 2.0128672 5.9247155 -1.0223641 6.817771 14.345051 1.3479902 2.7071388 0.78362936 5.4323573 0.42462456 0.9598343 5.631575 5.509528 -3.313675 1.3601522 4.8513412 1.2079909 0.013655037 -0.02073194 5.0657167 2.446969 -6.238428 -0.8477939 1.0562942 
2 29.252356 7.083371 3.3293214 -0.8281012 -21.04331 6.593931 14.088555 -0.95413727 -11.006186 -8.913213 5.894603 11.338823 4.274249 -2.7870612 20.080936 -2.9148962 -3.162004 6.4188313 5.5919995 9.960301 7.0324845 -11.552715 10.395417 -0.91419584 0.82481015 3.983997 0.32958472 0.0810058 8.420592 -7.5998664 9.3306 -3.3814018 6.3228188 19.32867 2.0330973 2.2697487 1.9206947 8.788681 0.40768585 -2.2660031 -0.27801096 -3.0326302 4.2378955 4.882472 -4.1367164 4.1886573 -3.2674503 4.4118457 5.947171 2.4231536 
2 57.562492 -13.6361685 -28.98857 10.293601 9.029022 14.90247 8.263781 2.874624 -5.9870114 10.497189 -1.9995723 -5.90245 -9.58906 12.802655 6.6547284 6.446245 2.5571263 5.4087586 4.8828797 -4.953682 0.17980912 -1.2311618 -6.5789704 -5.431961 1.2628162 -17.15723 0.79514134 3.6356819 8.141033 6.9440136 -9.798507 -1.7818041 7.1927 -1.6595181 0.33441177 -2.8802855 -0.14807387 6.502571 0.3283748 7.672384 1.6592714 6.1882176 -0.35172892 -1.6691638 2.6700706 0.47918582 1.0385755 4.4161515 -3.6765978 7.4772983 
3 -24.489813 -0.66194487 -15.493087 -18.56391 -14.137054 6.6056843 -2.9698327 11.863772 3.971133 1.3874123 5.961607 6.926697 2.6228225 1.5468466 -0.52003264 5.382015 3.1471746 -1.3631655 5.968496 1.6575284 -1.7212708 -10.654641 -3.5807233 5.989904 -4.308297 -3.3190494 3.3353302 -6.6794267 -7.908894 7.8128214 -1.2606727 -4.349374 7.8584 -0.93602675 -1.4025291 2.2167087 1.9128894 1.3785206 1.7838426 2.4097888 -3.8737435 -5.4629617 -2.022706 5.1713095 3.198697 1.9896653 -7.4211826 0.13679093 1.1062512 -0.62569135 
2 47.496853 -4.3914337 -16.469877 0.16543156 -1.2546663 -4.3629155 -9.3041935 -9.038363 6.321448 2.8417828 -4.5972037 3.6258075 -3.390538 -1.0396438 -4.7012234 2.533618 -3.4938743 -2.3227699 -4.2460413 -1.6025563 -7.4923096 -2.6446404 2.2889411 -7.1043453 4.7527943 -0.7459277 0.5281352 -1.6337218 -0.5732249 -1.5703043 3.7937212 2.9527817 -4.697587 -6.062484 5.186908 0.016876161 -0.35077766 -2.131474 4.6967077 1.3091067 0.32031655 -1.8429118 0.9677102 1.0042603 -0.39994392 0.9997907 -5.6525326 -3.8997521 0.36880612 2.001639 
2 28.091639 -1.2008367 -9.786807 -0.24693635 1.6300068 -19.087673 -21.118612 -5.934294 3.1398745 -14.836982 -9.26308 -6.706852 -19.260567 0.9087045 -4.051313 4.3732567 1.671934 -0.755846 -4.80983 -6.337725 -6.5026155 5.7490807 6.887988 -2.3388758 -1.1552807 -0.20636539 0.32205087 0.18327264 -6.8243256 4.372445 1.0384454 -0.6297703 -3.1881952 -5.103046 3.4106631 3.8930893 1.7939155 -3.157467 4.870362 3.0623627 -2.154716 -7.021462 -0.4958103 1.0283438 4.0892143 2.8397515 -12.913565 -3.7977297 4.144836 -0.3221978 
4 -16.145786 28.674166 -3.5395203 21.484285 -8.549049 -7.8159556 7.7067075 6.943985 -7.8531017 0.43699783 20.17937 -3.6278677 7.1054697 10.867514 -12.3494005 15.066302 -2.8773017 18.296005 -3.6651797 2.9204369 9.201377 -15.157071 8.73315 -7.2944837 14.900667 -4.71301 -8.738851 -7.5949154 2.6009696 -1.1506821 -2.3865166 -0.10261005 -5.031048 0.18807927 -6.2882214 -6.397737 4.446833 -3.3248916 -2.4815853 -3.9691691 -5.8035026 -1.232415 6.0481353 -3.5051978 0.09581956 -6.952092 -5.402345 -3.4029965 3.8772378 1.1511937 
1 -22.242313 -20.37724 -10.11693 11.019803 1.7425135 19.479094 -13.594948 -9.037035 3.111606 -9.463094 -15.765849 -13.42282 1.1847405 -0.927779 10.368949 -1.9436605 5.6319933 12.133609 5.787407 0.9945462 11.488109 -11.445007 5.2155156 9.664274 8.299059 5.746823 -9.60625 2.2466786 -2.0788498 4.4954863 1.0199084 2.5336306 1.8115784 -6.5798492 -7.5606804 -4.198534 -2.3541663 -1.8706771 6.8400364 1.7583578 -6.267019 -5.4137325 -0.87878054 -1.4456202 8.123332 -7.1444497 5.870922 5.6131034 3.6081343 -0.2620571 
4 5.9949055 15.0559845 0.31613457 9.901176 -9.338434 -2.671101 10.6282425 0.15420273 6.4603543 -3.7338767 9.097402 14.548303 -6.972793 -6.1968937 -5.433876 11.204111 0.14451072 -5.4278994 0.14240518 -2.615366 5.87636 -6.7339973 4.534227 2.644983 5.0442224 9.463263 -2.8763456 -12.522413 -3.0147386 -3.0163772 7.3363786 -8.420794 -17.869263 -3.7163374 -3.0059047 11.456717 -2.7026484 4.646655 1.9602382 0.123157166 -3.5830991 1.2493904 -7.764781 3.4861348 2.6815588 -2.1232076 -0.5288708 -0.6863711 -3.9708345 5.6740823 
4 -4.3891726 38.857643 -4.611987 30.283949 -14.756924 9.260942 9.145931 -5.792492 11.063675 -5.506261 5.3511386 -5.5069885 -11.813335 -7.2192626 0.81697977 14.644154 -14.887586 -11.655649 11.240688 -0.4087276 7.2906475 1.4589764 1.9948682 6.7111835 -1.6514537 3.9624455 -6.4025226 -19.765974 2.5998704 1.5189648 10.663601 2.6822257 -3.8472009 10.212904 2.3868318 -7.5459375 14.342884 1.3503809 -1.5162485 1.7707387 3.4168594 6.5182304 -4.7244534 7.8056593 -9.408936 -6.7366924 6.3941884 1.2620481 9.494891 -0.55177873 
0 10.3005085 7.995642 36.336773 -5.017853 -6.4049373 -9.239714 1.9672431 -7.0900373 -3.706806 1.9893839 2.5423017 -3.3200727 8.448961 3.483491 22.49807 -0.8571843 -2.339846 3.3694222 -5.2156496 6.3623166 -4.9268026 -0.31803763 -7.191285 -3.010874 -1.3774401 1.2436881 -4.7660456 -3.8228626 -6.8767014 -1.9241865 -0.7671391 5.757465 0.3299843 3.067417 -4.9250927 1.4287491 5.6609106 0.34039247 -4.679408 0.2691473 2.7848809 -4.2068014 0.7798885 -2.5979538 -0.7787023 -2.5309422 -1.0244079 1.035645 -1.4746245 6.9146624 
0 -10.445346 -14.153462 17.868345 15.507301 6.0038548 -2.2608874 21.686272 -19.202019 6.8858843 2.2265198 13.792022 10.546053 3.7512507 -0.136124 -13.7493305 -0.34740877 -16.12542 2.973584 5.13576 -0.25039038 5.1687336 0.1400584 3.998385 -6.6886606 -3.1824706 -4.0868754 1.6351464 4.652259 -3.6545367 -9.079569 -0.2648258 -2.1584675 -0.13330632 -6.655623 4.232625 4.0206957 2.2245004 3.3298554 -3.57275 1.0373353 -0.06068372 -2.6940436 -3.0331085 0.2431577 -0.88609487 3.44037 -4.7988443 5.6286936 -2.3796828 -0.80939007 
4 -17.548399 32.483746 -4.7622085 6.1370907 0.1315844 5.7821574 5.793826 -24.82997 4.0593424 0.87438345 -3.6537967 -5.8349004 -4.5797515 -8.33455 -3.6750627 -2.3230312 -9.943534 3.238275 2.5259721 5.673775 -3.920323 5.5115147 -7.466393 7.65557 7.704079 -7.042493 1.099853 0.2795747 12.02656 -3.0321467 -2.5230925 3.3458664 5.645537 2.063913 -6.4094377 -0.277272 3.4355674 -1.7881341 -4.479495 -4.6441026 6.98596 0.3476945 1.5813133 3.1320922 4.722469 0.42885315 -0.17454007 1.9875048 -2.4892063 -4.938856 
0 2.416338 9.297537 22.564877 -4.6682158 14.045681 6.899234 -14.520713 2.0586839 16.491062 1.01249 -2.7390518 -9.957132 4.144699 -4.2263904 9.2246275 6.738406 -0.9391711 8.809008 0.7329051 -0.42393804 -0.82681453 4.917987 -11.124795 -7.5616198 -1.6614383 -11.829267 2.9611504 -3.9847484 -2.0372093 -1.954799 4.229042 5.5688105 -1.0043695 -4.413829 5.653508 -4.220766 -5.307409 5.834289 2.7480724 -0.6013398 1.4263666 10.805753 -2.853465 5.0707326 3.1296573 -4.6959224 2.4618647 -5.2135577 8.921762 0.9788525 
2 41.645573 2.2701554 -10.907058 -2.9827757 8.15742 -5.591009 -13.038021 -3.5701606 5.3435802 5.6953025 4.2150803 -9.810749 -13.590906 -9.623737 -3.972342 3.083388 -0.4401035 13.680466 7.5871506 -3.1447244 -1.9238131 1.8802588 -6.552957 -0.29183498 0.40587345 -5.869402 -0.7672738 0.53030926 -4.259313 -5.449973 0.9928701 -0.065582246 -1.89379 -1.7129056 -3.8397903 3.5411232 5.0014973 3.617678 2.4777277 3.033392 -2.7079787 8.120387 -1.2044909 -2.953545 -4.7294154 -3.4464388 -4.191791 -4.1791987 -4.6429825 2.127789 
3 -14.599722 -22.693596 -2.6970518 -7.464204 17.193602 1.2700135 9.243066 2.2057595 14.038034 9.829857 4.3690753 0.14052337 13.819238 -5.705595 2.8213918 -1.3392895 5.9719143 4.0254354 13.717711 -8.515143 -8.5320015 4.9843135 2.5888016 6.3525314 -3.9517095 -2.4212873 -7.7430487 -3.27375 1.1772399 -5.9241476 4.620855 5.146077 4.960314 6.900327 3.475732 -8.211308 2.7192516 3.6737404 2.6332784 -3.5624957 -2.4647439 -4.6003933 -0.3353094 -4.7177997 -10.081957 2.857331 -5.984515 -0.48843277 -1.3248029 -0.10077027 
0 -10.374735 -9.395178 44.964024 6.239338 3.4732354 -4.7082415 -11.683711 -24.5393 -8.355711 19.243807 -16.012127 14.230506 -1.7575514 14.7119875 6.1641545 10.0893345 -2.509043 -6.257537 -1.5521474 -2.710539 8.382535 -5.0716095 -6.943108 -5.8859887 -2.9107645 1.5099628 2.7298608 -3.1607614 9.655061 2.962247 4.9183197 3.758761 7.3389444 -3.4913998 3.488337 -0.8495664 1.3160428 -0.58317477 -3.5242383 1.5755955 -6.9651046 4.6605697 -1.5623707 -3.7196555 0.82191795 2.5217621 2.2736454 -2.07858 1.3040326 -5.383259 
3 -24.619621 -5.422746 3.1762862 -15.477245 1.0150629 -15.801699 20.182014 -4.791907 -3.4191427 1.0831234 -6.8773174 -7.2804427 -8.282465 12.372729 1.7502761 -3.0217745 -7.1110997 -3.7507536 -2.1914744 -7.106872 5.283539 1.9067669 -2.8958275 -4.6079173 1.7473996 4.865959 3.911337 8.090893 -0.0034862645 0.8759163 -0.31339133 6.7157826 0.82893205 3.733323 -1.469497 -1.3231035 0.71172124 -0.08760649 -0.31371507 2.0252826 4.3436427 1.7822347 2.1951914 5.64097 3.84834 4.826029 5.524926 1.9109212 0.13177775 -2.3761015 
0 -0.5514318 -18.931122 16.125015 16.984499 2.8268092 9.591457 10.075771 0.7595319 2.413621 -0.37521127 10.292772 -3.974508 -1.330088 0.281909 -15.268506 1.376344 3.9402997 11.047035 3.8736327 5.088158 3.5558174 7.288875 -1.397437 0.9818645 -0.19617155 3.3454378 -4.1459413 6.659839 -0.9603755 -4.0160785 0.29291075 -1.2261217 1.6039009 -5.1041274 3.9193034 -3.3582263 0.74120003 5.011806 -3.7268314 6.001537 1.9815196 1.4147243 -1.4397044 -2.624745 -2.5124679 -5.5994 0.35756683 -4.688861 -0.6708734 -5.7580986 
2 41.542427 12.264647 -11.60533 7.4039655 -13.405428 7.6978407 12.918172 -1.8975799 -5.3397455 -10.156388 -10.739221 12.571378 3.1786566 -3.718171 18.747545 -13.231687 -0.19368683 4.4090104 8.1976 -5.9206595 -1.87351 -2.829514 1.0473642 -5.5291715 17.36098 9.041795 -0.26510292 -6.472992 1.0000274 1.6832865 -5.0881557 4.5507774 -7.837561 9.681361 -0.16998786 3.5937438 -8.570821 1.8141016 -5.3696637 6.3249154 3.5398793 -2.5024633 3.8121362 -5.45817 0.85212123 7.114411 4.3240213 -9.506513 -0.16274099 -2.2604399 
0 5.457767 0.5719497 34.013702 -0.32958227 0.88874984 10.1467905 -18.292015 -13.737835 0.9795985 12.369548 -0.118337974 13.066991 -1.5479766 12.906866 9.759151 -2.875948 -5.935653 -2.6453316 1.2744229 3.5246315 3.625623 -6.11526 -3.921255 -6.351881 -3.4968143 -0.3325866 -3.5182939 -8.389937 7.019859 -7.911449 8.723533 -5.7165055 -3.7356923 1.5743953 -3.8316102 1.0108774 4.1572394 -0.6665474 4.73523 -1.6016835 -4.2565937 8.283283 3.4509084 2.41615 0.84955686 10.504467 -2.1854472 -3.980457 -2.153655 5.0271344 
1 -17.284092 -17.541178 -9.219198 -4.8766747 -7.3603153 -4.954419 -3.6595194 -1.4981741 11.681211 3.7166052 6.8535895 -3.9128578 -13.608802 -4.9770765 5.086759 -9.446328 6.9123836 -5.7358913 -9.300513 1.3273162 1.7532244 2.6490915 -6.8765683 -11.678966 0.4164327 10.1384945 -7.38682 -0.9703861 5.6081533 -1.5563468 -12.849343 -3.2367308 -1.2300435 1.3472962 -0.13503237 3.7121668 0.88339335 -1.355872 4.996888 -2.0178323 1.4125384 3.7732053 5.3427672 -2.311253 1.5080369 -0.31092858 -3.7462115 -0.025478229 -2.5925558 2.1829324 
1 -24.913033 -4.0032516 -7.5910687 19.73813 -31.379805 -3.6192834 -2.2764127 1.5197227 0.99009025 3.71938 -2.264942 -5.776916 4.3840985 -4.057849 -0.3253238 -3.487083 8.1994915 0.63298917 -7.723872 -4.5494905 0.122024216 -3.5041878 -4.410216 -0.36164975 3.9795306 -5.077213 0.15726581 -9.2007475 -8.033346 0.6091657 4.617605 -6.6872334 3.2171729 -5.6049714 8.283118 2.7205229 0.36854446 -0.228973 -0.6030383 -0.36279503 -0.41380715 7.398959 4.0796475 -3.3308907 -1.3575542 -7.8731194 -0.46111268 -0.1495862 -3.7324502 1.7936692 
4 -13.64602 50.327816 2.400668 25.511131 13.35365 2.6866214 5.275831 -8.137143 11.128496 0.25584102 16.478327 -15.473116 7.785631 -10.69676 -6.0375333 2.2906072 -0.18415466 7.792382 5.118142 -7.2769213 -0.98568 -4.7120233 -0.68561393 -21.693525 5.2223277 3.8770032 -6.7968655 -7.5378017 0.021856278 1.3065376 0.54094934 1.1995564 -5.0872197 -7.68389 1.3456134 2.229378 17.354818 -9.556761 -2.899972 -1.2479687 2.1426024 -4.6133556 -1.5994041 8.292353 5.8159237 9.587941 4.0518565 1.2182467 -1.3519446 -4.798293 
3 -30.931103 -7.9183397 -20.480614 -18.110752 0.10232967 -2.6569753 5.671039 -0.7263401 -15.81811 1.0100883 6.224998 4.7864704 -5.713777 0.75057244 1.4380723 -6.649631 -5.8331423 1.6406142 2.1302805 2.4496455 1.8698115 5.543593 -10.233839 -0.16704398 3.5330105 1.2252612 -4.871271 1.2499309 4.421652 -4.4439845 6.2358937 0.3779311 2.9448586 -6.2180977 3.8644333 4.937866 6.20547 -2.96418 1.9281677 0.26155573 -1.3899884 0.99690527 2.484444 -3.9430428 -2.0521271 -3.060235 3.8517256 -5.345123 -1.5680068 2.7583425 
4 -11.660722 37.396317 13.147096 0.37548536 6.729973 -2.7687845 -0.5298401 0.11024722 7.964546 1.0522816 0.39648336 -6.7490664 -1.2951458 2.8699577 18.7451 -11.010852 -6.8876925 18.856688 1.0782768 3.2603812 -4.281249 0.98959714 -8.962132 -1.876827 -13.468084 4.9717736 5.264466 21.723307 -8.420062 9.619234 1.5516798 11.320192 3.2621613 -12.560501 -3.4362633 1.397188 -7.926651 8.616173 5.335834 -1.4660445 4.1377397 -6.9398317 -8.2221365 6.779388 -0.034804225 0.3321753 2.9145558 -3.6702445 -0.9908482 4.5152974 
4 -18.699684 26.777212 -0.21219069 5.159101 -21.149597 3.1277742 -6.7675796 2.5585916 1.7796003 -9.2724905 11.748789 0.77204335 0.11671327 8.070021 -6.877519 14.161351 1.8085823 1.980232 10.780134 -10.908022 9.134219 -3.3618617 -10.090181 9.744775 -3.4231353 -0.87741584 4.534205 -2.8195183 -0.08822001 -0.5265356 3.0699801 -5.946051 -4.6105328 -7.0011177 1.5809447 8.52905 1.797348 3.1804538 1.6992248 -5.636563 -3.6666102 -7.082976 1.8273095 -6.399989 1.5623897 -1.0529778 1.5921608 -0.06733065 -3.3737168 2.7202156 
3 -21.251741 9.953494 7.370691 -14.37005 2.4225028 -9.646681 34.02586 -19.659739 -19.571362 6.825819 -2.8927479 -2.2837777 -3.6878378 -3.738875 -9.744122 2.7547328 -12.40987 20.689018 9.148023 -2.3414786 -1.2192388 -2.255814 3.789418 -0.65395874 9.194326 -4.9789457 9.360705 8.294156 8.11297 6.368325 -13.7059355 8.359056 -1.4384075 1.3285913 -2.5194037 -1.7877936 3.782227 1.8600781 -2.7210047 -5.943528 4.5752907 0.9166666 -0.9671531 1.3041841 3.6980536 -1.8284029 3.603105 1.6101029 -6.1866927 4.54044 
1 -2.1732194 -15.61168 7.419979 7.4410315 1.524914 3.170059 -24.098677 -1.9689605 8.781187 -4.961042 5.987171 18.583975 -9.943166 -7.125878 4.4401155 6.1804137 0.45687962 10.588475 0.9851733 4.242431 -3.7840052 -8.89022 1.4939702 -4.9509087 -3.19629 4.343518 12.694114 6.628955 0.6797047 -5.0370245 -5.5921235 -1.3803971 -5.0250525 0.630736 7.47156 -8.959327 3.0131452 2.954356 -2.5751457 -1.9478287 5.0715585 -0.37397176 1.4288305 -0.31957784 4.571926 2.982748 6.395639 0.0034830365 1.8287386 1.4819648 
4 -21.756433 2.943645 3.2134633 6.859433 -27.263596 -2.0172136 4.876355 0.737113 0.4245062 15.084338 -2.634925 1.2132883 3.3650358 -0.420393 -5.5947795 -8.055048 -0.18171665 7.613656 2.983263 9.392714 5.514888 6.8862705 -9.505087 3.9570346 -2.222849 -6.569206 -0.41254422 3.9815624 -4.00359 1.8564531 -5.045648 -4.19128 5.5812426 -3.4310775 2.3415232 -6.880174 -7.4097223 -15.067499 4.027713 -7.047467 7.8422313 -2.7818925 -0.9478044 1.8004982 -2.0929766 9.122784 -1.66739 -0.9857701 -1.7654368 2.352239 
0 11.293297 -5.6884236 14.068729 -29.00251 8.209004 14.313655 7.505894 -0.074047446 -22.74425 5.291275 -1.058734 -16.059954 -0.84366155 -9.734548 1.0446135 4.6650567 22.082272 4.3838434 16.468922 4.452171 14.6736765 1.8541992 17.179081 5.3912787 -2.2697775 -14.989207 4.03415 7.899387 2.7500281 9.055684 -8.531759 -10.731632 0.5756385 -2.2838495 -1.5122626 4.4161186 13.087476 -7.2177477 -5.42991 6.140657 -5.655729 -1.4665805 5.4607153 6.7147546 -2.1703393 -5.832638 1.789783 -4.9532776 -0.11039561 2.6179552 
1 -25.45086 -27.355766 -5.712975 2.8599682 -0.4992559 -1.0006251 6.2083883 -7.0627737 5.308257 -0.33453625 7.474833 -6.055954 6.130263 1.2652686 -1.9230547 3.805297 5.6007066 -9.3566265 5.130416 0.68265074 -5.87829 1.5153284 6.4623294 1.6947912 1.5099583 0.38252297 0.44431138 0.5801696 -4.128114 3.2769291 6.100418 6.439957 2.4254181 -1.7954904 1.0970155 -2.7589958 -2.5890145 8.665173 -3.3884692 2.1900973 3.5114048 -2.6235113 -1.6084374 6.3741417 -0.19908735 2.9623394 5.757746 -0.6474238 6.510577 -2.3902705 
3 -22.350494 -8.819845 -19.861927 -18.9486 11.671027 9.339457 -2.0418205 3.3458169 -12.235665 -3.1203725 -6.396741 1.9752822 8.718058 -3.2301242 5.3259163 0.6899187 -6.342276 1.8614962 -5.337867 -2.60147 2.8721948 0.5244031 -1.6768265 -1.4722756 1.0099957 -6.1630645 -6.295528 -6.8936834 -9.7586975 -4.7437725 6.6007843 -0.32393044 -0.83486557 -4.470557 -4.817124 -3.5887394 -2.8835282 -4.114146 -0.2886676 -0.14808297 -4.7623906 -1.1425172 1.4855589 2.7571294 -1.3369193 -6.393915 -3.061815 0.117695525 -0.24314801 -3.7431731 
0 -0.37447095 -13.653453 29.209324 -1.0756793 19.419828 -0.29852888 5.5441585 -6.0133963 -3.9513097 17.002417 2.6854749 -3.6991498 -2.0685182 4.06582 2.604075 -3.250443 -1.3116237 8.49131 15.848195 -3.902493 -0.8360652 3.81134 11.661055 -2.0878503 6.290711 -4.6746197 4.059167 4.0975966 6.56062 5.3391943 -0.065018 -9.323433 -6.7247095 -8.483311 3.9186194 6.2673464 9.280916 8.078226 3.5316522 -1.4524164 -5.534533 -5.6116767 0.20128162 -1.2996854 -1.302216 4.134677 -5.5966387 -2.803547 3.5006943 -1.170594 
4 -22.584146 39.47726 -8.111019 -8.445948 -12.128272 21.013288 -2.2042747 3.8073962 14.296729 6.4607882 -14.57478 -15.818706 -3.450842 11.727081 8.542741 2.5324297 -4.946001 -15.344503 -5.270713 -0.50504947 4.3613567 -2.8378408 6.1598306 3.1162012 -17.106472 7.3832507 -1.6843722 9.004096 -4.647899 -2.4505694 -9.333127 -4.545768 -1.1629289 4.1330824 3.0286398 -0.09836896 3.6063693 1.4674805 3.118175 -7.2608805 1.733741 -1.3811262 -10.63561 -4.5784035 -0.82914096 -2.2265742 0.94035137 -6.691259 6.955483 2.7127516 
1 4.8541617 5.693048 8.841136 23.968403 5.309417 -15.118362 -3.0381272 6.941488 -1.1010336 -2.972863 10.059507 6.8041787 -1.1742347 8.1020975 3.1018069 5.3709936 9.886661 -4.6388483 0.6326537 11.653349 -5.5852385 -0.16407591 11.290431 -0.60245883 -3.3152556 0.1617929 -3.7955332 -4.8180027 0.547979 0.33906728 -2.5042138 -7.6433215 -1.9468315 -5.249624 -3.8087032 -0.71697396 -4.0670247 -2.2401738 10.968343 4.450322 -0.7531013 -4.345137 -3.902915 -3.9932034 -1.3223802 -0.7400257 -0.049196437 0.797091 1.8489524 -10.001214 
2 52.514706 -0.85835123 -27.323153 10.639978 -4.9394913 15.423965 12.768258 4.412895 -5.0659003 -1.8716867 -9.832461 9.781482 -2.3138137 22.451591 -2.1210232 -2.2621245 7.273983 2.2955918 12.731622 -8.349783 -7.661112 -4.7087994 -4.401339 6.658561 -10.581429 -1.5523999 -3.6873965 -4.1576686 5.3949947 4.6839285 -5.6387067 -5.665016 -0.5267894 -5.911543 -5.2356367 4.981981 -4.637816 6.4455824 -11.096693 -2.7147942 -3.6595755 -0.6608859 -0.9305485 -5.0879126 -6.110766 -2.361219 12.059267 -3.385624 -4.199126 -1.5543225 
1 -5.601808 -3.188786 -4.244043 -4.855563 -9.0164995 -5.8998604 -11.252443 17.595396 12.039589 2.021641 0.7321372 12.483696 -8.467261 2.7996533 3.800426 1.266861 -8.508911 5.938119 -7.967757 7.9739165 3.926508 3.5888884 2.6509953 -3.3771427 0.62220186 2.080928 7.9539514 -0.4721788 3.2236953 1.1262463 -1.0183699 8.031804 0.98277473 0.07878637 -4.271738 2.641561 6.6217637 -8.246894 -8.940354 -3.8400552 -3.8964274 -4.122498 6.9774456 8.069718 4.97578 1.1926191 3.923705 -3.323851 -0.32486686 1.4607729 
2 44.58627 2.0537903 -7.00793 -5.8054533 -7.796097 -7.642335 -3.8831813 -9.491155 1.0961894 -3.4691179 1.6545205 4.9832206 -3.6791005 -0.010961503 -2.3812375 -3.4814095 -0.5280058 5.949137 1.1947608 -1.2970788 -4.7637033 3.7134647 4.2909036 7.9005136 -10.986346 1.353496 -10.214972 2.9104626 4.7440834 -2.9896579 5.172721 -4.5373106 -4.1177106 -0.6343348 -2.5351872 1.8834897 -3.519999 -5.507523 -3.8577962 -3.455499 0.8869655 2.9211967 -5.510393 3.4902797 0.2363603 2.9122117 -3.0593634 1.163502 0.29487336 -1.0298624 
3 -25.199503 1.6426814 -11.691374 -23.687817 8.217908 -18.20459 -16.545496 10.391611 -13.369495 -15.1831 -13.369495 -2.841233 -6.521313 1.4801556 4.979778 22.762617 8.804189 -3.2016892 0.24298266 -6.1447206 4.3492765 10.880566 -9.1655035 -10.181166 3.9124124 -1.2756467 -2.2662613 7.535853 -10.334997 3.3542476 3.4492505 -7.768873 -9.564183 1.7245672 15.883289 -4.211712 -7.407092 11.288211 -5.8830647 -9.03569 5.551497 7.041399 3.7826536 -5.371242 -8.513181 -0.91763973 -1.026594 1.181046 0.73391974 1.1603798 
3 -10.003085 -4.973773 0.53541523 -22.861929 12.928179 -1.1816273 18.1133 6.049643 2.9759822 3.926455 3.124855 -7.571991 2.969679 -5.049171 -1.682542 2.7018166 4.6668262 2.3077056 -0.22258765 3.6161902 -3.9939566 -2.7301486 -0.23863724 -3.5062368 -4.830583 -3.751969 -1.5741932 -3.1204455 4.5809555 -1.0558107 2.0287695 1.6651995 -3.6666303 2.6393945 2.1559138 2.8681602 -1.6566145 -0.91161406 2.430126 0.92682785 1.5371485 0.057301454 -1.2339061 -5.357284 2.9985394 -2.0833383 0.43483263 -2.4987826 -0.77969825 3.1256046 
4 0.8507948 26.18844 1.1067299 19.797476 25.116072 6.9730887 -3.8209088 9.121882 11.87315 -0.6182476 10.484385 -10.942752 12.092396 -3.2119904 6.224044 -9.793107 -7.3391204 -1.7294958 8.759499 -2.0021992 0.07369599 8.013645 -1.2782764 -12.190935 -7.8038187 -1.8763146 4.485058 -11.951167 -3.6124146 -11.185594 -5.9930162 -0.4484804 -5.935054 -7.2766943 3.7282639 -4.208552 12.113697 -6.2748823 -2.208683 -1.7832814 -3.9125779 -0.888743 -3.084476 -1.8467036 -6.3683662 14.598785 -0.16221784 -7.2521925 6.5719066 -0.29840726 
3 -21.095905 9.4245825 -8.626056 -14.848483 -14.429527 -9.291018 2.5684495 28.453983 17.508186 12.519514 -2.8915534 1.8699064 -3.5819862 1.4453872 1.9084098 4.413218 -6.0632453 -15.012304 -0.79854125 -12.59132 -2.0032701 10.099742 8.90166 -7.9501743 11.852248 -4.5054703 3.5504172 0.6886664 -3.0632865 9.092644 0.28836352 4.052085 -4.0622025 9.132899 0.013791129 -0.38347167 -6.988902 4.7220464 -4.4473205 2.7410786 -0.24347189 8.542457 -2.6673439 4.15202 -1.4191868 3.5268333 -3.2279537 4.4844046 -4.5280213 -4.379079 
4 -21.729643 4.5835524 -2.1850786 -11.385806 -2.590297 8.072709 -0.55420583 -8.309253 -10.852582 17.34502 -5.846992 9.27343 4.34238 -7.4075236 4.3230457 -12.204299 -0.689149 -6.0150447 -2.4804223 0.22568265 -11.034922 10.1818695 -4.993508 -2.751138 8.631901 -7.445328 -2.6867163 6.7878323 7.365528 -1.6002138 4.462244 -0.25595552 -1.8886298 -3.0663035 0.63620424 -3.8726945 -0.6184164 5.750876 4.574135 -1.637075 2.037484 1.1234826 -1.882652 0.17252636 2.0666397 -2.5768635 -4.0629835 2.791736 -6.886509 -4.256868 
0 -0.13107716 5.8022904 28.587406 10.331385 -1.894779 -15.117648 -10.743557 -2.441588 5.563731 -3.4283924 -9.118804 -0.41153038 -3.4088063 16.402288 -3.6508746 4.475765 3.0585096 0.029566925 1.9842542 1.6158667 4.7126307 -5.5554013 -6.3563685 1.1482301 -2.6205335 0.7124479 -0.43650556 -1.8461308 -2.153128 1.4768609 6.7513475 0.51462674 1.8574983 -3.9556117 -2.2598753 2.919918 -1.8268727 6.679575 3.2496886 5.1228456 4.163367 2.7723184 3.4709082 -2.1049693 2.953569 -10.205173 -3.928941 -1.1623394 7.2562294 -2.733648 
0 -1.778266 -15.94685 36.559757 6.7393365 17.432531 -13.340723 -2.4826462 -3.1611028 0.6596597 20.501572 -5.8714933 15.476405 11.49011 18.474247 4.4131064 4.725823 0.764614 -8.055967 5.838009 -7.30249 -6.51026 -1.5799371 -4.2040844 12.741637 -7.334738 12.231478 -15.203435 -1.9307245 5.82793 -2.8519325 1.0163989 7.9724483 11.996119 -11.624259 6.8512344 -3.1505065 6.2744365 3.256497 -1.9451194 13.973608 2.2649715 8.014014 -4.787797 -5.2009363 3.7204037 1.6891344 -6.3543787 3.9509587 0.7248512 -5.655099 
0 -6.3172693 -11.998107 22.937574 0.28124017 11.512077 1.4720504 5.184226 -9.645826 -7.3944025 17.671873 4.3509684 -8.026865 -6.260997 -5.6377163 -4.8852577 3.5443819 -1.2274166 -0.57376975 0.75810766 -5.0808682 -6.2213616 7.000631 -0.02225104 -10.226457 8.596851 6.242966 -2.9044566 9.39778 10.75946 8.311416 3.5554855 -4.3177013 3.0448081 7.657948 1.9486957 6.432779 -1.5683056 1.7363919 -1.634742 -5.865851 -5.499561 -5.051537 4.8424935 4.253406 -6.231455 -0.22139047 -3.6382267 -1.1906602 5.648147 -0.98254025 
0 -9.547649 -13.96006 -1.3269475 37.152718 26.313616 -16.97571 -4.2301736 -1.8410023 -3.2411683 -5.873827 -14.458793 9.3607 1.9816933 -6.1459203 -3.1293488 10.63114 -18.490246 4.630044 -0.5324073 -1.1314771 2.2327764 16.04598 4.7553697 4.333214 -3.7520921 6.174128 4.589176 -0.61679685 0.41966107 2.1810484 -1.6878818 -3.8160079 12.460424 3.7715495 -0.2624537 3.4098713 -0.95716614 10.254953 -0.746481 1.8464514 -11.269655 -2.1525373 -4.8450565 -2.4993966 -6.489666 2.5575695 -6.9719496 -3.0486267 1.0753223 -0.178992 
3 -11.114967 -6.1054826 4.047325 -13.941314 -8.773489 -5.2254763 8.429943 15.74928 15.386271 0.23796056 -2.1139429 1.9826943 3.303494 -1.1653275 -6.3538055 -1.3945515 2.585206 -14.065888 7.906681 5.0465574 2.7778308 6.4398603 -7.240197 -3.1585176 0.9440961 -10.649731 -0.5086892 -5.4657464 -2.9057138 3.8268254 3.6584804 -1.0122275 -2.631383 0.06462675 0.6195193 5.177677 -4.481312 2.5465095 5.422409 5.344656 1.6871655 0.6080005 -4.9040203 1.042828 1.0127114 7.0269513 -1.1569281 1.4508282 -4.1253395 -1.309227 
4 1.3774292 31.052753 0.90751886 17.647274 0.5110306 -3.0519953 0.3026823 1.9144299 0.13347465 -4.8915844 11.264461 -14.703263 1.3016176 -4.4902916 2.9859161 4.1676006 -2.1759589 3.3686416 9.627229 4.1534715 -6.8395267 2.3888195 -1.8418381 4.1228614 5.4494505 -0.53412235 2.8399704 -15.3281355 -2.3062692 0.5501049 -1.6745131 -1.726279 -0.84217036 -7.8098254 -0.47284445 -2.9006863 6.174343 1.3042582 1.2292017 -5.5726304 2.6873841 -1.6816332 1.6522435 -2.8229425 -2.785817 2.0605135 4.520959 -4.648345 1.5826966 -2.6648133 
1 -19.936289 -28.84301 -6.850841 17.682669 6.612545 0.75081253 -23.32907 -14.332728 -3.3628993 -7.033134 -11.424959 9.558672 0.9402766 -0.9777888 -1.0306083 5.3277354 -5.5936465 -4.4068704 5.482287 -3.4923866 -4.037591 3.3694124 1.4983102 0.061618686 4.719091 1.8387418 -0.049481064 2.2865922 -10.75006 -6.4613805 -8.593796 0.15532106 -5.2251782 6.605181 -1.3628117 0.029867232 6.52684 0.38326442 3.0063915 3.1720805 3.4160888 -4.975351 -5.6813793 -0.3901339 -0.8017611 -0.12523538 6.593978 1.7023762 -6.7094603 -5.1224384 
3 -20.242123 0.110289484 -0.41902477 -15.972966 -2.8102088 13.757897 8.837036 -5.0410376 -3.2111664 9.994452 9.388899 7.696718 1.9473184 -8.022393 -8.801085 5.4545484 2.4377122 -0.75041896 4.9179325 2.631953 -11.689245 -0.44270247 1.3028777 -7.483941 -5.7092443 6.2053413 -0.9622617 2.5547934 0.57396954 -1.6185969 -0.3858044 1.497088 -3.3546498 4.3599153 -5.8278584 -0.5941905 5.671288 5.9933343 8.53373 2.6849642 0.96858734 -1.9259875 2.787426 -0.18043295 4.343889 0.89039844 -6.1989 -3.0458462 0.018496772 0.43603656 
3 -0.14468327 -0.9778143 16.509455 -2.4053724 -12.709924 -2.5497468 2.0036938 14.335243 0.08417309 1.3449423 1.4117708 6.7985 -5.72246 -6.3434715 -9.755352 -3.2342162 0.8439437 -0.16012312 8.822216 -0.76522094 1.835641 -3.5655828 -7.6222057 -0.4530876 -0.35792714 4.9337225 -0.22829866 -6.621039 3.1199634 5.579317 2.2994058 4.125363 -6.3004937 -5.147302 -1.0516503 -0.51130307 4.065751 1.8786547 -1.0636101 4.313108 -4.342892 2.4566352 -9.126036 2.7488575 2.922582 -2.7665083 3.344218 -3.598144 4.1115437 -0.9086667 
4 -31.526606 26.198402 -10.277637 -11.675295 -33.59669 2.7794526 -1.7121838 24.6032 9.31895 33.65527 -8.360118 -7.229301 3.8293595 10.862936 -3.4699917 18.24648 -12.759776 3.9612126 -2.4357755 -1.2813234 -13.732061 9.382361 15.370069 -17.470224 -0.29135293 6.831787 5.1016507 -1.2692357 -12.464658 10.37196 -11.610957 4.66481 3.880728 12.579853 1.4575019 -0.7478833 -6.8818474 -3.6687021 -3.2293537 -3.3932245 0.08065794 6.521053 -7.0591984 3.4835565 -3.1396887 1.6102254 -8.077442 0.5233569 8.263444 -1.1932553 
4 2.718051 19.690245 7.5649724 -2.2703755 8.4589615 7.760994 -3.790477 12.69937 -0.65285635 -1.2233803 -6.8859005 -6.5826893 6.495236 -0.0012197532 6.032293 -12.992299 -2.991974 -11.546389 0.38707864 -3.8858042 -3.4032037 -4.690344 4.365856 -9.399118 -1.035467 -3.8291614 3.8889198 -1.9182014 -5.8652363 -4.2853637 0.08657332 2.6063993 -6.410763 -1.9079182 -0.007896729 0.30967516 8.170142 2.08358 -4.2140536 -4.2846384 -2.9348087 -2.0655816 2.0199084 -0.054506868 -0.5021465 7.4440145 4.5536294 -1.0666155 -0.66876197 -0.24542348 
3 -21.974577 -14.518095 -9.298766 -1.5774771 6.9514256 -10.19955 22.222946 -5.906613 6.5298 -5.7666407 4.3192606 0.5886936 0.5853243 -6.460302 -0.20399842 -6.7403784 -0.9166778 0.51162314 -0.23423842 -9.130749 7.6950817 -4.225988 -0.88911694 4.958347 -9.799491 -6.4073906 -0.18516017 2.5806506 -0.5559101 -12.045561 -1.8527534 -0.15966298 2.821692 -2.1666224 4.4665785 3.2780557 2.7607384 -3.6878898 -3.5769813 1.9376897 -1.0724446 -1.1731278 3.9763968 -10.708981 -0.35808066 1.5189881 -5.5337157 -2.554067 0.75739783 5.788428 
3 -12.383124 -10.195449 15.960617 -5.006214 3.1891735 -12.468161 7.3632073 8.2743225 2.3354197 3.7679043 0.19521177 4.5303946 -0.9114243 -0.9572244 -8.992151 -2.8556082 13.95075 -24.973038 7.5194325 -1.4067298 3.0560446 4.784092 -1.7324721 -0.9047357 -7.4032726 -0.80272436 -2.3045588 -1.3358159 0.825027 4.7308083 -7.74016 2.7780204 -5.9355073 1.9995049 -8.33518 -1.9226167 -1.2635117 3.0856502 1.7210588 1.4357708 6.5706005 -0.003800854 -2.7752962 -0.64408153 3.0005937 4.7672343 -4.5182533 -0.9298333 -4.971 -4.184674 
3 -17.650433 19.988943 -8.534775 36.46417 4.4005876 -24.285044 6.9373684 8.018923 -9.329097 -3.4857798 2.259607 18.911383 17.03359 6.0567665 -4.5930934 9.884521 3.7725766 0.5577177 -15.859607 4.480994 9.6551075 -2.8678956 19.838375 6.2603173 5.879416 3.8157375 -11.066512 7.5156355 -6.8704557 5.4790106 0.6572658 -3.9252145 -1.7109709 -0.09917383 -6.3463435 -4.4868827 -1.0093768 -11.8791065 8.911723 9.600267 -1.7346537 4.1190357 -0.760922 -2.8931422 2.0256085 2.6581588 -0.67992413 -7.92726 3.759134 1.0686693 
3 -27.646385 -9.073113 -21.649137 -16.20849 15.004597 -12.51381 -10.464448 7.9323053 7.465117 7.4467154 -4.8205185 15.833567 11.545416 -4.8409557 13.365582 2.750422 3.0208642 6.2418423 6.6522293 -7.337481 -3.3234153 8.733328 3.8915374 2.2524595 8.220317 -3.6159658 -10.846973 -3.9255457 -0.10325062 -0.6655848 5.5828114 -4.111959 -2.2667005 4.385524 5.3027124 -13.147434 -0.05312501 4.6326823 -0.32765228 1.4822742 -10.271632 3.7316675 -5.7556844 -2.013856 -8.708753 -3.1015775 -0.7319231 4.711886 -6.8482265 -7.1591644 
0 14.105737 -9.844083 17.470741 1.136482 7.6568036 -10.525844 -0.14199035 2.3084385 -7.3477254 5.204261 3.3048542 7.579395 -3.0618923 5.805098 -1.5390619 0.5974154 -4.076144 -1.3458096 0.5951537 1.9168835 -2.2481382 -13.2116165 2.5687065 8.782973 -4.8010745 -4.126705 -5.197972 5.3967147 -4.3628607 -4.389722 -3.6760342 -10.477578 16.055231 9.963873 -8.079687 5.2799497 2.4522848 0.47954434 -0.96837723 -6.8349347 -2.8332133 -0.7663834 -5.6366615 0.8106362 3.8572512 1.976937 -8.952698 -2.2297406 9.8807 -1.3555608 
0 0.25075522 -20.26269 39.093163 -11.25579 37.853622 19.964647 -17.994413 -18.789804 -2.1008804 33.18875 -22.143093 7.7254257 0.3463645 28.091087 3.949381 -3.7508075 -18.600525 3.9081407 14.597156 -6.206113 -5.218569 5.433081 6.116047 -0.29937094 14.8574505 4.7423754 4.8213263 -3.8495274 0.26595387 22.291069 4.05763 -16.279055 -15.384347 -0.8735103 16.895382 12.927606 6.984674 -6.8841085 7.268775 -4.7716274 4.3644147 1.7009177 1.1145235 1.4141963 -0.231323 -7.1607566 -2.9201314 -1.4016297 2.7330422 10.817042 
1 -14.511438 0.13952303 2.9727666 18.043982 -21.185228 2.9862425 12.410906 -4.656924 -7.5186687 -15.626938 -4.0691843 -3.55732 -7.250622 -0.29170758 3.6499875 9.929708 -2.2939305 3.0411668 -1.3470671 -4.786207 -0.6560054 -2.3607678 -1.3901069 -1.5207157 -4.740106 -2.977296 11.041467 1.2490264 0.81930363 0.98002654 9.688421 0.900151 -0.3753799 -4.719674 6.340116 5.8889623 -5.452582 -5.5691166 10.613526 5.907092 -0.56212413 -0.78996086 0.8110731 -1.5371033 2.5665753 -3.9307 2.2834644 -4.2886086 -1.9844993 -0.19857445 
2 38.740917 -3.7582645 1.9491549 -10.292602 -2.158562 -5.0408335 -11.014874 -4.4541025 5.123705 -1.0362556 2.3519104 -3.080339 -16.401363 -2.747632 -4.663523 2.7118287 -3.749966 4.8454275 -10.887285 -3.0619166 -0.9589304 0.2947259 2.906425 1.1781914 -4.5773363 -5.2098093 -11.718032 0.030512992 -8.464317 3.3619175 1.081993 2.9306517 0.15359393 -4.2218876 3.0191195 1.6612624 -0.04607658 -2.8403804 6.671263 0.7451275 1.5688518 1.884955 -1.0640365 1.5099263 -1.1759131 -4.284757 -1.0713558 -3.03414 -0.7729751 1.8981886 
3 -12.128936 -2.7916694 3.324576 -24.16785 7.1447945 7.4740086 -7.884325 3.9028811 -4.1053867 1.4806771 -16.065252 8.578108 -1.0606604 -11.081647 -8.196212 4.1471496 5.6534224 1.9100344 -0.37182096 12.331141 1.1211457 -3.3154063 -6.328115 -9.129665 1.6322776 0.43178847 -1.8874038 0.9937513 1.671887 2.8549702 -3.9909663 -2.6085665 -1.6157048 -1.6775756 1.1787382 -0.8792577 -1.2933252 -1.5232434 -2.5847862 -4.848333 -6.7434583 -5.5218925 -2.8158505 -0.85984695 2.4927616 -0.91176474 1.0774856 -2.4046555 4.111802 0.46910098 
1 -1.030836 -5.5410357 10.139038 5.1674504 -8.638317 -5.554524 -1.4519948 11.874622 1.5607641 2.1106374 -6.703327 4.7601175 1.1495663 -9.673985 5.726709 -0.9546188 -4.6973653 9.465657 -0.1328453 0.6744879 -8.861887 3.003281 -6.0544715 2.9991336 -2.6340704 -3.8115609 4.356041 -0.25366205 7.407653 4.460185 8.3358755 1.8802083 1.030682 -1.6145142 5.185126 6.6413255 -0.66999143 -1.212903 4.1545515 4.3101845 -1.2591246 5.435606 -3.7084916 -1.1391917 -0.72930795 -2.4963012 4.0321937 -4.679464 3.1723604 -8.028445 
0 14.78574 1.3051802 8.919636 -8.478525 -17.45883 11.040978 10.193491 -2.1161711 -0.9780389 -19.569447 5.060099 11.441451 3.522375 3.1249986 5.706693 -1.6811947 1.0209347 -2.2503538 -10.416578 9.340813 9.282068 3.3757615 12.640754 -2.0047255 12.830138 -3.630289 2.7077389 -2.0397587 -1.0565729 -5.255087 1.0913652 1.9294527 3.7801197 -1.4427953 -1.7171711 0.25427872 -2.0131779 2.5548172 -1.8261647 0.39907354 -2.865902 -0.8122232 -3.1520474 -2.330725 -4.262132 2.027176 1.5542932 -4.055179 5.7568135 3.6886451 
4 -28.402533 16.168417 -9.771663 3.224638 -18.584454 28.450266 -17.651783 19.73922 -4.4861927 16.788773 -20.780365 14.691037 14.431367 -16.8875 -1.8605834 -8.927341 4.516033 -2.9505734 -1.9028248 -1.0174919 12.147942 -1.6082177 3.6564486 -5.6569877 -1.6429768 5.4570804 -6.297415 10.552789 -6.082953 2.0701175 3.3299222 -3.9021327 8.493557 0.13365665 -1.9350797 -9.353046 8.815091 -5.4341655 2.2658384 7.2267203 -1.940869 -2.0195003 1.5841954 1.4251261 7.1062856 -3.0644479 -8.4861145 9.347599 0.448626 10.418584 
2 7.309541 10.090155 12.786796 6.9827933 3.5448554 -10.221717 -2.172996 18.072424 3.2011883 -0.14800367 -5.9387193 9.278948 8.212007 -7.9735203 7.293955 -7.4496245 -2.5063953 4.7201667 0.38673535 4.6236567 -4.715102 8.507188 4.4998603 0.5299902 -8.114781 5.9028683 6.2023063 2.4798863 6.916595 -6.3107734 1.1297678 4.602872 -6.026144 -17.956354 1.776451 0.7348201 4.4474306 4.855317 -5.4441376 -3.5466685 -1.9365326 -1.512274 4.2095876 4.7347918 7.703647 -2.6077378 5.250643 0.9518497 7.792263 6.817117 
2 64.239746 -4.263606 -33.54099 24.656189 -2.7113247 15.197313 28.06347 4.4869614 1.0710528 0.7740409 -13.563424 16.335253 -0.69504726 23.974648 9.873492 5.4291263 15.924183 2.217134 10.6611395 -10.145844 -7.88354 6.923377 -15.423635 -7.010979 4.1624546 3.0451598 0.55183816 0.29175758 -0.40163416 0.8970044 -6.040197 2.4403534 1.6272193 -7.8368473 -5.1364207 4.645427 0.11764519 -2.4755135 -5.2955523 -4.1956973 -1.9945767 -4.8167586 -3.3547125 4.6155324 3.0510902 -5.839649 7.09661 -0.8660304 -1.5608121 5.9416223 
2 16.686802 6.8881693 7.3436136 1.5590346 0.055728525 19.419386 -7.1942143 3.451919 -1.0487705 3.508484 9.719762 7.503309 -5.1954775 4.6227098 -2.0219696 -4.7447867 6.0691156 7.6730833 8.759633 10.832688 -5.1044188 -5.081683 8.433881 2.7317703 -10.005854 -4.0074687 2.8792093 -1.4910839 6.0244827 -0.29546982 -5.3049574 -7.374155 -17.62007 -2.711475 3.739477 -6.5765405 1.6495461 -1.0379623 3.4376411 -0.2545136 1.0541066 1.2391639 0.45868656 1.3270665 0.7321606 6.678378 3.190814 2.644042 -1.0586507 -3.4816437 
2 35.865116 -1.3971796 -1.6453438 -1.7323117 -6.7722173 -1.8853223 -8.794465 1.2537405 -1.2122722 -3.8212576 -3.9826715 -2.8514144 -12.663886 -7.7464256 0.16695574 2.593015 4.4636035 8.616521 -6.6160746 2.0929294 -4.918872 -4.430751 5.417383 -1.505605 3.8459346 -3.1007235 -6.533257 -7.035737 1.7565098 1.3689206 -2.635208 6.4224086 2.1080036 1.0865996 7.5417747 -1.9882232 -1.5672134 5.0022182 9.98888 3.8601587 2.0115507 -7.029704 -0.63828087 0.45631635 -5.4740124 7.51475 -5.212827 -3.2337625 -0.14392835 2.6147757 
1 -16.521 -19.049831 5.7730227 6.938827 4.380458 6.015299 -13.805711 -5.7549567 -10.279359 -0.074149504 8.349985 9.681655 2.4982486 -6.8702 -13.306479 11.907507 -0.6546398 -4.140674 5.2759137 1.5619887 -1.523324 3.9028943 -3.5427547 -0.6735963 8.884918 -4.560802 2.0379934 4.8209233 2.9687686 -3.2658029 -3.434669 6.0641026 -6.2066326 8.0455265 7.3001547 -4.1628766 1.8880637 3.7781522 -3.7808008 -4.229324 -0.04112941 -2.7071502 2.7734125 2.8647566 6.705492 2.9023123 -2.77383 2.6065378 -5.8975477 -6.6907616 
0 13.970279 -1.0021946 20.62542 -5.0345917 -2.2732975 -3.582244 1.8258779 -2.318323 4.1692834 -6.1972947 5.3258843 -9.874731 10.812668 -8.814097 2.8995366 6.303899 -3.282738 3.2069957 -9.588613 0.80150783 -3.1302693 15.173559 -13.077615 -0.6041825 3.9180117 -4.531139 2.7113452 1.102088 -2.3839707 0.3555148 6.7602754 -0.443401 -4.8729453 1.1223491 -2.662354 -3.6334317 3.105884 4.8510647 -3.2839324 5.6965775 -0.5627647 -4.5257664 -3.268886 -2.3590071 3.6705441 -0.97328013 2.3389459 6.5548897 0.9088957 0.21693146 
0 18.52902 -1.5023512 17.691925 -5.374094 0.5328727 9.986423 2.331883 5.0453286 7.2407374 -7.6880074 -4.0371757 -1.8600962 0.44535774 8.300801 -5.7637005 -4.176936 11.720357 -9.765618 -8.900157 -5.652894 -4.059075 -7.6943746 2.6078029 6.547212 -3.6441526 -2.8121367 -1.1318917 -4.898916 -4.7132764 3.779847 -0.19833717 4.2088647 -1.3033625 -0.70608604 -2.502761 -4.84364 2.7003102 -0.53575927 6.776856 -0.21833622 -3.2886422 -1.7719016 -0.8290724 3.635227 -4.2295737 -0.52177906 3.9318054 3.53563 -1.9511739 -2.8785725 
2 42.26281 -2.0064733 -18.927332 12.327307 8.260618 -6.5483418 -0.39022085 1.5628943 -1.7713783 16.33989 -6.2238045 -3.0671983 -8.64641 -10.581015 4.4415507 8.038976 2.557378 -1.135152 -6.63676 8.727717 4.661167 -3.7443652 -5.1952133 7.549743 3.7724054 0.90467805 0.07616782 -1.1299081 -4.3393135 -3.8151615 0.4399196 0.64550155 -9.926308 -1.5679926 0.8522108 -1.4015296 -1.0055861 3.250762 -3.1590445 6.3486443 -1.4488721 -3.781679 3.2583246 1.1426122 2.3674688 0.98613775 -5.419134 -5.1008606 -2.8808932 0.678361 
