475 50 
3 -9.397536 8.017737 10.948209 -4.9574323 -10.902308 -7.5789123 -1.8392873 8.924123 -9.335178 -3.5316534 -9.066187 -3.2695086 -4.288827 3.7847383 2.6995847 -11.000633 -3.2977927 0.11861172 -2.109526 -9.8854475 -1.8127354 -13.441964 -2.7207565 2.4937365 6.897786 -4.7258115 5.7686696 5.6940837 -0.06641908 -6.3899717 0.78361917 9.013046 1.677932 -0.9811848 5.907027 1.2724311 -6.559058 6.064855 -3.8550196 0.840798 -6.658498 -4.830432 -7.5368867 4.7154717 5.7932897 -5.5937486 1.3815148 1.6947434 3.5901449 1.6263735 
3 -24.60105 -17.752666 -11.100739 -8.703305 5.369209 0.9784044 5.033405 -6.1687236 16.001503 4.4628315 4.850756 1.1821169 -3.4321244 -5.8015747 20.004568 -9.612992 -4.840081 -2.7532885 -16.09264 -13.771233 4.980744 -4.755173 8.021022 -9.962362 -8.762122 6.84405 6.200697 -4.3272834 0.35880867 -1.5026444 -10.0784645 -2.3273604 -0.70189047 -6.6403766 -3.1284516 6.187338 -4.350874 -1.2335789 -0.9233305 3.0644438 -0.83834624 5.6008587 0.93240225 -0.5055029 -0.18636435 -1.3280549 -0.10149562 0.9213442 3.8547256 0.5449297 
0 -10.116809 -13.734422 24.00842 -0.5970165 2.6283383 -14.210259 6.5870867 -11.56546 2.722279 9.975748 -7.65017 11.627502 -6.683668 -2.0057905 6.401378 2.892896 12.913517 -8.593105 -7.4296002 -9.176382 5.891951 -7.9557347 7.494739 -2.0277598 -5.9304996 2.8591797 7.18514 -4.570116 1.3212998 1.4222779 -5.280325 -2.137227 3.03957 -1.1772168 -2.7501557 -5.322155 -3.4892907 -0.9478596 -2.283059 -1.1346977 3.6899831 -0.8860998 -5.531243 1.837558 0.19689023 7.309945 6.1397123 0.630566 1.6969461 -2.8672633 
4 -18.08395 17.976439 -0.9688055 -18.124565 -22.716558 -4.9122415 5.454727 18.4 3.774463 11.1361475 -3.572606 3.4653075 7.5663652 3.660706 -0.8636397 13.337875 -11.320007 11.137386 1.2896819 2.3427622 -0.18075126 5.197724 -3.1313295 -2.3747094 -1.6917576 -3.2817647 3.2681606 5.1851616 -0.29023582 6.7997956 -3.9097679 3.308723 -1.3435831 -0.7947553 -0.19904074 -2.2597096 -4.949516 -2.7001812 6.26904 -7.0146527 1.2073879 -0.57438856 -3.2470543 -2.019466 -7.7160783 9.096311 -0.46388292 1.4586941 2.1634781 5.8293715 
0 7.3839397 -1.6343738 35.08672 -3.7844932 8.485913 -4.578128 -4.16342 -4.221131 -15.296407 11.526846 4.456097 1.9633893 3.3890584 12.232609 0.719738 -2.1528256 6.622588 -10.18805 -0.71584076 -3.7385757 -6.447132 -5.259005 -3.3343837 1.3962672 1.4253483 2.5823078 -1.2218783 -4.031619 -7.920203 3.9575696 0.7925584 -3.421624 2.9909117 4.1470838 -3.9448621 -0.477547 1.0675005 -8.900975 0.6814068 1.0057046 0.6496093 0.75116897 0.5011363 1.3732754 0.5019653 7.8466177 0.72278297 -1.9843394 0.3114564 1.8897102 
1 -22.144127 -40.639668 -11.398796 18.388077 -3.1856437 6.817406 -18.052748 -5.6630235 -3.5996082 -3.3222444 9.361191 -4.5748944 7.3348207 -1.7217649 8.329665 0.41426766 -4.7830653 -0.2485298 -0.6399214 1.922388 -6.025237 0.32122132 1.8095833 6.4752803 0.78624105 2.7383485 -4.4076443 0.5070405 -3.8696008 3.372441 -8.579259 2.4822109 -0.89384234 3.5504575 -2.9218123 3.0065014 2.4684906 -0.8769305 -4.3015084 -5.937601 6.871483 -0.69904375 -3.0287902 2.3668272 -0.53302854 -2.0721068 0.8276543 1.5802413 -2.9369278 1.6288921 
3 -19.41955 -10.218653 0.3399635 -13.15973 -3.5424395 4.373448 9.9341955 -16.77781 -8.290415 5.2479796 -4.500963 1.4232172 -4.5780535 -4.728518 1.5851572 -4.0657377 3.1020882 0.5314194 3.5098267 2.4579058 3.3530755 3.089584 -1.2588364 1.6470094 2.2524817 -4.940487 3.9608347 2.6339388 11.745837 -6.0655103 4.8188543 1.8244208 -0.24843419 3.911418 -5.2772493 1.9135118 2.0010617 1.3846726 6.1559687 -2.9558902 3.2859783 -1.2880836 1.6228709 4.6313615 -3.116945 1.6832381 -4.0150795 -1.2989631 2.405887 -2.2482522 
4 -21.787931 30.435377 4.177821 -0.053072244 -24.82308 10.661496 -1.2438774 -13.032539 -4.939057 5.694164 -7.045123 -9.284705 -8.037374 15.170367 -9.359451 3.147304 -1.6035455 5.038507 7.811321 12.732231 -1.6241639 7.805681 5.652803 5.705651 3.7331758 -3.2710626 -1.0314386 -0.22510342 3.3819158 -13.259463 2.4334946 -3.246926 0.120709196 0.8857775 -6.0112815 -7.7234993 -8.311505 4.8422794 -2.2783456 -5.8809876 3.8629313 -7.3131676 -0.36939132 -1.8029721 -2.7543185 2.7495844 -6.2464304 -0.8256225 -5.2646885 -3.884871 
2 37.587936 -5.3513603 -12.526088 23.62339 0.40130883 9.397746 23.476309 7.348618 12.975585 -3.484009 -14.767462 10.64523 -6.0176816 7.659612 8.778127 9.795974 -4.632804 3.9556398 5.5640373 -8.301487 -10.171923 3.9457111 -6.4107146 2.457778 1.8379794 -2.6803818 -6.6875434 -0.09952827 -0.5500373 -6.810247 4.9936256 0.09966408 2.0218816 -6.102349 1.6296062 1.2442458 -1.2022046 -0.95645094 -5.781753 -0.22117752 -1.0753441 -2.5514107 -0.3015229 1.6463547 -1.0425161 -4.6105857 -0.18070427 -4.701339 2.138777 6.72562 
3 -18.319052 20.413122 -14.662629 -4.338779 -1.7853922 -5.6214185 9.680444 -5.0746255 -13.198054 -3.2439005 -8.426766 9.196985 -8.64634 -9.102192 -11.374523 -3.4346323 -5.274497 10.226198 -16.431736 0.67834336 0.3021188 5.6367726 -9.063773 10.299785 -1.1800181 6.889006 6.1295843 -4.4399304 -6.8615217 3.599127 0.77718127 -0.7408129 3.0661917 3.4076273 1.6243416 -0.6399965 5.6562834 -0.76545864 2.8217192 3.6616516 8.8462 2.0065415 -0.8781087 -1.4397155 1.294286 0.19510587 -0.37522855 2.837227 -2.3203158 1.9590857 
3 -32.19352 1.2010399 -22.343113 -11.728762 16.41735 -8.40311 2.4233353 -2.8431349 -21.555975 -5.4583344 -7.7891374 8.2414465 2.8721526 -4.746975 -5.391921 -4.229343 -4.4420424 0.7380053 -12.224196 2.773133 1.6395622 4.0257783 -8.499052 -6.8444967 -3.241356 2.2451859 -5.1490192 -0.038742065 -3.2146363 -5.0417 0.90389955 0.32681048 -2.2086852 0.70362425 0.33383724 -0.6155337 -3.1268578 5.0529556 -1.7583495 -2.6895742 -4.1579914 4.4268374 -0.34137145 -1.6319278 -5.9667506 -1.2140213 1.1516879 0.71889615 -0.47653398 -0.08312366 
4 -28.327015 42.368053 -17.879646 -11.654852 -10.436756 11.182411 -2.3365333 -4.3842254 8.751489 7.482802 -4.3169174 -14.431225 2.4988675 14.065204 14.314931 0.87529963 -2.5486555 -1.3848196 -7.589509 6.1894226 -3.9695122 4.1975193 2.8419528 8.622084 0.16675851 3.3321517 -2.8063478 11.687758 7.8431644 -4.0925245 -7.382954 -4.1704283 1.3477879 -4.3981915 2.9141893 -3.8913803 -3.9215076 3.1846647 3.588624 -7.8991704 4.89246 -6.689473 -7.676826 -5.5437956 1.225191 -1.1794596 -4.9742794 -8.265932 -8.19932 -0.068696454 
1 -34.388947 -12.278571 -17.428766 8.725546 -17.42588 -2.1329145 -5.115017 -13.642496 -11.394168 4.8257914 -5.386208 -7.916862 2.4376476 -4.5532885 -0.11637345 -6.982602 4.458286 -0.2260505 -9.902385 -1.2759209 -10.647279 1.6719677 -3.5685 -2.6398928 6.0612364 -2.021251 -4.617901 -1.7105321 -2.1021245 -0.01665382 -1.1946453 -2.9355602 -2.4493928 -5.3742313 -7.730331 4.6273103 -0.46659943 0.57812726 5.042878 -1.0826892 -4.013846 7.956713 0.4959862 -2.684661 1.4337555 -1.2670141 0.3189224 3.6969054 2.293496 -3.228228 
4 -17.954535 6.842585 8.580263 10.323037 -2.0269368 -7.251657 -4.709155 7.4611173 9.41912 21.21317 -6.3033233 -9.157413 -1.3197563 -5.438841 2.3095555 -3.95388 9.720557 -15.073971 12.561488 -4.14334 -1.1778675 11.658151 2.920647 -2.5376747 -5.412178 -4.268138 -9.285882 -5.805446 -1.9337031 -6.93651 -2.4007428 -0.7070527 12.681237 2.779138 5.5885735 -7.567174 -6.3266497 -2.0460057 -7.098288 -1.3720396 5.0355234 -3.1215284 -5.36517 -2.1193838 -2.0307856 -1.1710017 3.9106991 7.765638 13.639168 1.9067109 
0 10.968526 7.9174037 20.476986 -9.370924 3.9371815 -3.6851525 -16.774946 6.390949 -0.8729353 -7.7885356 -2.4271317 1.2131377 13.016122 -0.29002494 -6.1679945 10.218911 14.274518 -1.6758637 -11.720321 -13.538358 5.701652 2.1877031 -4.5099945 2.8942127 6.224385 0.79679555 1.0947112 -3.4783165 -0.7562843 -9.379139 -0.065353274 -6.538103 2.290341 -1.9517887 -9.401575 1.3048095 -3.3965702 -6.821034 -4.946759 1.0415074 3.3547728 2.005178 4.9268436 1.5897073 3.627662 4.738194 1.2516648 -2.6160302 0.11385337 3.6462822 
2 62.748913 5.6761527 -32.5728 10.568117 14.349281 -13.215008 -5.4598494 -3.1686351 -7.4724374 36.88067 2.297407 -22.921535 3.9227293 -9.858041 5.3485093 5.1831284 6.1686707 -12.185705 8.0956 7.9118505 16.673307 -3.2615871 -10.712906 3.4891768 7.125363 13.503993 25.6727 1.6428246 -13.574082 -22.497404 -3.4598484 4.7118917 -1.3717933 0.6896359 0.79430634 0.21078044 2.4017715 -2.1406431 3.955063 6.7755556 -8.217162 2.3361435 13.332877 4.227798 -10.834584 -0.29096797 0.91609216 1.6533384 -2.6126428 -4.7132263 
3 2.4549325 2.6395917 -4.5810266 5.568776 14.118573 -2.7137995 -10.659241 5.3218164 -2.784774 -26.673944 6.29453 -1.6092384 -7.5473757 9.371329 -0.5857393 8.15399 10.941199 4.3527246 -7.9342237 3.600285 2.4233856 -10.822653 -9.711719 -15.774181 0.82622534 -5.5241795 12.202083 -1.7741778 2.0907762 4.086027 13.67613 3.2442465 -0.029120252 1.1505972 15.29822 -4.247544 7.8318596 1.4756925 11.370928 2.9046607 5.3802204 -12.483642 0.37335256 -0.0397923 -10.374414 1.1250436 -10.987805 7.1644273 -1.1261134 -5.438036 
2 19.613451 6.3618045 14.372909 -2.563162 0.50627595 -7.4098253 1.6412525 11.460216 -4.2660074 -2.0071993 8.928845 6.256153 -8.926655 -2.291401 10.638157 -2.9384449 0.26902837 3.3269172 -4.515999 0.36282077 -9.241725 -10.088356 5.1071787 4.705481 1.8670697 -3.0747864 -3.2449265 2.8983657 -4.2844276 1.0143434 5.751663 -0.5026504 -2.8744066 4.6505075 -2.818342 -2.1515913 -1.6424136 -0.4548409 2.949879 -7.6667705 -4.049591 0.17456172 -6.216069 -1.6194476 2.6033084 12.312371 6.572731 2.6794212 -3.664247 6.809264 
1 -17.982315 -16.363611 -5.400231 -12.36525 7.037974 -0.32868075 -17.362656 0.5104444 -5.1305876 2.7924557 -5.0278974 3.5117986 -3.208501 -3.8858607 0.12488754 3.641808 11.757962 14.760773 -3.6574478 -4.2073426 -0.66695845 -0.3620397 4.4141226 -1.4623976 0.5570934 5.332167 -2.033215 -7.954932 -0.72335947 -5.021212 -1.710205 -0.92765975 -5.498753 11.480798 3.4070504 -8.759836 3.8959942 0.56214935 -1.738659 3.5981703 -4.4760237 -2.4965956 0.5843624 2.3747702 -4.782516 -8.598924 6.89312 1.2860982 2.8091817 -4.428436 
0 8.662254 2.0458882 43.379692 -6.3423877 15.083479 -3.0163581 -12.362876 -16.205875 -6.116749 13.728923 -7.6245317 3.072236 0.5581379 23.625034 9.405386 -8.377042 -2.4982617 -14.437528 5.0603004 0.68738276 -13.602973 -8.180454 0.38444024 -1.8954312 -4.977747 6.477182 -3.6701138 -9.63975 -7.732594 6.8475246 -2.435134 -3.0566702 3.232679 -13.404024 6.2385173 -4.854623 2.6819725 -7.971547 -0.57570916 7.255551 -0.2730276 2.5810764 7.4669404 0.22411253 2.9387267 11.8464365 -3.9303386 6.185915 -6.056295 6.123487 
0 -5.7893963 -26.904991 4.9438324 21.07106 19.365648 7.719962 -5.6531396 0.24231794 -5.96363 -5.6472845 -11.683334 3.910632 6.3700104 -6.707174 -1.2028607 13.770386 -11.455537 -2.7058191 -6.495457 -8.515989 9.644377 5.2516727 2.9642332 4.6574063 -3.6472945 5.818644 0.009672701 -7.2744665 -3.7025836 -0.117610976 -7.375911 4.3692064 -0.4974 7.4863553 -4.591218 4.9655695 1.5903783 2.471398 1.1520841 -6.626173 3.1100905 -5.251929 -6.424793 0.33991858 1.5530627 0.11553556 -2.9997642 -3.0005362 -2.778415 2.3374753 
2 36.47265 -5.1038847 -6.5568304 -15.7927 -3.6703165 -8.702298 -8.993108 -12.0806875 17.790005 -8.995777 -3.0798283 3.8092062 0.28770068 -2.6112416 -14.069368 -1.3610249 -6.184298 3.082236 0.9399077 7.7703834 -12.873047 2.0640702 6.1999393 -5.362985 -4.4485474 0.06724441 -5.1741734 9.36281 1.6578559 -8.490589 4.921403 6.225819 3.4206731 -4.6904926 2.2119918 -2.962356 6.624427 -7.7762237 1.3106495 -3.2341306 -3.799892 6.715495 1.9142373 2.2828157 -2.9967208 -7.7667656 -2.9312742 -3.6928315 0.6321016 2.7194111 
2 46.54696 2.170504 -0.20608345 -10.584917 -19.674427 -4.857773 7.165117 -7.9141603 -6.319717 -12.943801 4.533008 5.4169464 19.82418 2.3041308 12.7319975 -11.781582 -6.3431787 4.2368765 1.4581425 -3.6632073 -0.22017947 -2.8568945 1.7870128 -1.1014948 2.370896 3.4150996 0.25976613 2.250964 1.369507 4.8634005 -0.43086734 3.3136504 -1.5718901 11.544192 5.141467 -3.4804235 -5.795603 9.92571 0.68370914 0.78219825 -0.058049083 -1.2518512 -1.7592493 -2.3133967 2.8013442 0.44847456 -2.1577542 -1.6362131 2.8893864 -0.8865662 
0 2.488568 -2.7486148 36.97562 -19.060968 5.361651 18.228422 7.835989 -22.92963 -18.532396 13.214465 -9.635294 -13.815639 -2.1584284 10.5391035 14.499658 -0.7727244 0.8174864 -4.6963882 8.115731 7.4306893 -2.8360896 2.1114779 5.1752133 4.017437 -1.9605817 -1.3943732 4.430734 -3.1599267 2.5640798 16.076094 -1.6886051 -2.468177 -13.57108 -2.132054 9.180326 11.781275 6.984262 -1.9992567 -4.0945673 -1.7346776 -8.552276 1.5408938 9.703763 2.8238714 -0.48898908 -1.870486 -9.14333 -0.7147864 0.20384826 0.17897387 
3 -10.48914 0.60045016 3.5119293 -14.729505 -3.1583717 5.076612 5.9034514 -4.633109 -8.634758 5.3307776 9.827769 4.5761104 -7.9556937 -2.966175 0.94114065 -4.3594413 -0.99468213 -17.311659 4.570121 -1.6948788 -2.068136 -3.1377878 -4.3989735 4.081548 -1.307348 -6.4527125 2.4587724 -1.2426482 0.3091016 1.3761247 3.9007568 -0.05678656 0.5523162 3.1343858 -4.6382313 -0.13619576 3.9105892 -2.493685 -2.7738929 1.1576796 5.1933174 -0.8003422 -3.167569 -3.1137342 2.8308873 -2.7979696 -6.0711713 -4.6680264 5.5455537 -1.3980621 
1 -2.7089853 -14.333808 -0.50226325 -4.4637327 3.1219857 -8.656667 -13.941743 8.370872 0.3643699 -3.770519 1.1933587 3.163014 -1.8353056 0.3033276 -3.3107412 10.148084 8.541158 -1.993804 2.83197 11.265908 -9.07636 -3.4521925 2.7940767 1.385356 3.03186 1.3097774 -1.1036643 5.2193403 1.562839 -10.784222 -7.9913154 2.1186202 -5.667916 2.5421526 4.563558 -4.7941384 7.081185 -2.881948 -7.6710324 -3.8275597 0.89377797 -5.463769 -0.20927331 -4.686683 3.2551522 3.617501 5.160794 -0.83725655 0.7501734 -2.7865748 
0 2.4889696 2.5124943 25.57326 1.3124478 14.289676 -4.6627517 17.661043 -5.830598 9.3246155 9.012652 11.963388 -2.3905437 1.0305856 -4.2435303 -0.9324707 -7.4194508 -1.8459082 -6.527141 -0.6460612 -10.440432 -2.63413 -5.2187715 0.712048 1.3935087 -2.605217 4.081097 -5.4083796 2.3681316 -10.684822 3.0488133 -6.5074697 0.5812895 3.0145786 -10.241449 -6.980661 -1.1505616 0.26966044 -1.1202954 3.697015 -4.6906796 3.2000508 -4.139384 1.824389 0.6706445 -2.1744995 5.628889 -1.3744385 9.2408695 -0.07325991 2.8705547 
1 -19.356041 -3.3441782 3.106985 9.377231 -29.229383 2.017525 -2.6262681 -10.810223 7.3633413 1.9284558 1.1345364 9.131285 -3.7506602 -3.0338821 -2.05851 -9.192598 11.822163 -0.6355126 4.390023 2.3848474 -2.0282855 -4.0072474 -0.92693436 1.7499064 4.6481857 -2.4844902 5.252211 -10.92359 4.649236 -16.913837 9.780807 -4.025584 3.3406477 -0.8160416 12.26681 -1.9486595 -3.7329648 -0.042144492 3.8076527 -9.304361 -4.645846 -0.018485501 -1.6665823 -4.7243576 7.598235 3.852839 6.654148 8.137525 -13.713141 12.165609 
3 -15.016337 -0.27150118 -9.602774 -5.4262795 4.66019 -5.7661867 0.36983538 8.370212 16.27313 3.7420514 2.7018948 19.275244 9.432691 -16.18821 12.368195 1.3729001 7.313319 -5.865722 3.0341837 -1.8239241 -4.6972365 2.109727 1.2893105 2.1681511 -5.3615403 -0.5556363 -0.7817126 -5.1936984 2.6995783 -0.2478013 -4.5559115 -4.360067 2.637931 0.5272931 5.727821 -0.612097 1.920347 2.3397062 0.6639012 3.9678926 -1.9347761 4.4590597 -0.5720975 -4.4318166 1.8252329 -5.676135 -3.4391341 6.2188735 1.4648415 1.500147 
3 -24.664026 -14.711578 -9.809197 -10.163985 12.981834 -10.802213 17.49712 -10.160475 12.115292 9.673101 10.45528 12.392177 -1.7990516 7.989105 5.316424 -7.8103223 -7.7857823 7.3411903 -4.424232 -5.756368 8.940026 0.14185622 12.64626 -1.9729184 -9.637737 0.4311876 0.59476036 -3.6045315 -3.638415 -10.657672 -2.153124 1.2033484 0.5820504 -3.3154833 0.9554398 4.634643 2.1778297 -0.6534983 1.2973634 5.2069726 5.0602627 -0.14099076 -1.3456988 -5.787194 1.3309804 5.328541 0.20877193 -0.5097258 -1.0238639 -2.503454 
0 0.797112 -19.07993 23.481663 -11.258189 22.456026 18.435856 -5.845052 -6.8627567 -4.5602126 12.331789 -9.577723 -4.264724 5.3679338 5.52676 -1.0843314 -3.1330926 -10.612878 4.536706 1.6949067 0.9868841 -2.2043169 8.687896 3.501664 1.5075201 6.6210537 -1.3154845 3.5339458 -2.3920274 1.3936805 8.583413 2.1314468 -8.873594 -9.90876 -0.32188383 4.8777246 4.732711 -0.40184698 -1.7773513 0.17833884 0.69620794 9.080426 -6.671989 0.61177284 5.2324905 -1.3931103 -7.5004272 3.4681835 -2.9491866 0.7757391 4.403223 
2 26.785973 11.197667 5.602371 -15.054412 -10.346981 -16.342554 -10.198428 -6.2655 9.211935 -14.194304 -2.2538848 -6.752831 -0.47509873 1.3195193 -21.25644 -11.491518 3.70143 -9.669171 -0.78778964 -16.36173 -4.474451 -3.2415516 7.2969265 6.863561 0.9471875 4.658154 -7.1420927 -5.7715535 -7.956154 -0.092215404 -4.956747 2.792224 -5.4930825 -3.3007758 -3.4873288 9.59116 -3.0073946 -4.851525 0.816888 -8.080424 1.8559363 -1.1203456 3.1932218 8.322877 -1.9125383 -5.252538 -5.1444817 2.0523653 -1.0853348 -1.5474913 
4 -18.878983 40.09438 -7.4842978 2.376515 -4.288607 20.19413 0.09907003 4.007503 13.710129 3.536079 12.410255 2.4119666 -2.0820422 9.127625 -18.465515 1.6487875 -5.820237 7.1419826 3.843664 -8.659212 10.4906025 -7.7043586 -5.410848 4.1376057 2.3331656 12.013895 -3.3942173 0.9238608 6.8199906 2.6221457 -5.803037 0.63926095 0.38364062 2.0862708 1.0885056 -2.0565176 9.288328 0.5452503 -2.1723602 0.25826418 -6.258606 1.9187953 3.9726365 -5.8119283 -4.8926806 1.7301849 1.8887856 2.8262668 1.9085426 -4.169121 
0 7.566001 2.3661356 33.270157 -14.914347 1.8411056 13.884981 10.209657 -16.924866 -11.729593 0.10133012 -6.206431 1.2735476 6.812418 3.8115113 12.734221 7.6519904 -3.1631439 -9.679628 -3.700077 8.400242 1.1002133 4.466712 -6.2133245 1.9337611 0.22350119 -1.3086302 4.6189103 -4.3414354 -1.703145 15.506674 -4.1382575 5.2929816 -8.938065 2.0272038 8.865182 2.0813775 4.050483 -2.8451169 -2.8609369 1.8572512 -4.3461914 4.745019 6.1723475 -2.4259324 1.5864978 3.3361123 -4.9305935 3.935631 -1.316762 -3.221298 
3 -39.217583 -11.996215 -33.510296 -21.268684 19.020657 -0.23486786 -4.3660398 -12.199402 -16.159012 -4.6400814 8.2677355 16.273726 5.8607674 3.0228848 8.176231 3.296361 -3.4776378 9.059185 1.6745813 3.6182103 0.35549492 7.429198 -2.4748409 3.288475 2.0966089 -0.26365858 -8.816259 -7.765892 -2.0681005 -6.9939184 0.5660709 1.1303384 -6.2778406 -4.752651 4.332265 1.1218832 4.631031 0.84221554 5.794829 -0.3993819 1.3848983 1.7715821 -2.2789416 -0.020875677 -0.8996372 -2.0982985 0.88907707 0.17073867 -1.0828315 -8.080102 
3 -42.672604 -7.1278286 -21.853384 -15.569373 -25.227419 -11.339163 0.49886128 1.094635 1.4200807 12.251903 10.136869 11.077783 -5.490777 4.385432 9.895175 2.8483784 3.3359609 -19.864481 3.657092 -1.9962627 -2.1389816 7.189221 2.4363894 -7.5017877 18.054125 -8.972577 -3.0158148 8.753022 -5.2975345 11.198323 0.6360408 -2.5978699 1.2328713 -1.2444519 0.3122142 -5.720503 4.9835663 5.4673796 -3.7848318 -1.4212426 3.269147 9.985926 -3.352676 13.107348 -2.0231564 0.6611589 0.30019596 -1.9100888 -2.6622539 0.13764073 
0 28.309065 1.0612026 16.555735 -14.691258 -19.494888 9.330922 4.55182 -7.0893135 -1.7225475 -19.409502 1.9874971 1.5723218 16.10258 5.9360104 13.88201 -7.232734 -0.35664475 5.1634564 -0.49114513 10.097202 2.979959 12.6000395 10.23595 -5.7465553 9.289391 -8.92671 -5.7552066 -9.117952 -0.07239121 -1.9230665 -5.3385763 9.895267 -1.457238 4.260652 4.1015844 1.8822707 -6.393805 6.1693444 -1.3360157 1.6264389 -8.284969 -0.62704355 7.681678 -8.490519 -3.262231 -1.8897134 -0.55407894 -1.4470823 4.604484 0.70070755 
2 21.91126 13.699632 12.159321 -2.4591446 -21.490393 -15.033294 -8.268758 5.1135 6.4117746 -8.816695 8.990295 0.57037616 -14.069006 -2.6218023 4.708876 -4.0205045 -12.002205 6.897401 7.882154 -9.446331 15.910241 -1.0996447 -1.5941284 5.445318 0.36822316 2.2419558 -7.08951 2.8995166 -13.29801 -6.238891 7.521631 -5.2124834 -7.711481 -3.8694708 -0.16653405 1.7521919 3.9416285 3.3969474 3.5796018 -4.574409 -2.009542 0.73224074 0.26693815 9.398994 4.233789 -3.4076877 -1.5960853 0.4088557 3.3212216 3.9700944 
1 6.384811 -12.4781 12.254216 0.10371792 5.079019 8.159471 -15.376708 -1.6673455 5.7208138 -7.0736856 12.092595 12.49307 4.7094474 4.6300707 -4.7378497 3.1487718 -0.106151894 1.3991258 -3.4153404 5.7850533 -6.7449684 -7.9193535 7.5821 -0.53184617 -4.038674 -5.0780096 13.846267 -3.4595857 5.7404194 -14.28688 -4.097443 -2.0466323 -4.841751 -1.5648155 8.023138 -11.142502 -1.120178 -4.5924478 -1.4014591 -1.8148882 0.95431316 -0.5249917 2.7262366 8.719388 1.5325934 10.397343 1.1795113 6.348275 -2.2531412 -2.4875877 
0 10.346852 4.772833 29.026623 -4.236437 -5.4635425 0.5893628 -5.411717 1.0294694 1.31807 -3.9367275 8.571671 -8.22962 10.753438 -3.858861 2.532887 -5.9282007 1.2952778 4.582122 -5.974877 -3.465201 -2.9694233 4.4104543 -12.86179 -4.127953 -6.800674 1.3544611 -4.033642 -2.639771 -4.148885 -0.2940998 5.2309036 -1.3539389 -3.4762502 -3.8788786 -1.0428605 0.917998 -6.973108 1.3032956 -2.4365175 5.370666 -2.1161861 1.4818608 -0.92921835 5.318413 2.3778465 1.1572106 0.35263428 -2.302093 -3.3829296 -3.852048 
2 45.069443 -5.466292 -15.25939 5.528369 -0.53047454 5.0903974 10.422217 -1.2824422 4.8951035 0.28816214 -10.9834175 9.087412 4.3161354 10.87995 2.0288274 -1.62995 1.3383222 -0.7084928 1.7677634 -4.4456177 -15.39973 3.1179068 -6.6714444 -7.7961745 0.8456526 -0.44934583 1.3303329 -1.1540856 3.1358814 1.3658409 3.4038658 2.2327385 2.2238128 3.2737691 -6.011347 0.3349206 0.45481026 0.9680671 1.9263632 -5.110653 0.9545984 -2.3465493 4.5923023 -1.3194523 1.64204 -2.0691602 -3.188165 2.3438563 -0.20385292 2.3388224 
1 -21.598108 -29.825912 -7.5003896 24.675781 -5.040022 15.864219 -17.188908 -3.0475483 -0.626782 -9.378741 -1.2497605 -12.343524 3.202179 -0.16709119 8.149581 -0.922678 -7.6633053 8.7919655 1.7710955 0.8308779 7.1433687 -10.460819 -1.3215011 -0.81396586 0.4288357 1.0653514 -3.6197762 0.19678599 -4.273441 -2.982656 0.5139943 6.4121156 4.579657 -5.0567956 1.8801341 6.2602506 -1.7887934 -8.641287 4.172435 2.5889373 -0.13922101 -3.8087888 -2.3770022 0.170487 1.7426264 -0.024371281 3.4383385 6.103926 -2.3693628 1.2545848 
0 6.9273195 -5.1670923 19.483624 -12.01395 17.944262 21.208801 3.1724095 1.2253317 -11.701032 13.479444 -4.5571947 -19.09207 -0.8996403 -4.7787523 -2.7922504 -1.7662017 8.548272 5.164465 -0.44589907 -1.8695414 0.34147406 5.165197 8.222858 -1.5753828 5.056971 -3.5005648 2.6480713 1.2542129 2.4440873 6.068553 6.6369357 -11.556962 -0.981269 8.040202 -5.4452267 2.9730005 1.4370372 -5.2706575 -4.229988 2.1066554 -2.2220998 1.2426424 4.1260557 1.8486384 0.47414044 -9.117102 2.0366607 -5.588928 1.8812217 6.6682925 
1 -11.152757 -11.440257 1.8340981 -20.057768 2.4293523 5.786233 2.3230104 2.737135 2.369946 -7.1949997 -3.957663 -9.606035 -5.106187 7.102127 -0.4551811 -1.756797 -4.232691 7.886347 -1.6291972 7.4493685 -2.9177694 -5.6653957 -2.5764174 0.8945171 -5.739054 6.853655 4.9661303 1.2314476 2.4648857 2.3243084 2.4303756 -3.6300926 -0.98305196 -4.4269176 0.5281337 -7.730956 -4.645767 1.0397506 4.4826202 8.624257 3.1406386 0.60081327 1.9139906 0.118509136 3.0215638 0.91605633 5.7569594 -1.2163649 4.2565827 1.6351599 
1 -30.72451 -22.944004 -14.985514 -0.107842505 -10.681423 0.525845 -0.1109321 -11.70792 10.133373 6.5170755 12.34027 -1.4394863 -6.577364 -3.926642 12.760744 -10.887292 -0.5903966 -1.9932002 -13.408854 -1.4944489 -2.1229768 -0.23755175 5.65096 -12.812743 -1.8852428 9.917141 -0.28438795 -3.6082056 -2.5782933 1.2723857 -7.699172 -0.68180716 4.441972 -4.9714727 -5.803887 5.130997 0.8803832 1.3113323 -0.51944023 2.6060505 0.75594944 5.6203175 7.7021894 4.0350146 2.0635798 0.17250617 -0.8188861 2.26903 0.42102563 5.146795 
4 -18.073702 39.743805 -17.701935 5.0402617 10.2504835 17.038399 -1.491754 1.0799446 5.588252 4.911886 1.0438565 6.7430124 4.7423043 3.0557697 -8.873786 -14.280518 5.21491 2.0844223 -14.491439 8.749683 2.0346832 10.89281 1.8257198 14.609924 5.2787023 -0.74920094 -2.2727356 14.505399 7.1712804 -0.98244786 7.6464033 5.646279 -0.6866759 6.9729686 -6.734748 2.2962487 -0.4934872 4.9712067 2.0654566 9.474089 -1.1243706 2.8717442 5.3268514 -3.824008 3.1140501 5.3907714 -1.3169075 -1.9890981 2.1424708 -0.9631708 
1 -15.096437 -10.733027 4.235732 7.743343 -5.644738 5.828635 3.394009 -14.003074 2.6705613 7.9665256 -2.9945617 3.5018864 -0.065697975 -4.6796947 -6.5792627 -6.5560102 -0.47397998 1.3160247 -8.236589 -6.3224664 -4.373699 2.7793496 5.2792044 3.8859875 0.12595162 -5.335495 6.919134 -2.3176332 6.555349 -7.0181694 2.7158313 3.9545221 0.70639694 5.632001 -4.739354 0.96906114 -2.3304307 7.717916 4.646852 0.5834498 1.2338133 -0.010193851 3.060453 1.351947 -2.8069575 0.93120414 -0.13363007 -0.37123305 -1.9764855 -2.6912885 
4 -12.365967 45.74445 -0.8415936 22.64854 16.903322 -18.657099 -17.068428 -2.911566 -0.5236921 -1.2230786 9.737736 13.135653 -0.7219031 18.366846 -2.2721477 -9.490727 -1.516821 -8.767361 3.9574978 6.8580723 5.5981436 4.066355 1.6501777 9.329629 0.5403144 -5.1470423 9.793822 11.575548 -4.4792666 16.191961 8.102467 0.58501226 -5.2010775 6.0140476 -9.420947 12.246887 -2.6868193 8.390682 -2.7045023 9.740202 -2.6867628 -5.898002 4.193124 3.4035354 -3.8720598 -0.75761116 1.5739515 -1.4267076 0.89840585 7.0548377 
4 4.4516478 13.888657 8.297398 -0.7156943 17.389257 -9.911761 -17.918783 8.515071 8.762004 3.1491108 5.3035097 -4.4216156 -2.2343547 -8.659274 1.2341815 -5.022359 1.6977565 11.361151 7.324246 -6.1281543 -7.7350297 3.7544556 -15.068644 -0.9374575 -0.51412797 -5.33828 5.4404993 -4.59167 -4.7513824 -17.00144 2.7566545 -1.1551609 2.4669316 -1.119998 2.1186645 1.1767409 -2.0988197 -2.338617 -3.945832 -3.9407268 1.1739796 2.0263295 -1.3135214 -0.7332399 -1.1082846 1.7640319 -8.206466 -6.463819 2.303487 3.527746 
3 -16.466358 -12.4029455 -3.7121336 -1.5379938 3.2043953 0.24525042 19.749043 1.5308965 17.338903 -1.7022164 8.561146 5.6651535 -1.9415779 -5.041982 2.2454007 -0.56562674 2.9446876 -3.0156674 -2.0963976 -4.531067 0.9530023 -0.6881006 6.386835 -0.286374 -10.819484 0.9778694 3.002483 3.4832098 0.33345044 -7.2505565 0.13341707 2.3567796 0.7857213 -3.7260032 3.8061814 6.2701855 2.292888 -4.8947954 1.1694293 6.1210613 -1.2460687 -1.4000168 1.0769758 -4.8702126 2.8112056 1.8126438 -0.07839308 -3.3834763 -3.0299983 2.559351 
0 30.66161 -12.189562 1.6376622 4.1837206 2.813133 15.069713 5.2551327 8.938159 -1.2115455 -11.718421 5.240113 -2.4739916 -2.013891 10.16913 -4.814349 -2.9030926 5.8228836 5.434652 -1.9191852 0.39988264 3.9243271 -2.6436992 -1.1965814 1.7806746 5.8480453 -6.3724027 -5.134429 -2.1559443 3.0572672 -5.7967706 -12.429246 -1.1109146 2.285898 -2.483412 6.9880433 -0.66054296 -2.5525992 3.1102982 8.990999 0.73009014 8.010565 5.488102 1.7476131 2.9105303 -1.2652607 -1.8346187 -6.568845 3.6978955 2.13574 0.1252214 
0 21.164545 -18.58973 2.3732057 7.88322 14.832718 17.035095 0.02094715 13.6100025 -5.9640627 -1.3554841 11.355204 2.4075344 -6.8651013 8.410029 -3.9139054 -3.0832155 -1.6053972 6.491349 0.14564244 8.011734 -0.70052576 -1.2421762 8.978915 4.978406 -5.8125224 -1.2527145 8.000594 -2.5561373 6.406523 -0.69386053 -11.411479 -11.760589 -1.8193424 3.203704 -4.381856 -1.507136 -5.763971 2.312307 2.237647 -1.0308375 4.357242 8.971613 -7.2833405 0.901733 -1.6230024 -3.403779 1.4828659 5.994936 -5.741217 -2.648833 
4 -0.91641074 12.018989 9.145426 -0.013893869 3.465764 -13.952137 -17.700466 12.664567 -2.7418501 -7.4019527 -8.418743 -11.256016 5.19044 4.4761095 15.431947 -3.3455052 -0.58932406 -3.491438 -7.7428803 -6.1683397 -5.0974345 0.19163726 -3.0442598 -0.8283746 3.4884863 0.05446148 1.63169 14.362634 11.744749 -7.1496925 -3.761257 8.518701 -4.38546 -4.677378 -1.2088945 4.3357973 -5.3084135 -4.945727 -5.7730093 -2.255016 9.508019 -10.477022 -4.46238 2.6565428 -6.3999104 -3.9444735 1.5552714 -4.617629 -6.1016808 4.955044 
1 -8.040249 -24.265316 -4.2702956 8.673617 9.776086 18.466993 -3.1140409 -3.4673815 -2.4968584 -11.910578 11.401546 0.1806049 7.4257364 -0.69814 -7.115766 6.802842 -6.6894574 -1.6147628 -3.248576 4.5515294 0.28047702 5.0688896 4.013473 3.1218607 -0.07722655 3.0289958 3.781002 -0.5056368 -2.468573 -5.640461 -8.080008 4.6791606 -5.1623764 2.0341454 -5.0262327 -0.9935231 2.8224514 2.2392097 -5.9495187 -1.3938452 6.980042 0.019960903 -3.6528575 2.4181716 3.6817017 -1.4331832 0.85945433 -3.8907194 -2.010034 1.9811038 
1 -15.474891 -27.982418 9.106501 16.05994 4.8565884 20.92135 -24.439732 -0.1347281 -9.327438 16.060099 1.0346137 5.4116163 8.940593 -5.3495708 0.051804997 -10.120746 -3.2244077 3.4690137 9.501462 -9.525961 -3.535876 1.9818527 -0.23109138 -1.0212408 3.9025016 4.872786 -5.7952 -0.20844658 5.8926563 -7.1956983 1.5701387 6.3071065 -4.76741 3.8064377 4.895724 2.6986356 3.0996466 2.4904497 3.9873857 -4.693341 -0.108642235 -3.9070086 -4.0935874 -0.25783905 -2.9750772 -1.2424538 -3.3071184 6.1796446 -9.414189 6.8841195 
1 -10.595615 -30.773664 9.3599 14.086782 7.443951 10.280197 -16.16142 -10.923971 -3.067411 5.6229897 3.2863095 9.848819 9.136712 -2.6068738 -5.0299163 4.8575735 -2.5903263 -0.6089145 0.9720998 -2.1756675 -5.1325946 0.81350166 5.0186987 2.260367 3.0977898 4.316262 5.4807816 4.777958 0.0039966106 -0.43697092 -9.001499 0.5159545 -10.927214 5.780855 4.545288 -2.7491422 1.3182658 2.2395058 2.2119126 -4.30377 3.6794708 -4.946839 -4.5885487 3.8039587 -0.38072607 1.4421358 0.49241114 0.63639545 -3.9056637 -1.8952992 
1 -19.848783 -20.693382 -5.607472 2.353761 -4.3921685 4.993546 -2.6706336 0.28905657 -2.2302 -3.5331693 -1.2196051 -8.715777 3.4988213 -8.269463 1.4647707 -2.3450487 1.0342643 -15.008366 -1.8748959 2.989619 -6.5274873 3.0613797 -2.7313435 -8.977313 -3.3231785 -1.2846085 -1.75554 -0.5325977 1.7982446 -2.083209 -2.1877584 -0.0154378265 -10.254762 -1.6093324 -1.4956785 7.847942 0.019141346 4.5556564 6.518832 -0.33207995 -2.098054 2.0551915 -6.9541173 1.4595029 4.3500266 5.627189 -0.8908518 -0.8121058 4.6799655 3.1851106 
3 -6.500762 -2.064845 8.892664 -20.757822 9.803138 4.8790965 15.951927 -1.7221317 4.584315 8.219245 10.961236 -2.53024 -3.644349 -7.708156 14.8684635 0.4343772 2.9057298 1.0909913 -7.9678044 -7.915761 0.8853732 0.58571994 12.239509 -6.8552346 -4.3192267 6.074167 7.6305895 -1.0829718 8.22762 5.870181 -5.084019 -4.4698825 -1.5203022 -7.6944075 -4.0623074 13.319147 5.086527 0.4131638 -0.49756467 6.5967307 1.317446 -2.283707 3.3223834 1.0084798 2.8420112 -7.3907213 1.4213804 -5.216938 -1.8672004 4.343876 
3 -0.9975933 -11.969983 10.594501 -1.6527636 2.8684897 -11.751375 4.9116206 12.938079 12.872917 2.3083186 0.33220494 -2.0894675 -1.7575443 5.4441843 3.5355282 -5.3810253 -3.2226334 7.258472 2.0745971 -1.1566702 -2.5391812 -0.75694627 8.0967 2.603707 7.8897195 -4.3296466 1.7970836 7.0116844 4.6106043 -1.9676425 8.52631 6.5043645 -3.5532827 8.211107 0.46198803 -3.2015114 5.6025205 3.4961843 -4.058204 -2.634583 2.4089403 4.340292 -1.8199211 -3.383032 3.718629 7.67558 5.3987384 -2.970194 -0.21654682 -3.7321947 
3 -25.174885 -23.051075 -0.42954615 11.553024 -14.368034 -7.6856885 3.662234 -16.077171 1.3442918 5.1937428 6.688 -2.915614 3.0918865 -6.032383 -0.4971812 4.3152356 2.1793306 -6.8533335 1.5367727 -4.900621 -1.7183919 -1.2854953 -1.4093446 -0.25339103 0.7461977 -4.699285 2.8100152 -1.4409609 1.3664441 4.1097975 1.3310295 -8.181786 -4.158983 -1.6496817 -0.041312218 3.1938512 0.6599804 3.1767173 1.7281398 -3.7472134 -2.0409367 0.24195379 0.09315714 -6.5290337 2.4300861 2.6741028 0.43762797 -2.4321406 7.4946585 0.23069091 
1 -16.753645 8.370161 -4.4182844 -3.524308 -0.66711634 6.28852 -2.174449 6.3868804 4.4404993 0.23885894 5.83098 -9.469091 -4.172906 4.1242447 6.2125473 -6.0007668 -3.1756701 -3.409037 -3.5297747 7.1140985 -10.123961 -6.696012 -1.4134599 -3.979079 -8.712224 -1.9591604 6.1663723 -7.846521 9.733481 -4.2756305 -4.297695 13.751375 -0.25407746 -1.0518286 3.2918453 1.7314192 -2.3629346 -0.048836578 -3.9304929 2.7034292 -13.414745 0.9399368 1.9743003 -6.464679 8.171271 -6.6722436 2.1030316 2.158324 9.046956 2.8978477 
1 -26.661913 -29.912495 6.6707225 5.376764 -14.397936 -13.717377 9.788721 -18.853764 10.077687 2.5670907 -2.0994127 -2.115147 10.311231 -10.631103 -0.8864801 6.414426 21.388077 -7.971768 6.0900564 -1.3469768 1.9878644 -5.2578015 3.1109009 -0.38699463 4.597916 -5.6090345 5.2611036 8.639996 3.1699903 -1.7517406 -2.9653413 -5.8531117 -4.12451 1.9382899 4.8803577 -4.6151676 -1.5842875 5.1315255 -6.2655177 -5.8716655 -3.528388 -1.6744938 -0.95796317 5.0740657 -2.6918411 8.470617 1.63852 -3.8273344 6.019585 5.853222 
4 5.3965297 4.9936223 17.012506 8.881295 9.292635 -14.949958 -3.598652 15.137668 -1.3694696 0.58071893 7.9596043 -5.1631927 -9.284417 0.7337873 -6.006888 0.5327477 5.98097 -6.9685855 2.7681217 5.4556065 1.0298613 7.451499 -3.312848 2.7824059 -2.2476573 -1.6984605 1.6161957 -4.6718493 10.472973 3.329131 1.1519892 -5.5312333 0.101665154 -16.042685 -12.106748 0.23528922 -3.4225383 6.530765 1.2663134 3.1140735 8.67357 -2.6772554 -4.515683 6.2197547 -8.375537 -1.8694731 -1.8038067 1.6263523 5.136526 6.2204328 
3 -38.315937 -13.191737 -34.06855 -31.011099 36.469193 7.725173 -3.941548 -11.1140585 -27.42467 -13.60069 -0.52687 14.782183 4.0898013 10.256372 5.2463713 9.19051 -11.213603 6.7130384 4.37009 -0.886979 12.414613 1.9637363 -1.2673411 12.543469 0.77902234 3.4510846 -8.866246 -10.312732 -6.8588247 -7.46926 2.8497653 4.237496 -6.2966323 -2.6612856 3.9211242 -1.4233289 -0.99689007 -1.612977 3.0688353 -3.0244386 3.2642787 2.026207 -0.39544594 3.8740957 0.43740174 -8.412544 0.9703668 -3.546215 -1.6010492 -3.5407243 
1 1.845909 -16.997013 3.921355 19.361189 -0.3848667 10.159372 -5.619457 16.031017 6.6112876 -8.04585 0.09917408 3.7396495 1.5304183 0.36598435 -5.7479115 5.76735 3.0630248 6.863456 9.946207 4.4339585 -8.388267 -7.378264 -3.6009545 8.244499 0.17007163 6.4612556 5.4831657 5.8103123 2.322011 -0.5417433 12.372044 10.310086 8.070689 -6.3558235 10.492256 -3.7813287 -0.8356673 10.343528 -2.1707935 -3.026723 1.349636 -1.344528 1.5705421 0.23856121 1.8717583 -1.3363461 -1.2887102 -0.738087 -3.9613109 -0.4751634 
3 -11.4534855 -5.095487 13.158717 0.70975214 -9.885912 -23.603306 14.173227 -12.675223 -19.98074 -2.116189 -8.150634 -10.191197 -5.4715085 -0.17422545 -17.126225 14.954961 6.0967526 31.420116 6.569136 -1.0988345 12.200738 0.5868422 -4.2222342 12.932041 -5.0262957 -1.0212379 2.4124238 -1.2350134 1.8699853 2.3278177 -8.301336 -7.9005003 2.2474735 -1.4536431 2.3913488 -10.628034 11.192718 -2.5654 -5.003418 1.0906911 6.134697 -8.996593 5.0283675 -2.6738853 2.2300823 -4.9157195 6.867676 4.685647 3.8859239 -1.9844515 
0 24.043703 10.703248 16.391096 -15.212848 -22.245241 9.917468 7.3184266 -1.1585336 -5.681953 -19.846565 -1.8463612 8.955946 6.812195 -4.4198847 7.104784 -8.1904545 -4.4387674 0.3231546 13.170121 -2.6282947 5.4760885 -1.6589345 5.3774424 1.98817 5.2574034 -3.7125745 -5.5303006 -1.2476747 -2.8036046 -6.722055 -7.1562705 3.4906256 -10.125496 -0.27021113 0.22501314 5.435678 -9.220286 1.9049405 0.5924915 3.8339615 -6.239126 5.6578918 5.6865273 -1.0171537 0.30523407 4.1229124 1.603906 -3.4104083 -1.9201947 1.4463209 
0 11.489775 -0.5095953 15.429441 -15.330773 5.5027385 11.754908 1.7746927 -7.6497097 17.543303 -9.0389385 -11.678474 -1.4280497 11.055748 -7.001747 -11.065433 7.336977 -0.70909923 -3.5807636 -3.4502816 5.799688 -11.122526 -5.6796303 2.3552446 3.7437613 6.7772694 -3.1215174 -3.1547503 4.5607767 0.29396793 2.3642972 3.6960244 1.625854 -1.8416238 -0.43106276 -0.73992246 -1.1926377 3.9643443 -5.5865364 -3.0878913 0.4030844 -5.406694 7.118963 6.6483793 -0.5608306 -5.076189 -1.192604 4.838449 2.4301887 -1.3144938 1.0258018 
2 64.21911 -1.9550959 -31.721012 -14.545685 -2.010128 -19.256634 -16.544037 -15.897519 -8.081172 27.58991 12.028112 -11.331 9.390496 -7.2112303 -8.033494 -1.0732871 1.5256035 -1.829396 3.9925168 0.44635236 22.101492 0.59908307 3.912122 -3.273998 -6.500311 12.866837 19.178837 4.76865 4.82232 1.276882 9.67152 9.067802 -2.218919 -3.0580459 -4.857103 0.3070032 -8.889095 -3.7498362 -6.815584 0.6663661 -4.597865 4.718961 -8.212409 -3.030468 7.3777432 -2.7662382 1.917213 -0.4532224 -11.53517 -2.5776079 
3 -19.719202 15.138116 -15.882343 -18.137512 26.394768 -2.859692 -16.139088 -5.32973 0.65731776 -12.45964 -4.7931747 11.312419 -8.289766 3.011795 3.1870916 5.4553275 7.2249537 3.4603643 1.3905385 11.380393 -8.275075 -9.897383 4.2173243 -2.7999678 -3.6811771 -12.354589 4.665556 0.6133344 -12.840723 1.1636208 4.5606985 -0.90073 -13.6031065 2.7775948 15.329436 -9.304159 -4.296683 1.634172 -5.584764 -6.3273005 5.2388344 5.561548 -0.5485456 -5.4102216 1.9342185 6.806962 -4.6137195 3.2386773 -1.6105716 3.2522514 
1 -37.131275 -18.234165 -13.711366 6.552637 -24.752224 -14.848812 9.605412 -12.651053 6.484685 11.579461 3.712336 10.3082695 5.9352474 -5.1888776 0.6470529 -13.044233 12.176848 -9.741374 -1.2816076 1.9804976 4.2110763 0.18821478 -5.277392 -2.6147292 5.1217313 -10.105245 -2.677622 -2.0266807 -3.9794228 6.730204 -3.564733 -9.038235 -1.7375693 1.5899459 0.09208936 -5.3090653 0.27534193 -7.1447654 2.515034 -5.4325614 3.025424 5.8555207 -5.9117546 -2.6241837 -4.9674096 7.9892983 -0.74537426 -2.8896484 -2.3058376 4.2844386 
0 8.221664 -9.857872 24.57605 -6.422402 10.076917 14.936218 18.204727 -4.528802 1.5308063 0.15445633 1.6986141 -12.933609 1.5721059 -12.47165 3.8873174 0.8237314 14.284978 3.5202086 -1.0687845 -0.6605207 -4.100955 7.3633947 3.580974 0.93323565 1.1200732 -2.1659985 7.601484 6.8288865 2.8046768 5.683542 2.0834436 -3.6949222 0.08400735 4.3371067 4.364194 4.021757 1.8744577 1.6577464 -6.614326 0.24404103 1.0010178 0.3214422 6.2002096 2.302985 -4.748833 -5.217731 -6.7747655 1.1342765 0.41982135 -1.0350018 
2 31.56466 9.191988 -3.8811903 -3.6161084 2.382128 -1.4190915 -18.892115 4.0987015 0.54288465 7.9085937 2.2203755 -5.254582 -10.43172 -19.79948 -5.8144555 -7.6825447 -3.785297 1.3688657 1.1018709 0.61459035 -1.577925 1.4612262 -2.605335 1.1400936 5.9421825 2.8222268 1.7362654 -8.190052 -0.42742348 -5.147266 -2.184499 3.3211792 0.7055039 1.6219951 2.209214 -1.1795067 -3.3461308 7.3680186 -1.4496877 -0.43591434 -1.129679 5.938887 -0.030961819 -0.64457095 -3.0438402 -0.041605525 4.748657 -5.552172 0.18924595 6.8904233 
0 -13.60041 -7.7002263 4.330737 -2.2471209 -8.949253 -4.41757 -8.28813 10.721024 -2.9075603 3.8792667 8.977224 7.7988267 -1.9961433 -2.8786037 -5.001976 5.4267845 -1.9743948 9.747171 -3.4585454 4.530655 -8.000089 2.2809346 -7.3677516 -8.390181 -2.4812565 1.2090439 4.482509 -0.38793647 -1.747857 6.38744 10.088972 -0.7020948 -0.98628634 1.7049205 5.7920823 8.142438 2.0569391 4.200902 0.31368935 -0.9367571 6.867031 4.331667 3.6089563 -5.694733 0.21296012 -3.283361 5.6516495 -6.648502 -5.1293497 -4.042865 
2 18.078379 -1.6996886 -4.3671155 0.5512291 11.854292 5.483965 -0.8748406 8.820892 12.14524 3.4640787 -1.920331 7.612351 -0.82931757 1.0528047 2.5471334 -0.15934819 4.345034 8.184348 4.7501 1.1008918 -3.8704786 -9.715135 6.7050304 5.5725436 -5.672532 -4.1803164 -3.380695 6.9152646 -2.8845274 -12.551878 -0.0016023815 -2.2288995 -5.860311 0.287448 -4.060734 -1.6432045 4.14654 1.8287814 -4.792339 6.8512187 1.3165818 5.034422 0.9360842 0.5299695 -1.2438648 1.809125 -1.0503087 1.9999268 -1.4598726 -0.97619396 
2 59.87451 -5.9577184 -31.297031 11.433703 -0.8954202 8.520408 10.881656 -1.3678886 -1.7981801 9.407921 -10.06574 8.993941 9.575827 16.406641 3.9597845 2.7780461 8.299307 -5.2084394 4.1651926 -8.177723 -5.183764 -3.0274112 -11.334275 -10.147407 4.7102275 -2.7557108 4.4397125 5.0578256 -0.926483 1.5253521 -8.429323 6.5890512 4.604515 -3.8088565 -1.4873791 0.4637429 0.1440299 0.8288824 0.3788433 -2.591747 2.827853 -3.7833703 2.5365121 3.7290328 1.2954515 2.4525769 11.817991 -0.066923454 7.869912 1.1194984 
4 -8.2630625 5.1350403 6.1107435 21.866419 -16.559237 8.5841675 12.673158 -4.618705 -3.4896843 -0.30749336 -2.8788354 1.5518966 4.484474 -4.41128 -5.1873455 -8.562382 1.2410594 -3.9032915 11.425383 4.3849797 9.936748 1.1436214 2.4867613 0.81894135 -2.2677236 -7.049987 -6.514893 2.6720822 -1.0081816 -7.9956174 5.7522554 -3.8825407 -2.6168902 -2.1589046 5.148429 -0.5851873 0.121480234 -3.940021 1.2265885 -0.13003047 -0.1964096 -1.3813168 0.5829983 -0.29261565 0.30391327 -1.1915531 1.5315578 -5.1903977 -4.200768 1.0925618 
3 -16.16692 12.037205 -0.95710963 -4.156901 6.0365033 -9.727672 17.87377 -0.8732824 9.904458 1.5557791 5.906984 2.629283 -4.5670877 11.514771 -23.540243 -7.722191 -5.3593864 9.865329 -5.0276494 -8.543535 -2.2237349 -5.900444 -1.7786908 -3.8067548 -1.2991277 11.842547 -4.30113 6.7109222 4.478469 -2.841182 0.51964533 7.2179112 -5.0410275 4.7370973 -5.9838705 1.953602 1.9880087 -2.6340444 -6.185485 6.409294 -0.6507305 -5.5495296 4.2167234 -2.1162822 1.5719815 -6.1964455 2.0078192 6.7970176 -3.8503525 7.5351577 
0 -5.3412185 14.256613 14.857532 9.149558 -17.230854 -11.257438 -10.917547 6.535086 -0.63610303 -2.9141798 -0.37275153 -6.4431424 18.229193 14.192936 5.8338685 13.801542 11.868791 2.9808314 4.5489893 9.974466 -10.113613 12.437429 3.2948618 2.3282356 -3.994762 -12.545284 -5.1043625 -12.500327 11.635379 -16.409529 -2.8810675 14.501598 -1.6641024 2.6512034 -4.6514077 -5.312546 -9.601243 -7.3537993 3.3430197 4.0153627 -5.547943 6.7608476 8.732783 -0.36841482 2.7261891 -13.059594 1.2674565 -3.0822275 1.4859823 -0.271965 
0 -3.6145637 -22.941172 4.6147213 7.0250096 13.658357 21.902502 2.673807 -0.7797023 5.699439 0.47589672 3.0813944 -5.594894 6.9416876 -6.56663 -1.9626828 0.61445177 -3.5072584 6.915208 -4.9348917 3.1251736 1.6488994 3.7861185 13.401392 6.1162906 2.0162754 7.8484025 2.87228 -1.2843342 1.1698016 2.523173 -4.7409286 0.35776243 -1.4435737 -0.24078903 -5.6081357 5.9178224 -5.8263216 5.4153733 -0.977226 0.33765593 3.6938298 -0.27982694 -0.7318153 -0.8753516 1.5924771 -6.780722 1.9469602 0.26979476 2.6388996 2.5478544 
2 43.334423 -3.6296585 -17.138227 -4.453056 0.22654866 -4.1387935 -12.127872 -8.916088 0.40103108 6.0131598 -3.3053966 4.2566094 15.180122 -1.5245738 -4.232518 -1.5481484 -1.9924381 -3.9990747 2.4046998 2.4769948 -0.89792 -11.492393 -0.40131482 -7.673675 12.477126 6.1372223 12.311892 -3.3543203 0.8872548 -4.562961 -3.9188762 2.5165703 -2.308366 2.9458106 3.4557698 -4.3217516 -3.4357917 4.1465344 -0.60615927 2.1909106 5.7137237 1.8852243 2.1710973 -8.307005 -1.7017848 4.961788 -0.4970011 -5.762321 4.423797 -2.6676097 
1 -14.878581 2.0800514 1.2077153 -4.425975 -2.474188 -19.458881 -4.890402 22.571714 -7.6336246 9.336169 -4.567177 0.5071854 -0.21538828 -7.706775 4.1405764 -3.7540066 10.520553 -13.698881 -6.370126 -12.825536 -4.1807556 7.4852667 11.558445 -3.0183628 5.8252983 -1.6207411 -2.0272143 -0.28098053 7.5348945 -2.8940632 -7.728394 -3.8283527 -5.0257163 7.6371746 0.48577154 -3.8329885 -4.0017433 1.4050457 -8.747962 4.23792 -2.4877434 5.8266463 -0.29155254 -0.135315 -3.8422625 -9.188254 0.71252465 5.253019 -1.6295648 -2.2510967 
4 -13.47848 32.423355 23.45085 18.990147 -3.3119051 16.336586 19.315 -2.7005107 -17.855307 2.718436 8.545382 -9.508977 -8.191784 -5.34902 -3.2297215 -2.6643672 -1.4486802 -7.7670207 17.71778 -3.6693413 4.920451 1.1028097 2.867119 -18.40709 -8.394227 -6.457223 -10.812375 11.9473 -3.6500237 -2.9225202 5.0773697 19.043524 -3.8627 -3.3123593 -4.4280343 -10.558435 -1.0043403 0.5409334 -1.5929258 6.286258 3.4291804 5.402274 -0.7566643 -3.9474103 -3.624119 0.62274563 3.1770747 -2.4096365 -1.0471559 -2.105877 
0 17.551893 3.5530615 32.358765 -18.378956 2.1229405 4.7273417 -7.7665424 -3.427058 2.2495294 7.0131726 9.251445 -8.555477 1.4831836 6.56568 8.753153 2.1424546 4.6413703 1.3285067 -9.200956 -6.190727 3.2190788 -3.7538395 -2.655584 -2.0908267 5.6628633 3.4165385 -3.070214 -3.798958 -3.2883487 1.3955879 4.470309 -2.0797057 3.5578046 1.3502238 -8.724978 2.2255166 9.09866 -2.9182463 2.8810499 -2.1861725 -5.9115314 6.3135056 1.3504827 3.484507 -2.5947833 7.7740264 3.852315 1.1395376 -0.021208584 8.044811 
1 -31.65229 -8.9755 -12.536466 17.588398 -13.188253 -0.12403683 -2.119354 -22.931677 -6.9108696 1.3712604 -9.8245 -7.8176594 -1.4292291 -7.4421406 1.1861618 -5.7926755 -0.65498084 4.971528 -13.337955 -6.6202583 -5.7477303 6.201126 -3.8924696 -1.216379 4.8228307 2.3144524 3.122568 0.31326458 0.58514756 -1.3984256 7.006886 2.2182007 2.4258528 -1.4045022 -7.8559165 4.7019677 2.5483854 4.0419564 6.488694 1.7394123 0.84734654 4.806877 -0.32027692 3.830959 -1.8720589 -1.1262536 3.571319 6.61116 3.3637843 -4.1155005 
2 51.02908 0.37202796 -22.219765 -0.119430855 7.158308 -9.4711685 -6.3420987 -3.2984805 -4.739476 21.280855 8.961975 -13.349208 3.0264084 -5.0623417 -3.020553 2.1277678 5.350206 -1.3593073 -1.9760147 4.0096736 13.052628 1.2989644 -2.057692 2.8332841 -0.46640798 0.37716568 17.03699 2.0970523 -0.10270083 -2.0144532 3.3309202 -0.2548632 -4.550386 -5.743031 -2.1401184 -2.7677822 1.851458 3.858725 -4.2117367 2.0750184 -4.2920136 -0.46465245 -5.0869217 0.9035382 4.4212074 -1.7882915 -0.6435162 3.2960982 -5.174056 -0.35449764 
3 0.54378045 7.405163 9.233308 1.7113094 1.555405 -15.783819 6.1743994 2.0986738 4.84367 2.0978892 3.6023812 3.6435711 0.6413048 -3.992085 2.542818 0.11053091 -8.1361 -0.17315158 6.039468 1.6501753 -1.1593883 -2.6673388 -0.22062184 6.094156 -3.0129619 -5.587393 3.0385332 -7.777507 -6.462225 -1.5687556 -8.337818 0.2665607 -2.500417 -1.8684695 -7.1398144 -5.6743484 -3.879949 -7.049253 1.8036189 -0.4428012 -0.7415902 -6.4496284 -6.1601114 -7.9474044 -0.9864948 4.39232 -0.82531106 5.244335 -0.54484797 2.2406044 
0 16.874046 4.6265597 16.263014 -7.043096 0.46564883 5.0051103 -7.7421894 -2.0022144 0.65473473 -1.0600183 -4.65273 2.266512 -3.7051287 -5.479943 -0.6669014 -12.672588 -3.772715 1.1497942 -1.5312878 11.372855 -2.6115663 3.0472846 3.9141126 -2.0892005 6.467034 0.5018681 1.7789147 -12.14932 -4.7828193 -0.26159018 -4.7025733 -0.061009616 7.041522 -3.8101456 -3.2019413 2.1951866 -7.252382 6.987464 -3.771996 -3.6829145 2.426175 -2.0812926 2.5625064 -0.980575 0.8309877 1.4156644 3.5468783 -3.4987679 0.9391831 -2.808484 
2 35.671844 5.1395507 -6.987651 -10.109811 -8.884559 2.4722793 -1.8880489 -12.48297 1.3315253 -14.019066 -14.505421 5.4780583 10.46456 -7.7987523 -1.7891313 9.280117 3.2269683 -7.662402 10.801559 -7.529366 -7.7952085 5.2425027 3.6731474 -4.5231147 -2.156594 -5.560117 0.92941505 -0.99121916 9.934162 6.584635 -7.9969015 2.8385248 1.0797739 -3.4464417 4.240491 6.164043 2.2012212 -10.020632 0.33234632 3.5537014 4.1619024 -4.1069484 5.3530483 0.25397447 -1.7972558 2.596912 0.26036698 -7.942606 -0.027547333 -0.30585185 
1 -9.708228 -10.683594 2.2060747 -18.605206 -2.9339952 -9.408087 17.860313 7.202092 2.519047 -9.250071 4.9868584 -7.7268095 -8.175541 9.737806 -15.062464 -6.171085 2.00706 -3.9981205 -2.382034 16.283087 -3.266485 3.5730717 -9.750875 -6.733585 -7.7849445 18.53607 -1.4912022 -3.4140136 5.342397 6.167408 -6.817906 10.139456 -5.4936075 3.2404423 -3.2782698 -10.13266 0.03983306 4.2770767 1.9340135 6.2353544 9.259269 5.514072 1.440623 2.1509469 5.834568 -7.910288 1.172021 -3.8771148 -6.745235 7.999131 
3 -19.330618 -2.6953208 -16.214422 -19.351625 7.8957906 -1.4018617 -7.8003416 0.27955735 -16.947098 -2.5818124 14.101183 16.964775 -5.614957 -0.59666127 0.30266783 11.556757 -7.15979 6.9305115 4.5243917 2.6329405 -1.8216904 0.48306713 -5.187693 1.3658483 4.465127 -3.540411 -1.7973427 -2.0960686 3.672261 1.067056 0.14720626 -4.5558443 4.738528 4.883899 0.3005396 -0.514442 3.8184996 -2.3673458 1.7749023 -4.3095136 0.32650337 -3.4541306 6.8588405 -6.364932 2.4616303 2.3291965 1.8564305 -2.9806476 -4.733324 -2.767648 
0 13.523854 -2.0986102 23.504925 -9.095563 -9.500964 -6.230704 4.5052295 -1.2341118 -8.263722 -18.407393 5.110561 1.713559 13.554614 -0.56976086 16.893856 9.367735 4.431448 2.4519243 -13.175685 3.9416833 1.3672608 -2.2652018 1.081745 1.7085425 5.7056084 -1.0425458 9.897327 8.123836 -0.34241188 -8.757066 -7.0716825 -2.2568483 3.4016998 5.510794 -1.9947577 2.3749456 3.4134967 5.8565025 -5.7633553 6.041399 -1.5828608 -0.5229492 -3.3414123 -1.3814784 0.38183647 0.65529853 -4.1660347 -2.9054043 6.4485598 0.8780906 
0 -1.6807344 -5.7018905 5.519308 0.9396956 -0.23159142 -1.8736273 -8.074315 0.037159733 9.471686 -4.8292146 -11.140274 3.4543083 -2.5594633 -7.1767817 -3.6615052 1.5015349 15.447313 2.9434915 1.9550061 9.371344 0.39488757 -12.097827 1.6638675 1.9201719 4.106178 5.18643 2.041551 -8.395068 2.5028334 -6.7530923 6.0301394 6.8643107 7.8553176 1.5864623 5.690209 -4.772344 6.812354 10.287973 -3.3926091 -5.1148043 -1.1062764 -0.021871865 0.6333406 -3.7133832 2.9243824 -0.92677504 -5.127985 2.7176452 3.546175 3.802908 
2 38.629395 -6.048831 -11.682374 11.288862 7.844536 -9.105005 -2.4854026 4.968058 -4.516607 12.040121 -2.8751485 -5.291252 -16.608774 -10.391819 6.5193405 8.428217 -5.074623 -0.009525098 -1.8816718 3.8650634 -2.494192 1.5451589 -0.31219953 8.020097 2.529152 -4.486521 -0.2564491 9.564212 -4.3016253 -3.8816738 -2.4048986 -4.4502497 1.0267766 -5.9012313 0.5325079 -2.3821602 4.9390993 3.4442358 -0.052196205 5.4641404 -6.3971667 -3.4988294 -1.4283487 4.2685676 4.45043 2.4358652 -7.6007276 -5.633879 3.5520132 5.2728863 
3 -22.662786 -10.01533 -7.225008 -14.139516 1.6669034 3.767536 1.9661694 6.4371576 -13.915646 -0.735412 -0.6822598 -3.3590147 4.616809 -10.465004 0.94173676 -0.53575504 5.0662513 -13.46236 5.3514104 0.5512318 2.0875332 -6.3641486 -5.1013517 -7.590418 -4.036297 -4.3338547 -3.4448347 -6.3042912 -2.8120627 -2.7086365 -3.1890085 -6.8167377 1.5783554 -2.0747747 0.29913008 1.2896284 0.46522957 -5.684511 -3.3863113 0.7644795 -4.3150125 -3.711156 -4.8113475 3.2405872 0.74812627 0.5261242 -6.4061885 2.6974027 7.148769 -3.104508 
3 -15.989226 18.083351 -1.9304681 -8.334991 22.958569 -3.4959154 9.432814 -3.9986663 -9.143456 -7.919268 -4.7130384 -23.508919 0.40879405 1.1740735 11.710766 -8.876134 6.004539 8.657552 -10.738412 7.255494 -2.8149438 -7.800403 -5.490569 -11.445338 -9.162063 0.18511003 4.2485404 4.381019 1.1101515 10.803732 5.7941575 -1.5843183 -0.7696247 2.1658025 4.9860206 -6.7724304 -10.312085 5.9086533 5.532894 -7.4923344 -1.8694862 2.8226972 -1.8849685 2.727082 -6.2326965 4.4001913 -5.1882424 1.5379555 1.6522994 3.2319467 
4 -1.6418021 39.18645 -11.359767 2.0973997 12.665084 1.0795408 4.5810456 -0.6177023 0.84676874 -12.975614 -6.3995447 -21.631504 -3.1070282 -13.510342 0.7790866 1.1550075 10.234082 -1.3853784 6.5868945 -7.0437617 -7.7782288 -2.7069612 -0.6214094 7.8772116 6.670791 10.465873 4.8179274 -12.332471 6.247683 3.8014817 -6.3363605 -0.4980749 0.4109817 1.8323959 -0.11710687 3.8059785 9.390905 -3.8489635 -7.577206 -2.1694136 4.4380827 6.104882 -6.009231 4.108124 -10.325938 9.35876 1.8533784 1.5498288 -3.6414964 -4.9685717 
3 1.3930491 -7.059837 7.017006 -2.3725328 6.5715313 -13.25104 0.67953765 23.61603 13.367952 4.106253 -4.613862 2.0792792 -0.983786 -3.7016666 3.5645883 -11.5726795 -13.061646 5.8472047 -4.0168347 -12.419415 2.0469975 0.8924025 -6.56915 6.174384 6.738836 -4.0995035 0.548515 2.5305405 -3.7857947 -2.0562153 -4.3182716 7.274333 -0.2575332 -1.7917826 -0.67017984 -2.1162114 1.0632097 0.20935754 -1.0513351 -2.1332724 -0.9198976 -1.3355551 0.376502 -1.7718635 1.3842298 4.2847977 -3.5210955 -2.1299942 -0.3406793 -3.3159213 
2 29.166826 -9.606777 -11.865867 30.354462 7.1035767 -5.9707546 12.114209 7.081282 3.6441967 -4.4008365 -20.367346 11.318807 -13.794905 3.4219358 12.476999 14.0384 -10.509628 6.1722407 1.9047899 -1.146005 -7.1693144 12.830372 4.8449855 9.389039 -5.096378 7.549932 -4.3956227 -0.8568152 -4.1868415 -0.062049642 8.258074 -6.018584 4.9174356 0.38006744 -4.909639 2.9539573 -3.853963 -4.78727 -8.6129675 6.5902944 -2.9539974 -2.6379452 4.5919943 -2.0031178 3.6015604 -1.0188483 -10.575588 2.709482 2.0071006 -3.1490982 
4 -13.227548 8.8667965 5.4727135 -9.361761 -18.756662 -4.004373 5.763246 16.09697 3.0633876 0.46031755 -4.725041 -4.314648 -11.61956 -2.5942879 -4.219987 2.559092 1.6985725 2.4900582 1.5323771 -1.0283039 4.158477 -2.6279905 -7.0326624 -5.5582643 -3.9755292 -2.6792052 4.7257385 -6.5887384 -12.022432 2.9356365 2.7191758 6.355809 -2.5978255 0.3697694 1.3108916 11.378 -5.090586 1.0440946 1.5242499 2.0877132 -1.3890558 4.222782 -6.395267 0.35385585 0.09609529 -5.851894 -1.8516799 3.7468696 -0.8200832 -0.47757918 
4 -10.763463 22.969013 4.119356 18.484247 16.837337 -22.129942 -1.4377276 4.8479776 -3.172356 0.8899902 -4.4310746 4.2206254 12.6224375 -1.833101 10.550205 5.1394596 -7.64168 -5.081135 -1.3092735 2.4118803 -18.817667 9.619606 17.382063 0.025338514 -12.793957 -0.62824535 8.848751 3.7146146 1.9691675 1.8363181 -6.0148406 -2.1724653 1.1888889 -8.75501 6.634158 1.9120458 -14.277484 4.012484 1.5282599 8.684144 -6.5571027 5.600267 3.8766747 2.438213 5.52203 -6.025078 4.2690644 -3.1292381 -0.81096697 1.2247533 
4 -19.173128 31.926868 -10.147909 8.006122 5.37123 19.914913 -9.260598 -9.104671 8.612625 12.906918 -2.642732 4.784893 1.295655 15.550948 0.7633331 -13.955308 -10.347907 -4.2492 -7.958674 -0.6997434 -6.1406064 12.631846 2.520353 6.404056 1.1598235 -1.3796071 4.202919 -3.3624148 8.172066 -1.8739092 1.7785988 3.6892085 -0.13142656 6.102258 -5.797372 -1.3733398 3.164479 1.0801438 4.1838694 2.30948 -3.2466438 -0.46893752 -0.1355485 -3.0680757 -1.736311 3.7224302 3.919054 -4.0838704 0.9823979 2.222997 
2 24.854366 -2.6686761 5.4683 -18.924234 5.7180305 0.93189585 -18.803024 -5.4968495 4.5216823 -16.9462 -1.9265362 0.09576373 0.054984793 -0.07835359 -12.1266365 0.15791571 6.7466097 6.0750723 -6.655544 -7.680008 -0.75973105 -2.244644 -1.9755342 -0.65021414 -3.4459455 -6.543496 7.6666102 8.027076 -9.426309 -8.989191 -1.3538321 -10.919097 -4.2248483 -8.538008 10.320062 -7.333651 12.997188 -0.9844236 4.420481 -1.9837431 8.975269 3.6815991 -1.9753882 1.8626931 0.37594408 8.422816 -6.3144317 -1.2693169 3.2217286 0.56255144 
4 0.7724825 -1.549372 1.1139276 14.00087 18.037542 -10.69213 3.4541254 13.697091 4.068328 -7.383939 2.2445085 -9.008216 2.537964 -0.5071427 -4.203186 -4.592602 -6.7595763 -3.3194733 -1.6751704 -8.539171 -4.566445 7.0164857 5.0193267 3.3465087 -1.4845059 0.535807 2.0117264 -9.850217 2.0114603 1.0024296 9.954394 5.097965 4.047541 -3.676988 -2.0491905 -3.504411 3.0291994 0.37501281 3.616509 -2.8859298 4.873196 -3.0768125 4.9382086 -2.4834661 -4.70484 3.4990067 3.4504995 7.8532305 4.7902427 8.613759 
0 24.626663 -2.404941 11.772925 -12.332455 -1.2773578 7.741843 -6.2278905 -5.754613 17.17874 -12.499963 5.2437015 14.637751 -3.348536 6.1456065 -7.955498 -3.6130989 1.3408507 -0.58654994 -0.04499231 0.9843522 -6.0521073 2.1266592 7.312146 -6.5065804 7.1544127 -2.6673398 3.4444196 -3.6647613 -7.3312907 -7.0223293 0.49337325 -4.5840144 -2.962278 -5.848333 -4.76724 1.962284 -2.151009 -5.6627355 5.395095 -5.1513515 -6.8549647 5.6006627 -2.6621716 -5.5827136 -1.8690412 -0.57536876 3.7984464 2.9352794 0.06985288 2.5958643 
2 48.79781 4.4628057 -10.161411 -18.211695 -17.106598 -10.9810705 -15.550598 -13.908432 0.57276624 -13.806257 2.8011224 5.7187986 4.5291743 -0.33670902 -6.912796 -10.31592 -7.2508945 3.659467 9.211613 -8.941587 2.7629073 3.3007436 11.352036 0.6849239 -11.706671 7.942605 -9.900165 2.6870625 0.7536482 -0.930771 6.489644 1.8531802 4.2818832 4.0257907 2.2653904 3.2941217 -4.405835 -2.4167182 1.2803283 -0.51509166 -2.2163453 4.846541 -0.50534225 -0.7403898 -2.3828392 -2.6819413 -3.8127723 -3.1118467 3.4141874 -2.8964822 
2 24.043962 0.086857125 -1.8294005 -8.106511 2.2407784 -1.9056787 -1.2823503 7.771305 -4.414969 6.3929987 3.9355645 -1.1230297 12.648714 1.6370984 0.32514286 2.3394394 3.1238854 5.368811 -1.1879625 12.76782 -1.606832 -4.5839367 -4.814808 -6.44998 1.495685 -2.477966 4.12317 -4.074097 6.7814484 -6.808187 3.1148105 -2.139929 7.5120907 10.08657 -5.971734 11.868878 3.0065327 0.75266355 -1.050146 -7.122811 3.9731224 -1.9468278 -1.5120041 -2.7617064 1.0489626 0.9921117 -0.47046724 0.6118278 5.4742513 -0.99702 
4 -9.227306 34.400665 -2.7623308 22.435425 -1.7585678 22.212786 3.8033714 3.1441863 -0.118080586 3.7053876 4.641504 -0.99151164 -4.199775 -3.1160512 -5.5565834 -5.532619 -16.443077 -10.2156925 -8.442244 -0.28256363 7.434819 -7.15501 10.0216675 -14.748569 6.853074 2.984379 -7.8874335 -2.7012331 -0.5643242 -8.682388 5.9284754 0.106482886 -0.9367274 1.6408992 -1.4695543 -8.118067 7.529881 0.5686276 -4.3390613 4.8989935 -3.319074 1.491453 -0.071350604 3.1199784 1.4634824 3.2641673 4.963053 -4.311508 8.4184885 -0.4131899 
1 -25.884052 15.836918 -16.940638 -0.58130527 -13.416632 24.92333 -4.1974382 -2.8652925 1.2933536 0.9411716 -7.0802593 -1.7017794 -5.8737016 5.088811 2.470748 -16.201197 1.228507 -5.6004977 -10.609823 -1.805194 0.71893585 -3.1900744 -0.66323054 3.528436 -11.019781 -0.92847204 10.544185 -2.7783897 -4.6511235 -2.7101927 2.897492 0.9255017 -1.4261856 -0.19729108 -7.5580792 -0.3916594 3.2930462 -5.969719 5.521594 10.296687 -3.2041175 -0.41174534 -7.2386384 -1.4225391 -2.7808857 -2.3475733 -2.6243508 3.8645325 8.78709 -1.8838586 
0 7.237996 -3.0757027 15.686172 -7.9840555 6.267994 5.4172745 21.271034 2.3826795 8.427712 1.5279086 12.401353 3.1485 10.764441 -2.6181307 -5.8915057 2.7351499 9.768588 -0.9126214 6.7727556 -5.701609 -9.344208 4.173729 0.10940085 3.6594675 -2.73656 -1.5756667 0.04943105 -6.5805073 -2.5026045 -7.4281683 1.5203443 2.3194473 3.1852274 1.329373 -2.5839 2.696725 9.01528 -2.0667908 3.3687894 -4.2953115 2.02952 -4.161479 -1.9169434 -2.444735 0.156464 5.629493 -0.38480955 2.3069701 -9.864514 2.8921309 
4 -6.595915 31.432848 -1.6951169 8.245831 27.068375 14.598895 -7.045126 -8.161343 16.08328 -7.4358974 2.295854 -7.1086884 -1.4452016 -9.828576 -0.9672299 1.3018914 -12.199737 3.3724222 5.4543905 -1.9174092 3.0706234 -4.112685 -3.3913426 -17.550999 12.802883 -7.965352 2.411903 -6.064274 -1.0006512 -6.0104976 2.8436816 -4.1226187 2.516127 3.2712612 4.762478 5.8046737 9.04654 -0.1659912 1.4404854 5.1104116 -4.1249633 3.3304083 -1.6838461 6.8565884 0.53331804 3.448435 1.9164702 -3.1115613 4.5932884 2.8088882 
3 -26.063107 11.942536 -8.994884 -13.813173 12.089758 -13.223514 15.109227 -10.778708 24.166368 -0.15293828 2.2353258 -4.888724 -4.4525423 -1.2493755 3.1353133 -0.60604143 -4.481647 -3.13808 0.9680836 -4.982577 4.420414 -8.088282 -1.4996012 -5.355484 3.6881166 -2.0588624 -4.4904227 -1.2216853 -2.3881192 0.11693859 2.8877337 4.209618 6.701764 0.006711453 -1.397973 -1.9244449 -4.4237843 -1.3959728 -4.7235236 -1.7072924 3.0431132 3.432885 7.4368105 4.4957 3.8350403 -1.4619281 3.9802823 6.115718 -0.543919 3.0049317 
4 -12.045946 28.133364 -8.963603 -12.523971 11.265345 3.5050552 0.5139021 0.44762623 8.107463 -3.8224788 -16.66003 -3.580112 8.204902 0.2646952 -6.676541 1.9252584 -0.656016 2.4178977 -7.0109177 17.61582 1.4922982 -9.448985 1.7844934 3.500924 -8.246144 4.67462 -4.9031954 0.8627162 0.3698315 3.772223 3.7860441 2.1645458 4.4288054 6.073296 4.7114367 -4.205882 -5.406906 -1.827946 -0.868159 -7.046461 0.23205805 5.707428 3.623265 -5.079719 -8.57918 -5.689448 7.483161 -8.531682 2.0172637 14.036196 
2 9.446602 -4.9133625 14.292766 -14.419283 0.42007217 -0.10505176 -21.740328 2.355321 3.882943 -12.944954 0.9957622 0.556846 -7.072457 -4.6132436 -7.65054 6.7836905 9.300203 7.4475317 -0.27639118 2.6543393 4.3219476 1.7258759 -5.862543 -0.52935845 3.808835 -6.941541 4.801144 3.1084743 -5.43774 -4.2866316 -3.4666193 -5.0048923 -3.4064958 -7.463798 4.546908 -8.765906 2.411837 -1.2803297 1.0113033 3.0168426 3.7106938 2.454216 -1.6219395 0.34149945 6.4362664 7.6994486 -4.8755856 0.97603726 1.57125 -2.628005 
0 -2.3685887 -29.680813 8.352303 16.649767 16.846373 30.089033 -4.166802 -3.539559 -6.648095 -3.1435137 -5.845686 5.5508003 1.9773422 1.2308168 -2.2478077 -1.4164813 -3.682368 -0.4264586 -8.25286 -8.357218 13.443633 16.467102 3.241258 5.8260436 3.6882794 2.074674 7.8071804 -1.0437196 -5.7031717 -2.4312847 -6.8718452 12.853713 -1.435914 5.67183 -0.5817814 5.4924192 4.573693 0.7916681 -2.7606118 -9.840818 8.145927 -0.20809132 -9.363262 -2.3073766 4.867128 -7.732819 -4.034262 -1.9691908 -5.359779 5.5973616 
2 27.167704 3.1465359 1.0389078 3.3717473 -1.9748571 5.6561522 6.040915 8.817203 0.9726757 -10.854301 -5.7751303 1.0391426 -12.632938 -4.179151 0.8137262 -7.728591 8.790377 4.474124 6.6050982 -17.186337 -8.958636 10.767564 -8.834644 0.5688031 0.018496435 2.8942773 3.380473 -3.8034828 -5.3393455 -1.282073 -2.078183 1.4804711 1.9840741 -3.4863565 -3.575889 -0.6630324 2.4282837 -0.802426 5.6281056 -3.1670444 1.360447 -1.0072817 2.8566637 0.64828444 -2.499944 5.4804254 -0.17708339 5.772366 -3.0833697 0.67450905 
1 -7.7895565 -18.404974 -1.1292647 -1.7216481 5.087332 -2.2214513 1.5075349 15.14997 -0.7438674 -7.6980653 2.2406354 -14.294581 1.5534915 8.860387 -5.1747108 -8.6090555 -4.5238986 -4.5511403 -1.8868035 4.3144073 -6.217165 -2.6613162 -3.132975 -2.01712 -1.2657231 4.410018 1.689755 -0.6361861 10.460807 -5.4456944 1.9275501 0.86366266 -4.1964264 -3.6736217 9.137108 0.43056375 -0.87235063 4.7286386 5.504042 1.5807204 5.232928 -1.0602561 0.23961096 2.7607667 1.3460984 -1.718043 8.15477 -6.1226363 -3.4643989 1.8804823 
1 -24.740465 -6.703394 2.3684125 30.103342 -31.045942 -6.31346 3.7351816 -19.835638 3.5886114 -4.9801736 -3.9168403 -0.5118662 0.072750986 -7.4532804 4.403381 8.70209 3.042166 -4.736006 -0.8594761 1.3631988 4.173653 -7.4816837 -1.8553208 1.6836379 3.686061 -6.0548477 12.526098 -4.891044 0.33982745 0.022949204 7.745624 -2.335095 2.4646223 4.974853 10.860707 0.71641386 -5.0837364 -1.3322219 6.7536654 1.5766143 -2.7364519 3.6858864 0.78359896 1.2708297 -1.0076365 -3.0896568 -1.487608 -0.64137566 -0.9280226 5.4985075 
1 -10.42844 -20.199995 2.3902879 -4.312415 8.143339 1.1237317 -0.35077736 -15.331531 17.933403 3.440662 -4.378391 -1.2845004 4.1480527 -6.133845 -2.5710688 5.8534217 -1.709999 1.4866617 7.347128 7.0296035 -12.9962435 -4.710692 2.8300307 6.9341564 1.3079159 -3.7956805 3.0397081 1.0173708 0.59062904 0.5248601 -4.2357 3.675016 -4.5387726 6.558646 1.6993881 -5.3756356 -2.7060547 -1.2122717 -2.742086 0.27830893 3.0706868 -1.5374333 -0.7214858 -0.8644947 -0.0400462 0.44551122 1.4533063 0.7450644 3.7251673 -3.7081485 
4 -0.3127789 23.584293 13.68582 8.440357 -1.153486 16.078707 1.1633062 -4.430263 6.2522445 4.09197 7.469803 -14.927707 -5.7361794 -5.4758844 4.4271307 7.7693534 -6.8809166 -5.907168 3.6240816 6.725685 8.004925 -2.6290858 -1.1035268 -10.34764 7.194701 -5.9257708 -10.5376 -6.0807366 2.3414147 -7.7627788 -2.0984914 4.4482694 0.44128653 -3.2550585 -0.521477 -4.623346 2.5741136 -0.26620257 -4.0739274 -7.459533 -2.4494863 -3.149924 3.1557658 -0.030512586 3.1669927 2.1488748 4.3300095 1.6194687 5.3983755 -4.500317 
1 -24.942785 -29.378963 -17.987139 -11.825374 0.3823157 2.8192544 -8.489921 -1.0052923 15.765549 -0.24991247 5.2805786 0.3495081 -16.273981 8.531647 2.9835274 0.11533044 6.695547 9.393957 5.4272633 10.434285 1.7252784 -7.1159205 11.87051 -4.0720563 3.8492885 11.018435 2.9383106 6.097154 -6.2890677 0.15659997 -14.264684 4.570863 -0.27572596 11.702409 6.7729254 0.22025129 13.716376 0.07775055 -4.153985 -2.6206973 -0.9495031 -5.5522723 7.3773117 9.983681 3.7705095 0.27505204 -0.37152752 -1.2153106 -3.506875 1.1073871 
0 -3.0264406 1.1394377 33.708206 -10.316191 17.139853 10.516663 -19.591194 -4.5384207 -19.343628 18.563536 -17.539356 -1.6993344 -4.9031415 9.568856 -1.3337475 0.088734806 1.7293082 1.3615937 7.1206527 -1.3335148 -3.2494354 5.4754734 4.557078 -11.068147 1.8645532 -0.38236076 -6.832351 0.49905366 -6.7639575 8.446 9.546169 -13.756205 -1.8432596 0.49324268 -2.55884 5.0432796 -1.457581 -3.1468594 -5.081211 1.6895893 2.2632408 0.28012127 6.798883 4.8569903 1.7522258 -2.948398 1.6279792 -3.942974 0.9793228 0.0052128234 
2 49.81429 -6.869481 -15.243217 -11.947399 -5.750899 -9.415212 -12.8956175 -7.647382 -3.336966 4.2688007 -0.2998267 -9.754532 -4.885623 -4.124513 -13.248784 0.15612102 -7.573762 -2.1839116 -6.3137727 -4.076738 2.8127937 3.2240717 6.5393567 -3.3047183 -13.239435 -5.3631163 -4.3608327 3.4180565 3.7573102 6.351762 2.4299994 6.0392923 2.3596213 -5.3206325 0.27094072 2.8129163 1.9064337 3.7947195 -4.6692405 -0.22796872 -0.48407084 -2.766413 -4.267723 2.8470104 4.3343987 -0.64812326 -1.9273546 -0.1745125 -5.818213 -1.1923856 
4 -20.512354 45.69822 -13.429864 20.601582 26.046389 -13.455196 0.86205196 2.7547245 -5.402868 -9.277562 -1.867396 -2.2199285 3.2108192 1.5028832 11.815281 -11.873752 17.100489 12.809805 -12.168041 16.458706 2.4671624 -5.3600206 12.1458235 -0.6525582 -1.5959638 0.15082231 8.93432 0.7588455 3.4640877 20.666565 -4.931134 5.6205635 -2.0199184 -3.460238 -1.8681834 -0.52601355 4.6695056 1.1998858 -1.6828617 -4.3138275 0.5312484 0.42389 -6.049693 -1.5240335 -3.6498249 -1.4630821 -4.5352273 -0.34642065 -0.2225748 -3.2385983 
1 -27.237946 -35.84477 -10.967735 14.938438 -13.195269 4.0070515 -4.764289 -13.411943 6.352448 0.064637356 7.739431 -7.021353 0.33801594 -5.4282174 3.2536762 -3.1325781 5.2725277 -7.650049 1.0675558 1.8620684 -10.843133 -3.346276 1.0745472 5.024474 3.5378563 5.510623 -1.5275073 3.206224 -4.0847096 2.4934814 -1.1447958 6.2469716 2.167109 -0.7938466 -0.4721938 3.441599 -1.5254287 -0.38827342 -6.5595126 -2.969658 2.0021853 3.3585384 -1.0325221 -1.509222 -3.4232912 4.499272 0.5085295 1.6353116 7.7094064 4.061883 
1 -0.069989026 -13.556449 7.8083324 4.5824046 12.916361 14.776505 -3.389657 -8.432994 7.476746 6.421107 6.713308 7.459514 -16.391623 -4.4492474 4.029104 -11.498771 0.6719359 11.877031 -4.037441 -9.913338 -3.4008255 5.159333 10.703216 -6.5545835 -15.050065 7.360803 9.061506 -0.55550253 -3.9660919 -6.007733 -5.874362 -1.3238168 -0.9680834 5.313579 -1.8044701 2.894954 4.083251 -0.06538084 -3.4092796 0.3812738 0.33744574 2.772059 5.3910584 -5.2904215 -3.2803006 0.7696092 6.489229 4.422928 2.570532 1.7753564 
4 -23.316145 18.626745 -7.353002 -2.4307022 -10.16202 6.969311 10.121315 -15.705909 -6.920999 -9.874431 -15.656021 -3.9892468 7.0578604 -12.479633 -3.4608603 8.42402 -9.481293 10.638843 4.6221333 12.182615 6.126187 -2.1858072 -5.342797 3.9680302 -1.4234256 -8.899397 7.844781 5.1616797 -0.9986936 -0.094655484 5.8071637 -0.5654441 8.837638 -4.6395116 -2.88786 -0.772122 5.7778854 -6.4597535 1.8920765 0.47818714 3.7841673 2.0459716 -0.032727726 4.127769 -2.530908 1.6996486 2.0021496 -1.8757238 2.9024396 0.018377677 
1 -40.79763 -31.288187 -12.7230835 17.168158 -20.179905 3.117916 -8.751324 -16.200052 1.9625345 9.757637 12.673876 -5.9614706 7.3850255 -6.4899044 5.4381366 -5.323625 6.500209 -5.4401145 3.601407 -6.549223 -7.482193 -2.400898 -0.596604 -1.7408972 1.4453107 -2.9048197 -3.7013514 3.1983972 -3.9923744 5.9068303 -0.7966156 -0.10243592 4.426362 -4.00389 -2.3651319 5.5056796 -1.3504556 0.41887635 0.7151305 -3.7906303 0.76721084 3.1711626 0.45377514 4.4873705 -1.2957575 3.2561946 -0.20016302 -1.7095345 4.5682282 1.1234655 
0 14.106083 -1.3207767 21.522192 5.2911954 2.987257 7.4722457 19.052876 -3.2697382 -0.74982667 7.899889 21.466536 2.741569 9.614215 -0.36421457 -8.550032 2.5575945 -1.1737098 -6.8604727 -1.928602 3.2211785 -3.2160366 -2.101888 -3.606542 -3.5919604 1.7694819 1.6712677 -8.028736 -6.819106 -7.2082114 0.10272035 0.48767102 -9.691373 -4.0368834 -0.41922557 5.8728046 3.1577992 2.4266427 -1.4528598 -1.871269 -3.2316387 -0.09380841 -5.801885 -4.6632586 1.6244402 -7.0221105 -1.0686859 -2.4537094 5.2704344 -2.8481908 -3.6867561 
3 -23.520954 -0.004757881 -15.267498 -14.620738 6.9991217 -2.1535187 -2.4098446 -4.8330135 10.237289 2.1772985 0.327488 6.7276607 0.9236225 2.715717 2.8505054 -7.2289233 -0.23141375 4.1641746 -9.161035 2.9850223 2.904459 -0.2571332 -4.66867 -0.395993 -0.015204953 -0.6002565 -0.56047493 -5.0903125 3.4096842 -3.8500762 3.7954352 1.7843044 -3.7119372 -3.8706748 0.88809067 -6.2912493 -1.0902394 2.6561952 -0.87565386 4.84234 3.060845 2.5961428 1.0306376 -1.0251256 -2.7293937 0.92006505 -2.0691295 1.0085549 1.3796718 -2.1039345 
3 -17.856052 -0.38588336 -1.8913391 -9.838902 -0.8948111 6.7462835 6.1609 -7.71146 -3.9925163 9.6594715 11.43824 6.8200192 -5.0493746 0.9516342 7.3398094 -0.32102227 2.4140103 -8.191713 -10.422865 -8.878486 0.45015997 -0.58030045 6.6223884 -0.24505535 1.5065883 2.0443754 -1.7527983 6.45432 7.7485027 -1.3933017 6.439531 5.5741973 3.052988 -5.8335686 -4.679405 5.6206875 0.67063403 4.4951987 10.314004 -1.1687015 -1.9514834 -1.259866 3.263172 -0.15329656 2.527663 3.6705875 2.513522 -1.8939675 -0.07469088 -0.17403409 
2 46.18515 -8.112105 -15.581474 8.293242 4.8567266 -0.29898798 10.3435755 -0.39805079 -3.4866712 13.479372 -1.2224685 -0.56093544 -7.1858015 -2.3149073 4.3782063 8.990894 -0.13372295 3.5056548 -0.7134157 10.014246 1.7038025 -5.108282 -3.377803 10.546115 0.13506863 -7.0212045 -10.759224 4.8030295 -0.43395102 2.268992 -2.0346286 -6.161136 -0.9528266 -0.101986945 -4.110348 0.83687127 -3.358015 -1.4488693 -10.072141 5.466922 -0.7727395 4.625119 -5.9439683 -0.6557366 6.1845675 -1.0047057 -1.4405314 -1.0274041 -1.8565408 -0.8039865 
3 -39.83684 -19.83352 -24.533123 -26.901062 22.191372 -10.184334 -6.199255 -3.183793 -23.650965 2.009071 2.2876735 2.354044 1.4044945 9.093502 12.395742 1.801801 -0.12723976 4.8918147 13.201503 -14.799374 1.8985561 0.30819058 1.1545337 9.114904 8.537182 -0.01052326 -16.033869 -10.412964 -8.66385 -2.6093695 7.024509 1.2407848 4.899321 2.7293048 -1.1130477 -5.6311417 1.4676174 0.81192 0.87366766 1.0947227 1.9380031 -2.8991508 -0.35963222 6.3798995 -0.34409797 -8.815616 8.643963 -0.43964252 4.035555 -3.541777 
3 -23.700655 13.335353 -14.938378 -14.735867 8.100635 -3.5489192 4.127406 -17.887175 -0.5240524 -1.1042848 10.435423 17.507586 -14.064938 3.501736 2.924189 -10.871299 -13.31601 4.996094 -3.8337636 5.97533 -8.625125 -5.345064 -1.7894473 -11.419027 -4.897188 3.5791712 5.368888 -3.9245481 -2.3098226 -9.865077 2.738574 0.20995337 6.3675566 4.736435 -7.0168624 3.2545428 6.331157 1.227145 1.3083341 7.543121 -0.7500107 3.3023677 -6.213817 -2.7164118 0.8692716 -3.0935714 4.1473703 3.6912096 -1.531955 4.0216436 
4 -14.281633 27.533411 15.815984 12.318348 -28.590544 11.506581 12.757715 5.1968293 -24.31809 11.445488 2.7097116 -2.866679 -6.8405027 -0.19049779 -10.395046 0.075246215 -4.801948 1.1920477 21.601974 1.7060523 -6.486122 -1.6454842 9.167899 -13.363726 0.647228 -3.0573325 -6.471497 -1.6570258 -11.057945 -16.19617 8.599589 16.976507 -15.542099 -3.587964 2.1836195 -12.179719 -4.254417 -5.441801 3.2446778 -3.5392044 0.34873772 2.4382749 -2.6976833 -5.6283956 -2.228968 3.559263 -2.757049 -3.7278178 -1.0197346 8.73017 
2 45.52757 -6.606626 -15.079247 2.8331501 4.327713 -0.9524885 -3.1126757 3.6734164 -3.4885347 11.0203705 0.94880444 -11.92317 -14.79208 3.135737 -0.7698193 5.754222 -4.0169954 -6.546288 -7.309431 4.794938 1.9506655 -3.443429 -0.047549352 3.865562 -5.1441936 -13.7557745 -10.503483 0.6577101 3.2998598 0.68468964 -5.3999147 1.4988717 1.1969512 -1.6962397 -2.33953 0.80808985 4.6360784 5.178062 4.825708 -0.6946286 -1.4690331 3.305509 3.0535617 4.176626 -1.8563615 -2.193503 4.937081 3.7485511 -3.7507005 0.27399334 
3 -18.375978 2.189909 -13.154526 -20.579226 14.726046 3.3041964 6.2922444 0.8487754 -26.301786 -10.163598 7.4438972 -1.3237141 1.193769 -11.613526 -16.119831 8.123172 -0.48400706 -4.0098753 3.622067 -5.7433014 -14.131926 -8.815358 -4.9440684 -4.6719227 1.0561662 1.99177 0.4579216 -1.2568533 -6.177134 -4.6187963 -4.7391734 -7.771165 4.1651473 7.500498 3.989067 -1.0069283 -3.9158943 -4.8543086 -7.5725145 3.8155413 -5.033276 -0.49279785 -1.2749583 2.8453724 1.8146541 -4.3501315 0.8599733 -5.2391167 1.2559787 -2.9011953 
1 -23.131908 -39.753025 -14.204469 27.417936 -13.7476 5.8864336 -18.8177 8.901681 -7.0788527 -10.773995 21.616013 -7.767995 2.122169 14.863516 8.269179 7.3586764 -6.380231 1.9951732 9.994338 8.410673 -4.950816 -12.822801 1.7465252 9.989126 -5.7281423 -5.4114323 -3.4053957 1.1044959 -2.6396208 11.627536 2.5348196 -1.0101845 7.769354 -0.9579807 0.22078866 4.427822 0.88073254 -5.3138885 -12.625983 -6.2805824 3.3263779 1.2507253 8.01707 -0.73704135 5.495826 0.8430288 -6.0871143 -0.9325281 -1.5399886 3.149892 
2 51.333664 -1.3789101 -22.22922 -14.702462 -11.970186 -11.585908 -18.277084 -14.711295 -3.733367 -4.4341288 3.1459513 -0.6463559 11.258332 -0.83648956 -11.884132 -10.756898 -10.135953 -1.0659485 6.524059 -9.669904 3.6091821 3.3097572 9.294531 -7.7521095 -7.83118 4.365606 2.5523732 -4.840447 9.094748 6.862791 3.7800984 4.9091997 3.457497 0.59263575 -0.009698801 -2.9887636 -4.194118 -0.26365942 -2.4943724 -0.35332412 -1.1384859 -1.1597081 -0.41717505 -3.3342645 2.4926836 -2.0613945 -0.82708055 -7.5258083 -0.12569027 -1.0223508 
0 14.879804 -17.799225 11.65889 16.955942 13.360944 18.021725 15.645287 6.968129 4.334215 -0.4190351 13.681672 -0.6300655 3.9671867 2.3839946 -12.226764 5.6874504 -1.9836854 -2.2135322 -1.4886328 6.9456153 1.933001 5.7730794 4.159458 0.42039096 7.1465898 3.2099745 -0.7214767 -3.778841 1.8399929 -3.1646688 -4.032735 -3.7173855 -0.6213041 -6.4989867 11.0194 -1.0288659 -2.5265005 6.3493276 0.91742384 0.65225255 2.7478733 2.936984 -11.59317 0.26258042 -9.595503 -4.635128 -4.988787 -1.7761852 0.831063 -1.2933773 
4 -0.46269393 6.992617 9.230501 1.7835215 -13.684839 -17.243298 1.1731906 29.481918 9.945518 0.40741137 -0.08848863 -3.2550914 -4.974429 19.763687 -14.128482 4.213344 0.33085757 8.341652 0.81446695 1.238092 7.533627 1.343988 1.4361508 4.595073 7.366791 6.2539062 -1.8817098 -6.66276 0.53633136 -3.2425792 7.3930216 0.820316 2.0343983 3.5254033 8.325837 5.3068023 -2.7592082 -7.3741555 3.0723906 -6.154667 4.990286 2.4214838 12.900535 9.526641 5.874269 4.7625394 0.7330616 -0.7841948 0.08722493 -0.84620005 
4 -27.105679 25.315714 -6.8011017 -17.76918 -12.228681 23.022633 12.032607 1.9319855 -3.6896417 9.435741 4.723349 7.155949 3.8412733 2.25873 -15.218955 12.658501 1.1937044 9.829691 -1.3365656 -8.218303 -1.1360334 10.135965 -7.7092366 4.169485 6.507343 4.0823436 10.054016 6.8188286 11.341568 -2.566924 -1.2225915 8.355406 1.1321759 -1.1108319 -2.3920574 3.7861066 -2.1673174 0.57693017 5.583269 -0.4713534 -6.502125 0.8223218 -0.20754005 4.0174217 7.367572 11.630567 -2.6349924 6.8099203 -11.616801 -3.389577 
3 -19.723051 -3.478176 -10.211779 -11.420052 24.537882 -15.354132 -4.6013885 -0.43401206 -29.376234 -8.605988 -18.491716 -2.9361966 4.3961897 -10.479603 -9.153862 8.349688 14.396641 5.9826717 11.091946 -7.207597 8.6349325 -3.8249142 -1.3453162 7.1806583 1.2992725 2.2954516 -8.993845 1.7684343 -1.1170368 -8.900208 -5.6407065 -12.064772 3.6524622 -3.6994278 1.7880162 -2.5009625 5.1200666 -4.2923512 -5.604063 -3.4233565 -7.5574937 -13.552824 -1.7719387 -3.0252426 -1.5046113 -3.542638 1.0545223 3.383028 5.690802 -0.22853254 
2 47.95109 0.86620843 -8.692002 1.3191838 -12.731761 -0.2259077 12.259057 -7.704044 -6.8516574 -2.2715592 -6.5985103 3.0066674 4.680061 -1.0371748 14.772744 0.91820073 -4.8332524 4.6590114 -0.8766818 2.8079863 -5.451957 -2.8671184 -0.21280922 2.3114955 2.7179265 -2.6298409 -5.304782 -4.2816606 3.8621874 9.193485 -0.15897873 5.1265597 -3.9326737 10.108042 9.603158 -2.0541809 -7.200995 -1.7134539 -2.0700977 10.351348 1.21437 -5.5076904 -3.1551826 1.1195303 0.41428965 4.1927676 2.6140149 -5.7408504 2.6466036 0.5184645 
4 -22.52931 42.47063 -8.527775 16.131914 32.765694 0.8911377 5.918747 -3.9896498 -0.64356256 -11.599361 -5.1230574 -0.1595551 0.91670674 -0.3555377 9.538415 -15.260325 2.5291405 8.124082 -3.8138938 1.5484436 2.4702759 -6.389337 -0.8361945 -11.4368 -7.325253 -3.645013 2.2387948 10.533485 -3.551918 12.520517 -0.42082214 9.0604105 13.993927 -3.5822194 -2.0782983 5.7301817 -5.9087086 -4.6148705 -4.1846485 3.79194 -6.8491855 10.920534 -8.256109 3.906844 2.5910184 0.8610902 5.9279 0.0905492 -2.4221115 -10.434643 
3 -9.800608 -9.379306 -2.2677526 -10.367738 2.0561347 1.9981694 2.2414105 3.6504135 24.154032 1.293071 -2.669034 0.7807486 3.636211 3.0240505 -0.016641118 0.30511722 10.228323 7.0875826 -0.8623967 5.6282 2.2854736 -2.8796334 7.6545777 -0.2882243 2.4643908 2.915705 -0.4676963 0.6871716 3.5978594 -7.150231 8.527702 -3.9130368 -3.1118474 1.9666766 -4.2835517 -3.7014043 -0.97263736 -7.628802 -2.9881883 4.308769 1.7288177 0.89260423 -2.5031593 0.13423467 -0.34748626 4.9648685 0.4683057 -1.1346552 -4.4268827 -3.3999577 
2 57.858307 -2.7883615 -19.390657 -14.938177 -12.98927 -12.704738 -15.254391 -16.536621 -4.165465 -6.041576 5.0635166 0.39297938 16.377228 -0.68153834 -12.2628765 -12.640489 -6.7116675 -3.8596478 4.8671703 -4.549142 4.0121536 -0.755364 9.805404 -9.761649 -4.356344 7.751031 4.888211 1.0364505 8.393188 3.8065658 3.2336214 6.871813 6.4496183 1.5337088 2.6426668 -5.6388044 -5.4471016 -0.6568943 -7.8586073 -3.4487317 -8.402882 1.6150904 -8.045181 -4.81371 6.1027794 -0.40197074 -0.15055402 -7.599508 0.1079858 -0.4176537 
1 -11.240155 2.1991198 -1.7869332 -9.775799 -9.826064 8.039465 4.001205 4.978174 9.238537 2.1796827 -5.9745426 -2.4099822 -1.3151712 4.059843 -5.3788757 -4.704034 5.149787 2.8733332 11.19009 4.1402793 -5.686008 -4.890006 -1.8273011 7.612351 2.9957688 1.1685119 0.69848925 -3.5354283 -2.4709377 -4.7343917 13.2187 7.3961005 2.2847512 -2.1827188 1.6076531 5.166583 1.9365062 1.243184 2.627019 5.1153936 -3.0726898 -3.705136 -6.8012857 -5.443981 -0.30741602 0.32789382 -2.9278421 2.352917 5.0202794 -1.4253283 
3 -25.286818 1.1482174 -19.605635 -14.970072 17.00458 -2.2967958 -0.05934973 20.540604 -5.0515795 -6.7833667 -13.836135 2.8411667 8.549992 -0.6904853 4.4747896 3.7319784 -8.240363 1.851695 -3.5934892 -4.393388 7.8535485 -3.0874467 -0.31378576 -7.925359 1.7465979 -1.2033306 -8.629874 4.8100653 3.4054182 0.27231365 2.0940099 5.4829206 -5.725628 2.2220585 -6.5214124 -1.2552943 -1.4563859 -8.118223 3.981526 1.2349131 -10.4380045 -2.4406455 -0.047712028 -7.9202747 -6.56808 0.16945256 -2.8662715 7.0896273 -0.6916902 7.327758 
3 -25.265831 -21.377346 -15.805599 -21.417229 8.43612 -11.782379 10.230218 4.161076 12.641538 -3.5038335 -0.5296244 -5.9787254 -0.9350755 6.634473 3.8756135 -2.2206194 3.331526 -3.053374 4.2360973 -6.3626075 -0.8742692 -5.117831 0.23535722 -0.7957231 -3.0505462 5.1321087 -4.2686954 -9.034819 -1.5747405 -3.080548 4.096626 -4.0111427 0.53726876 6.7520547 0.20249325 2.2632413 -0.5139033 3.0514374 -2.57602 7.2707014 -2.7814548 1.4154547 1.008013 -0.53437376 -3.3578296 -0.8783785 2.2721765 -1.1846023 -0.4655319 -3.1174786 
3 -20.190895 -9.418364 -11.807802 -22.58276 10.7276535 5.494396 11.817963 1.2726858 5.4123936 -3.945425 13.855879 2.7116482 -3.6889715 0.8528038 4.2768364 3.2534738 -0.680452 -0.7316779 2.7454104 4.3685884 2.4412081 -13.074726 7.3563027 -12.632234 -7.1861234 4.7519813 6.540332 1.3518571 -0.014149547 3.7533562 -3.0797453 -6.94023 0.80220747 1.7997508 -3.794396 3.0807369 2.9048805 -3.2173991 0.60883266 6.807043 0.6573012 -2.956343 -0.64766973 1.2499174 -0.44219342 -4.1417394 -2.1381404 -5.85642 -3.362813 0.073267706 
0 -2.2706208 -17.008984 29.883224 -0.13128783 26.53449 14.519787 -13.673924 -13.293839 -3.4102926 21.87188 -15.661674 4.5986595 7.666703 4.222438 -2.2032285 0.2099585 -19.331966 1.4965491 5.8459444 -5.9960947 -2.2883687 9.121499 0.39146945 -4.012242 10.402354 2.2092774 -1.266179 -0.41869926 3.6957002 10.432545 8.168076 -12.594283 -8.357479 2.3152716 7.3854847 6.8746824 -3.3051023 1.3463116 6.382061 -2.8359537 -1.0322702 -4.925566 -2.9305937 0.58438015 1.9490885 -1.5653144 2.6582515 2.159058 -1.5611391 4.9021573 
4 -0.5442479 15.9336815 5.8559723 12.206593 1.0907154 4.669494 9.919474 6.7119284 6.843589 2.239062 -4.3110776 5.7817225 -0.4638191 -9.09533 3.9318357 -3.2372086 -10.111683 2.1441119 -2.9143453 6.1948395 9.081554 -4.83816 9.678504 -10.327386 3.5813296 -1.1599652 -8.187218 -0.22169688 -0.9494555 -1.6397967 -2.9483378 7.701603 -4.4716306 -1.8211194 0.48806012 1.2122145 4.9317856 -0.48708457 1.4280401 3.5046651 2.3926437 6.384843 5.4875655 -0.8071142 0.7158241 1.6959074 3.4616163 -1.8433485 9.4335 -3.424599 
3 -29.501385 -21.58418 -11.011568 -1.7302938 -9.645896 -6.716444 12.642582 -6.1854157 14.264586 5.00088 4.7902975 0.15810244 1.4631108 -1.4684832 -5.968457 -3.942428 0.4557744 -11.999677 -0.039164893 -4.3192945 1.2220169 0.72470033 -0.3529883 0.5058648 8.961748 -4.2529697 -5.5875483 3.6598704 -3.1347184 2.1663568 0.13646841 8.173028 4.066533 2.4571161 1.5539265 -2.5719178 -1.1659324 7.407225 1.1246729 3.8004334 4.830819 7.7695537 -2.0511134 0.8938272 -3.1560628 6.2919044 -3.999754 -0.03491436 -0.4759276 -1.887391 
0 7.8949385 4.8999133 17.686321 -2.3981714 4.3524575 -17.330158 -4.3277755 12.546165 -0.053350247 0.49518692 7.280194 1.3401679 0.30032417 3.1403232 14.887112 -10.158896 -5.427778 3.5156639 1.4015464 -0.11473169 -5.3126297 -0.7311282 -5.6176248 2.6582022 -3.9814935 -5.0176888 -4.6527896 7.912526 4.770815 -5.6530623 -0.7477155 -2.5031767 2.4370322 -3.6592767 -8.106514 6.220244 7.7550793 -4.998052 -7.340008 -2.20336 -0.78647655 -0.23694833 -4.453251 -2.9358559 2.4086773 -2.1011503 -5.055545 -4.888623 1.8375434 -8.998028 
0 3.8268704 -10.483778 18.09171 -6.978318 15.22374 5.8810406 -12.517839 -1.5980165 1.427437 0.9666028 -21.64776 8.940925 -0.70833457 2.4983137 -5.7675285 3.8327327 -1.7318848 -7.1966147 -3.0436056 -1.8212715 -2.4012375 -5.678387 4.6766467 2.9472356 -1.3168929 0.45048815 -0.28163835 -7.497601 -2.5354989 -1.111466 -2.8360658 -3.0085104 -2.3228524 3.2243536 -4.673918 0.177013 -2.0995877 -5.3650627 0.074197724 0.88292646 1.9142078 1.110472 -2.0965521 -3.5977662 5.2782655 2.9997413 6.1203136 0.25509185 -4.142192 -1.0332814 
3 -7.438925 1.455057 3.257318 1.2597679 4.608709 -11.124617 -3.0384836 16.781858 -0.8697945 2.7558985 3.483383 14.437702 5.678412 -4.550773 -2.3792863 -6.719775 2.6681592 -3.2511082 4.1865053 5.2179804 0.4829538 -2.817168 3.5794497 3.6634045 4.937591 -8.000751 1.9969864 -0.9810482 -0.759073 9.155453 -1.5682504 5.201213 -1.2797582 -4.730487 -5.503535 -9.221449 2.1115837 6.682089 -5.296291 -4.186083 0.7412704 -5.4605117 2.57614 -3.2364492 1.2030251 -2.7332892 1.800585 -0.14148784 2.5812225 2.7733107 
3 -18.720545 -3.4121935 -5.136167 -28.14403 3.2842445 -0.43738675 13.617879 -9.203253 -10.181849 4.334467 1.571868 -2.742995 -7.4121614 1.4665741 -0.09717601 1.3520303 -1.1890668 -6.5482993 1.656668 0.81364334 -5.1050415 3.9654431 0.4585743 1.199303 -0.40236738 -2.5880656 2.6808348 -4.2469635 -1.975376 -0.8889619 1.0130059 0.02427505 -3.3798811 1.886329 -2.8668268 2.7324166 0.5147384 0.073471114 0.75114775 0.34376988 1.4298372 -5.2211304 -0.78546536 2.3010263 2.7431211 -1.1000257 -0.8174453 -2.1426454 7.318241 -0.9702199 
2 45.334408 -6.4158874 -16.154144 -4.870868 0.9112663 -1.1414653 -17.09469 -11.314354 -1.4468588 -7.1774607 -10.678026 -10.675949 1.9616508 3.5553372 -10.159008 -2.271968 -7.3736863 3.2086525 4.9001536 -14.503324 -4.815936 -3.2698677 3.6360714 -12.547079 -7.6569877 -11.499287 -1.9096935 -2.504977 -0.28452602 4.7995653 -1.087045 -5.4545183 6.314025 7.8969426 2.0017068 -3.3905978 9.060562 0.48936164 5.5315046 0.15412146 1.1614846 3.0958393 8.343306 -5.8697863 -1.5238602 4.3843956 -7.1241765 -4.4000177 -2.0159276 0.3539589 
1 11.3241625 -4.7377543 7.558927 -14.097554 7.103306 -1.7712537 4.3632216 -0.94035137 10.987375 -7.0833287 4.9176025 -1.8159839 3.7135491 -2.1971948 -8.167767 7.679274 8.479122 7.1751676 -7.483605 4.1263266 -11.928023 -5.806124 1.6018155 0.5740021 3.1120071 2.8811252 1.5589768 6.8424907 -0.19005544 -5.8175316 3.222136 -1.1612766 2.6134229 -2.2044435 1.2650949 -4.3647175 5.2713127 -5.458324 -2.2990584 1.9611826 -2.142864 0.14710008 -1.9509104 -2.0301514 1.8461071 -2.6131148 4.3176584 -2.1788359 -1.7377312 2.709295 
2 38.813797 8.851877 -8.796809 5.0686975 -4.254759 -16.967514 6.3595147 -8.851356 -0.7670924 -0.8713824 -2.1032195 11.011379 16.907902 -11.878997 15.922462 -2.6835966 -11.94185 3.6907244 9.981395 2.6697164 -0.20575717 -3.9404852 -1.3009088 9.20596 0.4550186 12.702815 4.1655645 10.730146 0.25741416 -8.056857 5.842598 -5.7029777 -5.1718907 12.214148 3.1372757 5.0267596 -4.187785 -13.448492 1.9225975 7.704991 4.8582172 6.342019 6.48367 7.4397893 4.5059566 -2.216187 -6.2609544 -0.5973314 6.42641 -6.1054354 
1 -20.06902 -20.404957 4.104745 -9.186777 -0.92787933 -1.0663472 6.131967 -3.317695 12.063392 2.188823 -12.861851 -11.489036 -0.4010947 1.0058466 -2.297526 -10.660534 13.444963 -9.057079 7.4369297 1.0488831 9.506006 -7.076744 -0.19965613 4.3104587 -3.248487 2.5186453 -4.0055084 -3.0421493 5.8277383 2.0062647 -0.4906941 -0.6910905 -3.1714435 1.0385705 -2.6593018 -1.8658767 -3.0213923 -1.4450903 -1.609614 2.0297723 -4.57138 -2.0019433 1.3343829 -1.9139391 -1.6394517 -4.4941726 0.38398126 -0.5549006 6.170521 1.7159358 
1 -1.5836555 -14.435882 16.65352 -4.0373554 -1.6869866 -3.2864144 5.4115057 0.004684925 16.655813 -7.107281 7.235674 1.2356 2.7399285 -0.7722567 -3.5419989 14.980815 12.233555 -0.28265226 2.1981087 -0.085809395 -5.5605474 -1.6099503 -4.813874 -5.4127393 -4.125089 -2.6733775 2.8835459 -0.44856393 -0.9420215 -3.3533194 9.958244 5.876222 -10.342046 7.0867863 1.3467944 0.57032704 2.5247724 -1.3596929 1.3549998 1.3760848 -2.0888171 -3.02734 1.1592674 -2.1408687 2.8234131 -6.0389657 1.287874 -2.5282311 -6.9326463 -1.8334231 
1 -10.61663 -12.335304 4.74005 -0.93490744 1.914715 9.146183 6.2400565 5.818121 -5.3652725 -4.366907 12.052926 -6.3889227 0.4602902 -8.9431505 -0.1844177 12.252923 5.132239 -6.9616175 4.270212 1.7583803 0.6436196 -12.394572 3.9739347 -1.2993011 -12.516462 -5.652142 4.6368084 -3.0002286 2.1669152 4.6164594 1.3581835 -1.7132347 -3.15327 2.1388535 -9.598292 6.433338 -4.063142 0.11217809 -4.0624056 -0.5459774 -7.5570827 1.4698616 2.7172651 -1.0626031 5.620796 -2.5747478 -2.0481753 -8.051792 0.7511698 0.4860242 
3 -20.238867 -5.0045786 -3.7804306 -8.092443 -11.771926 -28.68415 11.634552 8.890134 -8.02469 10.969131 -8.045842 2.6176693 -1.0053644 15.801334 12.367379 -0.21587089 -20.245142 10.485083 -7.5527825 -4.1608853 0.029349014 11.814436 8.680249 2.5337458 4.043729 -2.568941 5.9228745 2.260828 4.77982 -1.6885914 -2.3048613 3.2993038 2.1825998 12.428368 8.889113 -6.3036757 4.6616244 -1.6850448 1.9829438 -3.1643763 -9.584794 3.5670104 -1.07455 -1.0028106 -10.706706 5.547126 9.1548195 -0.66981727 -8.949597 -0.7783288 
0 0.01048699 14.48272 19.914347 -3.3014584 -6.243341 -8.060245 3.9366138 2.815243 -2.6373947 -4.842665 -6.9005303 13.410084 -1.3644979 -3.655484 3.6851556 -4.6279073 11.3802185 -11.355148 5.052236 6.59032 -1.476719 -17.021301 3.8325274 -1.2491268 -1.6689914 4.9402895 0.19706386 0.17763665 -3.977973 -3.0334234 1.5806117 4.119474 -2.5693488 -5.8736215 0.7994718 4.798416 0.7040633 1.4880122 -3.357338 -6.002221 6.9572544 -0.052189626 1.8081049 -5.788972 -3.270578 -9.339487 -4.8635354 -1.7099808 -9.42328 0.78821826 
3 -14.213997 -26.07161 -5.3799295 -20.32284 22.969421 13.411403 -4.882269 -6.667983 -5.5952325 3.8018777 0.5662122 1.4119302 4.5775433 4.852627 7.0606112 -0.78191143 -6.2981586 10.068382 7.7106557 -2.4793155 3.3981373 4.014142 6.857614 11.503166 4.0709696 1.2408196 -0.5771356 -9.717082 -3.8630369 -1.4859401 -3.44673 4.069362 -6.8934236 3.4579315 1.7331568 3.0128744 2.9233382 -2.9904938 2.9361677 -3.0393264 7.29249 -5.0362396 -2.5287232 2.399568 0.29214734 -5.68842 4.7175426 -0.6918416 4.805268 -1.9310919 
1 -11.335194 -19.222612 7.552575 2.5630112 -1.7493386 -4.7651725 10.784423 18.285872 8.595988 -1.9282682 13.574083 -1.0770551 -14.10464 10.400499 -6.824561 -8.689691 5.037298 6.538047 3.6119392 7.4759803 9.467829 -7.504646 -1.0604769 -3.8732228 -13.061074 8.479196 1.8563677 -0.775995 7.4792023 -8.469155 9.142481 8.88956 5.1033325 8.110304 4.6495223 10.567727 8.181336 -4.32076 -3.102931 -1.5985725 4.355096 6.548479 3.4923403 -7.643267 5.6920123 -0.6388196 0.9425956 -5.460374 -2.3463573 -2.3518088 
1 -10.0746355 -6.939413 0.2870112 -2.4834914 12.802221 8.746901 8.83914 3.2817616 -0.16384993 -6.797794 7.2146144 -7.3269653 6.1343446 -1.2751005 -7.4808784 9.535845 -7.3687487 -1.7947509 -4.0379515 2.749694 -6.6967773 -6.856393 7.46954 1.5908289 -1.3029304 -3.509914 3.5907774 3.058473 0.29794055 -0.8324914 1.0633633 7.447568 -0.9241877 0.89681906 -0.6043249 1.8631177 -5.8600926 -3.1088564 4.20181 9.450635 -6.071014 4.0858464 -1.8700294 0.2151635 2.2599514 -0.35549974 7.9103427 -2.4570227 3.9188285 -2.0493999 
0 -19.209621 -25.383215 16.852406 12.000166 6.912456 -6.112845 13.801436 -22.474003 19.033869 15.302619 11.631487 -1.7328479 -3.242844 -1.4510683 5.9393153 -1.5244895 6.749797 11.481486 -7.973191 -19.537273 10.244802 2.0370088 15.491537 -6.733164 -4.5464935 7.4964433 -0.79609233 4.15652 -1.2968093 2.341467 1.359731 -2.384339 0.21086998 -7.8988414 -0.4119355 6.7467194 -1.5994028 4.977588 1.9597208 -1.9896388 6.7684865 -0.62009823 4.002912 -7.979873 -1.6711031 2.7658463 0.008901149 -3.6268075 3.8561685 -1.8207978 
4 -8.85062 19.494257 19.437195 1.8176519 -2.309802 -5.062064 -17.885645 7.9248486 -5.266792 13.569904 -8.331077 10.444086 -4.1286216 0.64842975 -2.1404626 -10.634627 9.201018 0.59071875 1.1755198 -0.9241283 2.1849477 0.30958202 -1.2979739 -1.6611204 -5.860555 -3.9615507 -3.7302136 12.888507 0.9229318 -0.50326794 1.207956 2.3261726 3.9610603 0.75539684 -11.561046 7.4935923 -7.1397963 3.0736876 -3.1833084 4.1532393 6.3421793 5.478823 0.5756429 7.1822295 -6.608924 -10.718266 -0.06636238 -6.076289 7.746586 2.6222038 
4 -19.598663 31.030916 -1.4077811 -9.703204 -5.0217924 -10.489316 -1.5795143 2.360227 9.324123 8.863964 -2.8881454 10.551676 -25.814932 -5.994922 29.54905 -14.978216 6.80384 -11.988018 -6.040271 -19.932617 2.4839213 -12.441406 11.599999 -6.3785777 -3.5172853 13.983286 0.6081575 6.5603676 1.6737971 -3.4683526 -10.42858 2.7763472 3.7536519 1.5138698 3.7782161 3.2720492 1.0856009 6.6945906 -2.800203 3.3076336 5.5150895 2.2097144 -14.899971 -6.527112 -8.539101 -7.720321 -0.16657273 7.402421 3.1214747 3.0221741 
3 3.0467982 7.2501974 2.6541843 8.476289 2.4521132 -7.512145 -7.2592325 15.578529 -2.419508 -3.42398 8.13829 4.3310313 -0.8066853 1.3961294 -2.5670855 0.10356413 3.1211452 -8.651415 -7.329484 6.5494165 -10.125877 -5.6483536 5.326382 -0.3693715 -4.740334 -3.6203325 2.3445773 -3.6646364 8.202273 2.5540364 0.55021244 1.691667 -5.951889 5.3419466 -6.829502 5.4468703 -7.7518535 -10.438362 4.40866 1.0236326 0.40602508 -5.349871 -0.4519161 -6.093519 -1.2002633 -7.999105 4.3156624 4.6247044 3.953362 -0.8878287 
0 5.261189 -21.26639 9.304728 8.18581 5.506257 19.454115 -2.013741 0.20985807 -6.5857315 -11.99176 6.7760344 -0.38178697 -16.466734 14.818298 -3.8584776 1.4632992 -13.9960165 3.8852222 1.1043924 -3.2792804 16.422663 -11.419734 4.7201934 2.6537838 1.9652221 -14.101715 10.962538 2.1345387 -3.4090276 0.7484327 -11.05332 3.8087347 3.1791928 3.1176314 5.8768115 -1.8409247 -2.1787586 -3.2159185 2.3225007 -0.7039764 -9.889768 -7.1396394 -1.9611833 3.9509056 0.58979523 -6.2927704 -6.8055587 6.3320074 5.2411656 -0.22031932 
1 -14.687021 -7.539405 13.696591 21.364666 -19.920305 -1.3576617 3.863173 -2.3230805 -13.417965 4.179684 -12.09002 2.4846032 5.6114435 -5.444098 -3.5932214 1.7612013 10.309578 0.41133225 1.3448052 1.8887266 3.2062612 -4.9284854 4.383529 2.4761546 -4.4039516 -8.009898 5.364959 -5.239106 3.6210797 -3.539995 7.329616 1.8057295 0.42653894 2.4511564 7.5153103 1.3211473 -5.9576426 2.3736272 0.8586039 -3.774609 -1.0926507 1.1943562 7.0621 5.002812 -0.067174554 -5.8288198 -4.4303613 -2.984587 -4.2947187 -2.8197188 
1 -26.153952 -25.298603 -0.9201243 5.350021 -9.068291 -11.1551895 10.046361 -10.621896 -7.3200016 2.5797524 -5.417951 -16.072844 4.7107806 -3.7355762 0.047925632 7.7047386 5.7946186 3.0371335 4.0148168 -0.12975007 -4.421385 3.2312949 3.4584613 -3.2808883 -1.250259 0.4711458 -1.7739419 4.3280115 4.1983886 -6.7115765 6.9270816 -3.7745302 -2.0828435 2.5791514 0.45597816 7.2699947 -0.49959466 1.6008166 9.37345 0.106439084 -3.342248 -2.7247455 -2.8604753 -0.80012923 -5.941912 7.017481 4.382637 -1.4216698 1.5244857 -2.0802712 
2 34.946716 -13.960055 -10.114462 20.4813 10.093484 4.8011856 14.526914 10.892213 7.161784 1.4941118 -7.6827965 5.4034743 -4.537686 4.523359 5.7817864 8.846755 -2.4382489 6.0294294 2.0064535 1.8046938 -11.811167 9.939745 -3.2133465 6.712741 -3.4086878 1.6666892 -0.7765871 4.3502464 0.8670994 -2.7178895 1.8403479 -0.98340476 7.9148006 -5.499226 3.1370099 -3.426846 -2.1499197 1.7481208 -0.31039596 0.4522008 1.3741915 3.330018 0.67242026 5.967503 1.5153184 -0.21200125 -6.282464 1.425745 5.586567 1.5176134 
3 -22.322536 -19.58273 -9.834261 -8.732478 14.89347 5.061946 5.40564 -5.846757 6.287233 1.8976142 -9.446234 -10.828165 1.0467438 -8.112931 3.451402 -0.42278945 1.6563876 10.790422 5.8852215 -2.8239858 4.5102963 8.864921 10.950451 -2.4059913 9.35455 2.8130915 -7.267315 9.290563 0.86629635 -1.1029192 0.4541452 -1.482057 1.7972367 4.9728317 -5.7563934 -2.9921498 -2.1630821 1.6350908 2.6780696 4.11396 -4.1589823 -4.1624985 0.30268425 1.8764789 -3.254553 -0.07948767 7.246379 -1.8339679 5.713565 -6.644412 
2 55.23925 -1.2328897 -19.743578 -17.677637 -10.637772 -15.432691 -18.118597 -16.27703 -1.2530282 3.324607 9.017707 -2.8567822 12.454401 -4.8052387 -8.821004 0.3845729 -9.076672 2.1008945 3.0342863 -6.253807 7.6446233 7.473347 10.549072 -3.5227196 -14.818763 2.553365 -0.7756324 4.795724 10.977394 5.390195 13.433671 1.692283 1.2736969 -2.6045103 -0.5624492 1.2934701 -4.004091 -3.3330364 -7.027901 1.1860498 2.5115345 7.3051977 -8.660804 -3.809418 6.6294656 0.8455103 -3.7550793 4.709264 1.1554419 -2.7232182 
4 7.5549083 -3.1439693 11.608194 9.184289 1.9247887 -6.093677 -6.176961 20.64379 -5.554962 3.717491 9.992267 7.3901606 9.392503 1.0589657 11.058122 -5.441237 -7.02671 -9.621884 -0.5694302 2.4546695 -7.1603737 4.5662107 9.790574 2.1030953 0.10071987 -6.8641634 6.147554 2.5834587 4.6912546 6.37996 0.41861105 -2.312273 12.137703 -17.67781 -7.8994293 -3.4645348 4.979093 -0.5524281 -1.1086489 5.9028816 7.7924833 -7.7618136 3.5014787 1.1691015 -6.8913693 -0.7153915 7.624987 -2.395734 5.7137165 8.648646 
1 -3.5158372 2.507519 16.418205 6.4357657 -1.1289383 -7.812581 -7.6155763 -7.333149 -5.109123 -11.18853 8.7468405 2.7743938 -11.707761 0.054650694 -0.016444463 10.469471 10.9667635 -17.85833 11.9787855 8.716431 -8.71025 -1.5137638 1.8765486 -3.8143618 -0.26097566 -3.90757 8.926674 -10.095411 10.283713 -4.4488997 -4.451544 3.264441 -3.1928356 2.2880347 -4.0959163 -13.608018 -10.223317 -6.8047647 2.4544647 1.5734725 -1.3973374 -2.9132745 2.692601 2.5400183 -4.1756907 3.9506972 -0.20601964 6.628566 0.33333135 -0.56761575 
2 42.200005 -0.17118573 -5.8905535 6.6246367 -11.301999 -8.658148 14.607002 -7.359897 2.9339385 -2.1049006 -7.63709 11.23131 -5.9023204 -7.4347496 10.839163 5.033711 -12.678318 -2.429337 -1.1747429 12.5146055 -3.1380975 -0.9421872 2.3432596 6.982692 1.9401357 5.647667 -10.929022 -2.0930562 -7.3719945 2.0304935 7.973837 -1.2600764 -3.1387243 6.388739 7.085975 1.8385527 -7.253626 -8.885264 -0.29827666 6.491127 7.5508595 -7.381544 0.4545976 1.4804989 -1.263229 -3.3353765 0.644245 -4.387319 -0.46212512 2.5430028 
2 54.506985 -0.91934544 -20.510918 13.514176 -6.9743733 9.623351 19.839064 0.4760549 -8.379427 1.7457348 -7.368086 8.991958 5.0288467 10.244405 10.018206 0.871788 5.006489 5.537519 1.9455606 -7.4395285 -0.98028964 -2.0335808 -6.9839554 2.0591998 -2.2010467 1.4487298 -4.467573 -3.0736344 2.835382 6.2836 -2.093276 -6.028998 -2.989524 0.6858181 -1.27722 -4.2961993 -4.675578 4.619702 -10.916092 1.1181726 4.9186373 -4.2239313 -6.5573707 3.3635535 6.0194106 0.9241769 5.0842886 -5.559332 1.2169142 1.5790236 
2 53.34285 -7.307096 -25.728891 10.723888 9.766574 -3.5435686 0.107919335 2.6180956 -3.4014764 21.841352 -2.953748 -11.479185 -17.65244 -5.5515094 1.2774454 15.263468 4.1722884 1.2354808 -5.6879377 9.5183 4.274376 -5.373345 -5.7613215 5.9472227 3.8155353 -8.507278 -4.50892 6.1717634 -0.36632043 -3.7558923 -2.579032 2.5264926 -2.7755067 -6.509318 0.54031944 -1.1288218 4.00412 7.7099876 -0.75383306 9.043878 -3.997326 0.28998727 -0.75264955 2.002157 -0.45689842 -1.5831461 -3.345133 -4.7317553 -6.061101 8.516825 
1 -19.06713 -19.634808 5.942043 3.3219328 -10.849653 -11.374773 15.3807745 -1.3671932 3.5241845 -1.2947499 -9.704487 -7.191446 6.810395 -3.8907056 -3.6900148 1.4118223 5.1884956 0.09388449 11.4918375 8.738171 2.264344 -3.323212 -0.20861118 -0.3367589 -8.060641 -0.87745917 1.2150218 2.060012 12.324226 -2.7104397 5.135969 -1.8778472 -1.5517977 -8.46288 10.818643 -3.1701052 -5.5246253 0.96917653 4.014292 0.46605104 2.4168737 -2.244375 -4.899023 -0.2834688 -0.89087373 4.237441 4.0215774 0.27023876 4.6161294 7.3884954 
4 -19.72713 36.90013 -8.539482 -4.574933 -4.097956 17.760239 4.5634937 -0.5646446 -1.6163003 2.103055 2.7477958 4.147749 8.108692 4.6320243 1.9832388 4.303582 -3.57811 -1.7751831 0.110273525 -1.8239505 0.5621033 -0.29139575 2.569379 13.512879 0.9845245 -2.5170841 2.9595506 10.7109585 15.236259 -5.0261965 6.297731 4.073741 0.5148453 -4.3022985 -5.858945 1.4467543 -2.4846697 1.2715203 -1.5227857 -1.9230256 -3.4122765 -1.5095034 -2.4836524 -3.4474845 -3.8086588 1.7673502 -1.3606774 -5.6198697 -6.391309 0.47753614 
1 -18.072918 -21.684753 8.98855 11.043888 -19.341368 -7.035378 10.99549 2.010897 6.7719727 -2.423103 1.292256 -8.578462 1.9448743 9.763784 -8.9206295 -0.93944716 0.6526332 5.903527 5.6579237 9.943565 7.599496 1.1153544 0.10509342 -6.6523013 -5.5926237 1.3739735 3.5446298 5.3995 4.765622 -3.9110105 10.206732 -1.7786019 -0.7964885 -4.9504848 3.93708 2.2694335 -1.1613815 5.9153914 2.3207424 5.597459 5.763659 1.5602171 3.5385866 7.587298 0.11840075 1.0167015 3.3869085 -6.788848 -5.4692993 3.61726 
4 -8.545676 12.659221 -1.5408232 8.317449 -7.66991 -9.888616 3.7879603 8.57165 6.4104133 -7.620347 4.397529 -1.8406328 -0.28967318 -1.4346647 -0.79267275 13.447182 -7.4406962 -2.7322311 7.9445453 -2.5268235 8.988596 -3.0440161 -3.2116616 8.173173 -1.3391203 -11.169372 3.8162975 -5.8084865 2.35767 13.761857 -1.9201803 -3.152311 -0.73261106 -7.1824856 -4.065481 -8.418817 0.25743854 -8.608299 -6.3095193 -5.2198415 -0.13966435 -10.513174 10.135058 -9.246638 -1.7490366 -10.106231 4.47662 3.2963297 -2.5041955 -0.30452433 
2 22.188635 6.2698994 7.397415 2.0829363 -8.007823 -4.3793907 -11.480238 8.319552 0.9594949 -4.067292 12.405393 3.1585472 -19.327848 -5.1114554 13.068259 5.187981 -9.770874 -4.0868473 3.0996425 7.4642916 9.525064 9.608859 0.83921874 3.7655463 -3.8378472 -3.2200022 -3.0567853 -1.4132719 0.055657238 4.6705356 5.031987 -3.6683018 -2.0263531 0.20042586 -2.513734 -2.380636 5.0592375 -2.7325048 5.31572 -5.2543406 -0.6242722 1.9449341 4.277512 1.8429283 -1.7336609 -0.8058565 5.4788203 4.345618 2.916382 -0.49933958 
3 -26.72709 -5.613011 -22.813456 -16.387402 7.7790427 -2.0373755 12.163565 2.5079644 -18.137127 -7.448175 -1.320557 -3.0984347 1.2090112 4.232562 2.164183 -3.422054 -8.826856 -0.8582173 -7.2810774 -2.7886236 -0.08239472 -2.8365676 -5.423291 3.9744053 -3.9068706 2.7814634 -0.68845797 -5.19878 -5.7113805 -5.5440636 8.906182 4.805114 1.0054073 -7.1079063 6.131734 2.9070168 -2.347758 -5.7399955 4.5022907 -1.2116629 1.5446403 3.0291522 4.7867174 0.88233757 2.9699621 2.4553068 3.007005 -6.7289424 7.8059354 4.563614 
4 -24.311651 21.183401 2.6152918 15.52768 -21.168507 10.4632 -0.8592471 7.964371 -12.02159 24.740637 -19.178139 -1.267122 11.802445 1.0846497 -13.85964 -11.899831 5.9358926 11.601248 -10.997199 3.3620732 9.572512 8.869569 6.572709 -9.346166 -4.395651 -3.248831 -6.4003854 5.5658674 -7.366082 3.7923687 2.1020334 -2.017434 -2.5440607 4.8159695 -2.598657 -14.765336 1.3076609 -5.258191 -3.5544412 -0.8832563 4.851938 3.421998 6.2677293 1.7549686 -3.4060287 -4.5273585 -5.852699 -5.095164 8.552519 -6.3285375 
2 38.803757 6.045734 -5.8618255 -6.748393 5.2529907 4.844655 -7.1130285 -3.0740893 -8.4480295 -0.031596303 -3.080132 -12.579208 -18.603916 -9.894605 -6.531902 -8.157256 3.425447 11.332925 10.642927 -4.107016 -3.9398181 -8.771067 6.6947017 1.2710688 4.9343615 -4.564448 -5.541173 -4.8240976 -3.7921443 4.8430204 -12.321502 -0.8244608 4.9514623 -9.929501 -3.848103 -3.2865076 -0.471313 5.0505295 -4.256713 6.2211623 -3.7427223 0.8576957 1.4428139 -2.226231 -3.2038422 4.0569816 2.1464002 -8.033758 -8.842236 5.6232085 
3 -25.540092 -8.126444 -18.311226 -32.77246 14.609663 -2.545506 18.00491 -1.9891311 6.3965273 1.9691728 2.016572 2.4176083 0.2135941 -0.46257722 9.2866 -0.055116385 -1.8844906 -3.780819 -0.6767871 -7.408504 5.1630883 2.5452273 5.445147 1.5695168 -1.311552 -5.6268806 0.40833008 -6.083193 -0.7398844 -0.97097766 3.646234 4.1460457 -2.3314562 -4.153426 -1.0347426 0.10050917 -5.4739723 3.1297557 0.28010753 4.5186424 -0.96854734 -0.20811944 3.874617 6.019369 0.60599494 -0.23830059 -1.4144791 -0.34126198 1.5438317 -2.4791389 
